<?xml version="1.0"?>
<opencv_storage>
<cascade>
  <stageType>BOOST</stageType>
  <featureType>HAAR</featureType>
  <height>50</height>
  <width>50</width>
  <stageParams>
    <boostType>GAB</boostType>
    <minHitRate>9.9500000476837158e-01</minHitRate>
    <maxFalseAlarm>5.0000000000000000e-01</maxFalseAlarm>
    <weightTrimRate>9.4999999999999996e-01</weightTrimRate>
    <maxDepth>1</maxDepth>
    <maxWeakCount>100</maxWeakCount></stageParams>
  <featureParams>
    <maxCatCount>0</maxCatCount>
    <featSize>1</featSize>
    <mode>BASIC</mode></featureParams>
  <stageNum>12</stageNum>
  <stages>
    <!-- stage 0 -->
    <_>
      <maxWeakCount>2</maxWeakCount>
      <stageThreshold>-3.1612545251846313e-01</stageThreshold>
      <weakClassifiers>
        <_>
          <internalNodes>
            0 -1 26 1.7370654270052910e-02</internalNodes>
          <leafValues>
            -9.5711928606033325e-01 7.9825770854949951e-01</leafValues></_>
        <_>
          <internalNodes>
            0 -1 21 9.0951621532440186e-03</internalNodes>
          <leafValues>
            -9.3762296438217163e-01 6.4099383354187012e-01</leafValues></_></weakClassifiers></_>
    <!-- stage 1 -->
    <_>
      <maxWeakCount>4</maxWeakCount>
      <stageThreshold>-6.4835435152053833e-01</stageThreshold>
      <weakClassifiers>
        <_>
          <internalNodes>
            0 -1 9 -8.7203513830900192e-03</internalNodes>
          <leafValues>
            7.2128784656524658e-01 -8.8015395402908325e-01</leafValues></_>
        <_>
          <internalNodes>
            0 -1 29 2.4120902642607689e-02</internalNodes>
          <leafValues>
            -8.8889092206954956e-01 5.7073849439620972e-01</leafValues></_>
        <_>
          <internalNodes>
            0 -1 36 3.0442461138591170e-04</internalNodes>
          <leafValues>
            -9.5101362466812134e-01 4.0192237496376038e-01</leafValues></_>
        <_>
          <internalNodes>
            0 -1 23 1.7944485880434513e-03</internalNodes>
          <leafValues>
            -6.1298900842666626e-01 7.1876806020736694e-01</leafValues></_></weakClassifiers></_>
    <!-- stage 2 -->
    <_>
      <maxWeakCount>4</maxWeakCount>
      <stageThreshold>-6.3245189189910889e-01</stageThreshold>
      <weakClassifiers>
        <_>
          <internalNodes>
            0 -1 16 6.3687874935567379e-03</internalNodes>
          <leafValues>
            -9.4073051214218140e-01 5.1653736829757690e-01</leafValues></_>
        <_>
          <internalNodes>
            0 -1 3 5.5605441957595758e-06</internalNodes>
          <leafValues>
            -8.8294196128845215e-01 4.1740751266479492e-01</leafValues></_>
        <_>
          <internalNodes>
            0 -1 18 3.9526023901998997e-03</internalNodes>
          <leafValues>
            -6.1380779743194580e-01 6.9758850336074829e-01</leafValues></_>
        <_>
          <internalNodes>
            0 -1 0 -7.8573841601610184e-03</internalNodes>
          <leafValues>
            5.0467896461486816e-01 -9.4313275814056396e-01</leafValues></_></weakClassifiers></_>
    <!-- stage 3 -->
    <_>
      <maxWeakCount>1</maxWeakCount>
      <stageThreshold>4.3529412150382996e-01</stageThreshold>
      <weakClassifiers>
        <_>
          <internalNodes>
            0 -1 5 1.7346985259791836e-05</internalNodes>
          <leafValues>
            -9.8577076196670532e-01 4.3529412150382996e-01</leafValues></_></weakClassifiers></_>
    <!-- stage 4 -->
    <_>
      <maxWeakCount>3</maxWeakCount>
      <stageThreshold>-1.3328665494918823e+00</stageThreshold>
      <weakClassifiers>
        <_>
          <internalNodes>
            0 -1 8 1.2581219198182225e-04</internalNodes>
          <leafValues>
            4.4062501192092896e-01 -9.1641789674758911e-01</leafValues></_>
        <_>
          <internalNodes>
            0 -1 15 5.3029228001832962e-03</internalNodes>
          <leafValues>
            -8.4040021896362305e-01 4.8162016272544861e-01</leafValues></_>
        <_>
          <internalNodes>
            0 -1 25 1.3537783175706863e-02</internalNodes>
          <leafValues>
            -9.3309140205383301e-01 3.4628516435623169e-01</leafValues></_></weakClassifiers></_>
    <!-- stage 5 -->
    <_>
      <maxWeakCount>2</maxWeakCount>
      <stageThreshold>-2.4235749244689941e-01</stageThreshold>
      <weakClassifiers>
        <_>
          <internalNodes>
            0 -1 24 2.2205463610589504e-03</internalNodes>
          <leafValues>
            -6.1549776792526245e-01 6.2063407897949219e-01</leafValues></_>
        <_>
          <internalNodes>
            0 -1 32 5.6691544159548357e-05</internalNodes>
          <leafValues>
            -9.9115389585494995e-01 3.7314030528068542e-01</leafValues></_></weakClassifiers></_>
    <!-- stage 6 -->
    <_>
      <maxWeakCount>4</maxWeakCount>
      <stageThreshold>-8.0823493003845215e-01</stageThreshold>
      <weakClassifiers>
        <_>
          <internalNodes>
            0 -1 32 2.6828030240722001e-04</internalNodes>
          <leafValues>
            4.7739890217781067e-01 -9.4629895687103271e-01</leafValues></_>
        <_>
          <internalNodes>
            0 -1 19 2.4438295513391495e-03</internalNodes>
          <leafValues>
            -6.2671977281570435e-01 6.0576808452606201e-01</leafValues></_>
        <_>
          <internalNodes>
            0 -1 11 3.1821241136640310e-03</internalNodes>
          <leafValues>
            3.9432030916213989e-01 -9.7477364540100098e-01</leafValues></_>
        <_>
          <internalNodes>
            0 -1 31 -1.0167711297981441e-04</internalNodes>
          <leafValues>
            -9.2648017406463623e-01 3.7046355009078979e-01</leafValues></_></weakClassifiers></_>
    <!-- stage 7 -->
    <_>
      <maxWeakCount>4</maxWeakCount>
      <stageThreshold>-5.3980153799057007e-01</stageThreshold>
      <weakClassifiers>
        <_>
          <internalNodes>
            0 -1 24 2.1387215238064528e-03</internalNodes>
          <leafValues>
            -6.3610452413558960e-01 6.9025069475173950e-01</leafValues></_>
        <_>
          <internalNodes>
            0 -1 33 3.3241711207665503e-05</internalNodes>
          <leafValues>
            -9.4030332565307617e-01 3.8936898112297058e-01</leafValues></_>
        <_>
          <internalNodes>
            0 -1 22 4.2867651209235191e-03</internalNodes>
          <leafValues>
            -6.4242541790008545e-01 5.7619917392730713e-01</leafValues></_>
        <_>
          <internalNodes>
            0 -1 2 -8.3339978009462357e-03</internalNodes>
          <leafValues>
            4.5387741923332214e-01 -8.6594808101654053e-01</leafValues></_></weakClassifiers></_>
    <!-- stage 8 -->
    <_>
      <maxWeakCount>3</maxWeakCount>
      <stageThreshold>-2.4053984880447388e-01</stageThreshold>
      <weakClassifiers>
        <_>
          <internalNodes>
            0 -1 20 -1.5164583921432495e-02</internalNodes>
          <leafValues>
            4.1066563129425049e-01 -8.6776858568191528e-01</leafValues></_>
        <_>
          <internalNodes>
            0 -1 12 5.6970920923049562e-06</internalNodes>
          <leafValues>
            -8.8900411128997803e-01 3.3886235952377319e-01</leafValues></_>
        <_>
          <internalNodes>
            0 -1 10 2.4911575019359589e-03</internalNodes>
          <leafValues>
            -9.5518052577972412e-01 2.8836640715599060e-01</leafValues></_></weakClassifiers></_>
    <!-- stage 9 -->
    <_>
      <maxWeakCount>5</maxWeakCount>
      <stageThreshold>-4.4009992480278015e-01</stageThreshold>
      <weakClassifiers>
        <_>
          <internalNodes>
            0 -1 17 -1.5745487064123154e-02</internalNodes>
          <leafValues>
            4.1761252284049988e-01 -8.6765801906585693e-01</leafValues></_>
        <_>
          <internalNodes>
            0 -1 4 -1.4265269273892045e-03</internalNodes>
          <leafValues>
            3.9363244175910950e-01 -8.9866286516189575e-01</leafValues></_>
        <_>
          <internalNodes>
            0 -1 37 2.6246050310874125e-06</internalNodes>
          <leafValues>
            -9.3350499868392944e-01 3.1328073143959045e-01</leafValues></_>
        <_>
          <internalNodes>
            0 -1 27 9.1303372755646706e-03</internalNodes>
          <leafValues>
            2.8348344564437866e-01 -8.9515697956085205e-01</leafValues></_>
        <_>
          <internalNodes>
            0 -1 6 -5.9393160045146942e-03</internalNodes>
          <leafValues>
            7.2945678234100342e-01 -4.8123300075531006e-01</leafValues></_></weakClassifiers></_>
    <!-- stage 10 -->
    <_>
      <maxWeakCount>5</maxWeakCount>
      <stageThreshold>-9.8284494876861572e-01</stageThreshold>
      <weakClassifiers>
        <_>
          <internalNodes>
            0 -1 30 2.9749910027021542e-05</internalNodes>
          <leafValues>
            -8.9787232875823975e-01 3.5045871138572693e-01</leafValues></_>
        <_>
          <internalNodes>
            0 -1 35 -7.0278576458804309e-05</internalNodes>
          <leafValues>
            -9.3932962417602539e-01 2.7108719944953918e-01</leafValues></_>
        <_>
          <internalNodes>
            0 -1 28 6.8157673813402653e-03</internalNodes>
          <leafValues>
            -8.7390553951263428e-01 3.6611792445182800e-01</leafValues></_>
        <_>
          <internalNodes>
            0 -1 1 2.0940497051924467e-03</internalNodes>
          <leafValues>
            2.3722487688064575e-01 -9.7323715686798096e-01</leafValues></_>
        <_>
          <internalNodes>
            0 -1 14 -7.4148382991552353e-03</internalNodes>
          <leafValues>
            -9.7346937656402588e-01 2.8062084317207336e-01</leafValues></_></weakClassifiers></_>
    <!-- stage 11 -->
    <_>
      <maxWeakCount>3</maxWeakCount>
      <stageThreshold>-2.6619273424148560e-01</stageThreshold>
      <weakClassifiers>
        <_>
          <internalNodes>
            0 -1 13 9.8554519354365766e-06</internalNodes>
          <leafValues>
            -8.4170472621917725e-01 3.8901779055595398e-01</leafValues></_>
        <_>
          <internalNodes>
            0 -1 7 1.6071862773969769e-03</internalNodes>
          <leafValues>
            3.0326873064041138e-01 -9.6794641017913818e-01</leafValues></_>
        <_>
          <internalNodes>
            0 -1 34 -5.7933619245886803e-05</internalNodes>
          <leafValues>
            -9.5847928524017334e-01 3.2282564043998718e-01</leafValues></_></weakClassifiers></_></stages>
  <features>
    <_>
      <rects>
        <_>
          7 17 20 8 -1.</_>
        <_>
          17 17 10 8 2.</_></rects>
      <tilted>0</tilted></_>
    <_>
      <rects>
        <_>
          7 20 34 12 -1.</_>
        <_>
          7 26 34 6 2.</_></rects>
      <tilted>0</tilted></_>
    <_>
      <rects>
        <_>
          8 20 21 7 -1.</_>
        <_>
          15 20 7 7 3.</_></rects>
      <tilted>0</tilted></_>
    <_>
      <rects>
        <_>
          8 22 2 1 -1.</_>
        <_>
          9 22 1 1 2.</_></rects>
      <tilted>0</tilted></_>
    <_>
      <rects>
        <_>
          9 17 20 1 -1.</_>
        <_>
          19 17 10 1 2.</_></rects>
      <tilted>0</tilted></_>
    <_>
      <rects>
        <_>
          10 18 6 1 -1.</_>
        <_>
          13 18 3 1 2.</_></rects>
      <tilted>0</tilted></_>
    <_>
      <rects>
        <_>
          10 45 30 4 -1.</_>
        <_>
          10 47 30 2 2.</_></rects>
      <tilted>0</tilted></_>
    <_>
      <rects>
        <_>
          11 11 26 24 -1.</_>
        <_>
          11 23 26 12 2.</_></rects>
      <tilted>0</tilted></_>
    <_>
      <rects>
        <_>
          11 18 4 1 -1.</_>
        <_>
          13 18 2 1 2.</_></rects>
      <tilted>0</tilted></_>
    <_>
      <rects>
        <_>
          11 19 18 6 -1.</_>
        <_>
          17 19 6 6 3.</_></rects>
      <tilted>0</tilted></_>
    <_>
      <rects>
        <_>
          12 20 30 2 -1.</_>
        <_>
          27 20 15 2 2.</_></rects>
      <tilted>0</tilted></_>
    <_>
      <rects>
        <_>
          13 10 24 16 -1.</_>
        <_>
          13 18 24 8 2.</_></rects>
      <tilted>0</tilted></_>
    <_>
      <rects>
        <_>
          13 18 3 2 -1.</_>
        <_>
          13 19 3 1 2.</_></rects>
      <tilted>0</tilted></_>
    <_>
      <rects>
        <_>
          13 19 1 4 -1.</_>
        <_>
          13 21 1 2 2.</_></rects>
      <tilted>0</tilted></_>
    <_>
      <rects>
        <_>
          17 13 14 24 -1.</_>
        <_>
          17 25 14 12 2.</_></rects>
      <tilted>0</tilted></_>
    <_>
      <rects>
        <_>
          17 20 18 5 -1.</_>
        <_>
          23 20 6 5 3.</_></rects>
      <tilted>0</tilted></_>
    <_>
      <rects>
        <_>
          21 16 9 18 -1.</_>
        <_>
          21 22 9 6 3.</_></rects>
      <tilted>0</tilted></_>
    <_>
      <rects>
        <_>
          22 25 13 18 -1.</_>
        <_>
          22 31 13 6 3.</_></rects>
      <tilted>0</tilted></_>
    <_>
      <rects>
        <_>
          22 41 6 6 -1.</_>
        <_>
          22 43 6 2 3.</_></rects>
      <tilted>0</tilted></_>
    <_>
      <rects>
        <_>
          23 16 4 9 -1.</_>
        <_>
          23 19 4 3 3.</_></rects>
      <tilted>0</tilted></_>
    <_>
      <rects>
        <_>
          23 20 21 12 -1.</_>
        <_>
          30 20 7 12 3.</_></rects>
      <tilted>0</tilted></_>
    <_>
      <rects>
        <_>
          23 33 10 12 -1.</_>
        <_>
          23 39 10 6 2.</_></rects>
      <tilted>0</tilted></_>
    <_>
      <rects>
        <_>
          23 39 4 6 -1.</_>
        <_>
          23 42 4 3 2.</_></rects>
      <tilted>0</tilted></_>
    <_>
      <rects>
        <_>
          23 40 3 6 -1.</_>
        <_>
          23 42 3 2 3.</_></rects>
      <tilted>0</tilted></_>
    <_>
      <rects>
        <_>
          24 16 4 9 -1.</_>
        <_>
          24 19 4 3 3.</_></rects>
      <tilted>0</tilted></_>
    <_>
      <rects>
        <_>
          26 12 14 11 -1.</_>
        <_>
          33 12 7 11 2.</_></rects>
      <tilted>0</tilted></_>
    <_>
      <rects>
        <_>
          26 15 16 9 -1.</_>
        <_>
          34 15 8 9 2.</_></rects>
      <tilted>0</tilted></_>
    <_>
      <rects>
        <_>
          27 13 14 18 -1.</_>
        <_>
          27 19 14 6 3.</_></rects>
      <tilted>0</tilted></_>
    <_>
      <rects>
        <_>
          29 12 15 11 -1.</_>
        <_>
          34 12 5 11 3.</_></rects>
      <tilted>0</tilted></_>
    <_>
      <rects>
        <_>
          30 18 12 22 -1.</_>
        <_>
          36 18 6 22 2.</_></rects>
      <tilted>0</tilted></_>
    <_>
      <rects>
        <_>
          34 10 1 4 -1.</_>
        <_>
          34 12 1 2 2.</_></rects>
      <tilted>0</tilted></_>
    <_>
      <rects>
        <_>
          36 13 3 6 -1.</_>
        <_>
          36 15 3 2 3.</_></rects>
      <tilted>0</tilted></_>
    <_>
      <rects>
        <_>
          36 15 2 4 -1.</_>
        <_>
          36 17 2 2 2.</_></rects>
      <tilted>0</tilted></_>
    <_>
      <rects>
        <_>
          37 17 1 4 -1.</_>
        <_>
          37 19 1 2 2.</_></rects>
      <tilted>0</tilted></_>
    <_>
      <rects>
        <_>
          37 19 4 2 -1.</_>
        <_>
          39 19 2 2 2.</_></rects>
      <tilted>0</tilted></_>
    <_>
      <rects>
        <_>
          38 19 4 2 -1.</_>
        <_>
          40 19 2 2 2.</_></rects>
      <tilted>0</tilted></_>
    <_>
      <rects>
        <_>
          41 17 2 8 -1.</_>
        <_>
          41 21 2 4 2.</_></rects>
      <tilted>0</tilted></_>
    <_>
      <rects>
        <_>
          42 21 1 2 -1.</_>
        <_>
          42 22 1 1 2.</_></rects>
      <tilted>0</tilted></_></features></cascade>
</opencv_storage>
