<?xml version="1.0"?>
<opencv_storage>
<cascade>
  <stageType>BOOST</stageType>
  <featureType>HAAR</featureType>
  <height>20</height>
  <width>20</width>
  <stageParams>
    <boostType>GAB</boostType>
    <minHitRate>9.9500000476837158e-01</minHitRate>
    <maxFalseAlarm>5.0000000000000000e-01</maxFalseAlarm>
    <weightTrimRate>9.4999999999999996e-01</weightTrimRate>
    <maxDepth>1</maxDepth>
    <maxWeakCount>100</maxWeakCount></stageParams>
  <featureParams>
    <maxCatCount>0</maxCatCount>
    <featSize>1</featSize>
    <mode>BASIC</mode></featureParams>
  <stageNum>20</stageNum>
  <stages>
    <!-- stage 0 -->
    <_>
      <maxWeakCount>4</maxWeakCount>
      <stageThreshold>-1.5250518321990967e+00</stageThreshold>
      <weakClassifiers>
        <_>
          <internalNodes>
            0 -1 59 1.1870393902063370e-01</internalNodes>
          <leafValues>
            -7.7261495590209961e-01 7.9059177637100220e-01</leafValues></_>
        <_>
          <internalNodes>
            0 -1 49 2.4517412384739146e-05</internalNodes>
          <leafValues>
            -7.0820093154907227e-01 7.0087325572967529e-01</leafValues></_>
        <_>
          <internalNodes>
            0 -1 87 2.1485907956957817e-02</internalNodes>
          <leafValues>
            -5.5295050144195557e-01 8.1533652544021606e-01</leafValues></_>
        <_>
          <internalNodes>
            0 -1 43 6.7677488550543785e-03</internalNodes>
          <leafValues>
            -7.9490077495574951e-01 5.0871449708938599e-01</leafValues></_></weakClassifiers></_>
    <!-- stage 1 -->
    <_>
      <maxWeakCount>3</maxWeakCount>
      <stageThreshold>-6.5481841564178467e-01</stageThreshold>
      <weakClassifiers>
        <_>
          <internalNodes>
            0 -1 59 1.2847976386547089e-01</internalNodes>
          <leafValues>
            -7.4582922458648682e-01 7.7471965551376343e-01</leafValues></_>
        <_>
          <internalNodes>
            0 -1 96 -2.4814084099489264e-05</internalNodes>
          <leafValues>
            7.6622664928436279e-01 -6.4255219697952271e-01</leafValues></_>
        <_>
          <internalNodes>
            0 -1 74 -2.3800719645805657e-05</internalNodes>
          <leafValues>
            7.3356306552886963e-01 -5.5636298656463623e-01</leafValues></_></weakClassifiers></_>
    <!-- stage 2 -->
    <_>
      <maxWeakCount>5</maxWeakCount>
      <stageThreshold>-6.0146808624267578e-01</stageThreshold>
      <weakClassifiers>
        <_>
          <internalNodes>
            0 -1 56 -1.0404294729232788e-01</internalNodes>
          <leafValues>
            8.4233945608139038e-01 -5.4594147205352783e-01</leafValues></_>
        <_>
          <internalNodes>
            0 -1 60 1.3783054600935429e-04</internalNodes>
          <leafValues>
            -9.5939236879348755e-01 3.7556922435760498e-01</leafValues></_>
        <_>
          <internalNodes>
            0 -1 104 2.5211416868842207e-05</internalNodes>
          <leafValues>
            -5.2892041206359863e-01 5.9246563911437988e-01</leafValues></_>
        <_>
          <internalNodes>
            0 -1 90 -2.3959659301908687e-05</internalNodes>
          <leafValues>
            6.1732935905456543e-01 -5.8155673742294312e-01</leafValues></_>
        <_>
          <internalNodes>
            0 -1 98 -2.2946294848225079e-05</internalNodes>
          <leafValues>
            6.9914031028747559e-01 -4.4200477004051208e-01</leafValues></_></weakClassifiers></_>
    <!-- stage 3 -->
    <_>
      <maxWeakCount>5</maxWeakCount>
      <stageThreshold>-7.7974545955657959e-01</stageThreshold>
      <weakClassifiers>
        <_>
          <internalNodes>
            0 -1 12 -9.1251261532306671e-02</internalNodes>
          <leafValues>
            8.4908050298690796e-01 -5.5262070894241333e-01</leafValues></_>
        <_>
          <internalNodes>
            0 -1 23 1.5143921971321106e-01</internalNodes>
          <leafValues>
            3.7096121907234192e-01 -9.6195256710052490e-01</leafValues></_>
        <_>
          <internalNodes>
            0 -1 112 1.8167227506637573e-02</internalNodes>
          <leafValues>
            -4.1015031933784485e-01 8.4717369079589844e-01</leafValues></_>
        <_>
          <internalNodes>
            0 -1 101 2.3419763238052838e-05</internalNodes>
          <leafValues>
            -4.8373964428901672e-01 6.7763376235961914e-01</leafValues></_>
        <_>
          <internalNodes>
            0 -1 92 3.2426868565380573e-03</internalNodes>
          <leafValues>
            -8.6556941270828247e-01 4.0020051598548889e-01</leafValues></_></weakClassifiers></_>
    <!-- stage 4 -->
    <_>
      <maxWeakCount>7</maxWeakCount>
      <stageThreshold>-1.5938789844512939e+00</stageThreshold>
      <weakClassifiers>
        <_>
          <internalNodes>
            0 -1 86 2.7960211038589478e-02</internalNodes>
          <leafValues>
            -4.5623233914375305e-01 7.4358975887298584e-01</leafValues></_>
        <_>
          <internalNodes>
            0 -1 46 3.4178540110588074e-02</internalNodes>
          <leafValues>
            -7.8296351432800293e-01 3.8039308786392212e-01</leafValues></_>
        <_>
          <internalNodes>
            0 -1 49 2.4517412384739146e-05</internalNodes>
          <leafValues>
            -6.7199170589447021e-01 3.9097249507904053e-01</leafValues></_>
        <_>
          <internalNodes>
            0 -1 126 -2.8335684910416603e-03</internalNodes>
          <leafValues>
            8.2653194665908813e-01 -3.3013594150543213e-01</leafValues></_>
        <_>
          <internalNodes>
            0 -1 106 -1.2288764119148254e-02</internalNodes>
          <leafValues>
            6.5976679325103760e-01 -3.6131912469863892e-01</leafValues></_>
        <_>
          <internalNodes>
            0 -1 70 -6.2085003592073917e-03</internalNodes>
          <leafValues>
            3.7226903438568115e-01 -6.4547026157379150e-01</leafValues></_>
        <_>
          <internalNodes>
            0 -1 50 2.2844855266157538e-05</internalNodes>
          <leafValues>
            -5.6332743167877197e-01 3.7791058421134949e-01</leafValues></_></weakClassifiers></_>
    <!-- stage 5 -->
    <_>
      <maxWeakCount>6</maxWeakCount>
      <stageThreshold>-1.3077621459960938e+00</stageThreshold>
      <weakClassifiers>
        <_>
          <internalNodes>
            0 -1 25 -7.3356581851840019e-03</internalNodes>
          <leafValues>
            6.5697675943374634e-01 -4.9561402201652527e-01</leafValues></_>
        <_>
          <internalNodes>
            0 -1 83 4.1152000427246094e-02</internalNodes>
          <leafValues>
            -2.8795170783996582e-01 7.1185499429702759e-01</leafValues></_>
        <_>
          <internalNodes>
            0 -1 105 2.3449292712030001e-05</internalNodes>
          <leafValues>
            -4.2899453639984131e-01 4.8738440871238708e-01</leafValues></_>
        <_>
          <internalNodes>
            0 -1 3 2.8673294000327587e-03</internalNodes>
          <leafValues>
            2.2108882665634155e-01 -8.9487653970718384e-01</leafValues></_>
        <_>
          <internalNodes>
            0 -1 7 -6.4118080772459507e-03</internalNodes>
          <leafValues>
            -8.2169628143310547e-01 2.1246741712093353e-01</leafValues></_>
        <_>
          <internalNodes>
            0 -1 131 -4.9621507059782743e-05</internalNodes>
          <leafValues>
            3.8641753792762756e-01 -4.9440115690231323e-01</leafValues></_></weakClassifiers></_>
    <!-- stage 6 -->
    <_>
      <maxWeakCount>6</maxWeakCount>
      <stageThreshold>-1.4613008499145508e+00</stageThreshold>
      <weakClassifiers>
        <_>
          <internalNodes>
            0 -1 135 2.4509716240572743e-05</internalNodes>
          <leafValues>
            -5.5142998695373535e-01 5.4758346080780029e-01</leafValues></_>
        <_>
          <internalNodes>
            0 -1 65 -1.6775559633970261e-02</internalNodes>
          <leafValues>
            5.9140640497207642e-01 -3.9503231644630432e-01</leafValues></_>
        <_>
          <internalNodes>
            0 -1 40 2.3746266379021108e-05</internalNodes>
          <leafValues>
            -4.2482358217239380e-01 5.3637444972991943e-01</leafValues></_>
        <_>
          <internalNodes>
            0 -1 51 -9.5074614509940147e-03</internalNodes>
          <leafValues>
            6.4322978258132935e-01 -3.2200819253921509e-01</leafValues></_>
        <_>
          <internalNodes>
            0 -1 35 2.7697550132870674e-02</internalNodes>
          <leafValues>
            -3.3762112259864807e-01 6.8986058235168457e-01</leafValues></_>
        <_>
          <internalNodes>
            0 -1 89 2.4541197490179911e-05</internalNodes>
          <leafValues>
            -4.5786741375923157e-01 5.3691488504409790e-01</leafValues></_></weakClassifiers></_>
    <!-- stage 7 -->
    <_>
      <maxWeakCount>6</maxWeakCount>
      <stageThreshold>-7.8698092699050903e-01</stageThreshold>
      <weakClassifiers>
        <_>
          <internalNodes>
            0 -1 88 -6.6645078361034393e-02</internalNodes>
          <leafValues>
            8.5714286565780640e-01 -3.2187071442604065e-01</leafValues></_>
        <_>
          <internalNodes>
            0 -1 116 -2.7048236006521620e-05</internalNodes>
          <leafValues>
            3.4865111112594604e-01 -7.4892610311508179e-01</leafValues></_>
        <_>
          <internalNodes>
            0 -1 66 -7.0323999971151352e-03</internalNodes>
          <leafValues>
            4.2430004477500916e-01 -4.8226583003997803e-01</leafValues></_>
        <_>
          <internalNodes>
            0 -1 53 2.7083609893452376e-05</internalNodes>
          <leafValues>
            -8.3080637454986572e-01 2.2797223925590515e-01</leafValues></_>
        <_>
          <internalNodes>
            0 -1 127 2.3559305191156454e-05</internalNodes>
          <leafValues>
            -4.9844959378242493e-01 3.5263913869857788e-01</leafValues></_>
        <_>
          <internalNodes>
            0 -1 114 9.0501286089420319e-02</internalNodes>
          <leafValues>
            1.8547034263610840e-01 -8.6905217170715332e-01</leafValues></_></weakClassifiers></_>
    <!-- stage 8 -->
    <_>
      <maxWeakCount>6</maxWeakCount>
      <stageThreshold>-1.2910166978836060e+00</stageThreshold>
      <weakClassifiers>
        <_>
          <internalNodes>
            0 -1 125 -4.9483180046081543e-02</internalNodes>
          <leafValues>
            7.3742139339447021e-01 -3.4384164214134216e-01</leafValues></_>
        <_>
          <internalNodes>
            0 -1 122 1.6715507954359055e-03</internalNodes>
          <leafValues>
            2.6343631744384766e-01 -8.6234301328659058e-01</leafValues></_>
        <_>
          <internalNodes>
            0 -1 100 6.6828974522650242e-03</internalNodes>
          <leafValues>
            -7.9433572292327881e-01 2.0651508867740631e-01</leafValues></_>
        <_>
          <internalNodes>
            0 -1 128 1.2551127001643181e-03</internalNodes>
          <leafValues>
            2.0490661263465881e-01 -8.0690270662307739e-01</leafValues></_>
        <_>
          <internalNodes>
            0 -1 102 -1.8055574037134647e-03</internalNodes>
          <leafValues>
            5.1142799854278564e-01 -3.6402374505996704e-01</leafValues></_>
        <_>
          <internalNodes>
            0 -1 72 -2.8481276240199804e-03</internalNodes>
          <leafValues>
            7.1003776788711548e-01 -2.5715848803520203e-01</leafValues></_></weakClassifiers></_>
    <!-- stage 9 -->
    <_>
      <maxWeakCount>7</maxWeakCount>
      <stageThreshold>-7.2786670923233032e-01</stageThreshold>
      <weakClassifiers>
        <_>
          <internalNodes>
            0 -1 64 8.1057269126176834e-03</internalNodes>
          <leafValues>
            -4.9618321657180786e-01 5.4621851444244385e-01</leafValues></_>
        <_>
          <internalNodes>
            0 -1 97 -2.7186404913663864e-02</internalNodes>
          <leafValues>
            -9.2302185297012329e-01 2.2754022479057312e-01</leafValues></_>
        <_>
          <internalNodes>
            0 -1 57 8.6489357054233551e-02</internalNodes>
          <leafValues>
            -8.3685523271560669e-01 2.1188730001449585e-01</leafValues></_>
        <_>
          <internalNodes>
            0 -1 93 -1.3489779084920883e-02</internalNodes>
          <leafValues>
            7.4301767349243164e-01 -2.6271218061447144e-01</leafValues></_>
        <_>
          <internalNodes>
            0 -1 84 8.1130918115377426e-03</internalNodes>
          <leafValues>
            -3.1542298197746277e-01 8.1548166275024414e-01</leafValues></_>
        <_>
          <internalNodes>
            0 -1 18 2.5445257779210806e-03</internalNodes>
          <leafValues>
            3.3977708220481873e-01 -7.1674919128417969e-01</leafValues></_>
        <_>
          <internalNodes>
            0 -1 85 -6.0776155441999435e-03</internalNodes>
          <leafValues>
            7.1909946203231812e-01 -2.8792068362236023e-01</leafValues></_></weakClassifiers></_>
    <!-- stage 10 -->
    <_>
      <maxWeakCount>6</maxWeakCount>
      <stageThreshold>-6.7178899049758911e-01</stageThreshold>
      <weakClassifiers>
        <_>
          <internalNodes>
            0 -1 121 1.0846167802810669e-02</internalNodes>
          <leafValues>
            -4.1782006621360779e-01 5.7227486371994019e-01</leafValues></_>
        <_>
          <internalNodes>
            0 -1 123 -1.8654584418982267e-03</internalNodes>
          <leafValues>
            -6.9753295183181763e-01 3.0416306853294373e-01</leafValues></_>
        <_>
          <internalNodes>
            0 -1 20 1.2214841553941369e-03</internalNodes>
          <leafValues>
            2.0158338546752930e-01 -7.9731643199920654e-01</leafValues></_>
        <_>
          <internalNodes>
            0 -1 9 1.3122007250785828e-01</internalNodes>
          <leafValues>
            1.3802433013916016e-01 -9.4834506511688232e-01</leafValues></_>
        <_>
          <internalNodes>
            0 -1 56 -1.2233915179967880e-01</internalNodes>
          <leafValues>
            4.9755528569221497e-01 -3.3397796750068665e-01</leafValues></_>
        <_>
          <internalNodes>
            0 -1 80 1.5973277390003204e-02</internalNodes>
          <leafValues>
            -3.0892556905746460e-01 6.4413303136825562e-01</leafValues></_></weakClassifiers></_>
    <!-- stage 11 -->
    <_>
      <maxWeakCount>8</maxWeakCount>
      <stageThreshold>-8.4294617176055908e-01</stageThreshold>
      <weakClassifiers>
        <_>
          <internalNodes>
            0 -1 11 -3.1784951686859131e-02</internalNodes>
          <leafValues>
            5.4096639156341553e-01 -4.9141222238540649e-01</leafValues></_>
        <_>
          <internalNodes>
            0 -1 19 1.5353567432612181e-03</internalNodes>
          <leafValues>
            2.1645778417587280e-01 -7.5578647851943970e-01</leafValues></_>
        <_>
          <internalNodes>
            0 -1 41 3.0996673740446568e-03</internalNodes>
          <leafValues>
            -4.4455543160438538e-01 3.4960365295410156e-01</leafValues></_>
        <_>
          <internalNodes>
            0 -1 17 -2.3205764591693878e-05</internalNodes>
          <leafValues>
            4.5623451471328735e-01 -3.6348336935043335e-01</leafValues></_>
        <_>
          <internalNodes>
            0 -1 16 1.4236872084438801e-03</internalNodes>
          <leafValues>
            2.5119426846504211e-01 -6.3629007339477539e-01</leafValues></_>
        <_>
          <internalNodes>
            0 -1 32 1.8748950678855181e-03</internalNodes>
          <leafValues>
            -3.4655788540840149e-01 4.7932568192481995e-01</leafValues></_>
        <_>
          <internalNodes>
            0 -1 76 1.0555044282227755e-03</internalNodes>
          <leafValues>
            -5.2237194776535034e-01 3.5392695665359497e-01</leafValues></_>
        <_>
          <internalNodes>
            0 -1 5 9.5607870025560260e-04</internalNodes>
          <leafValues>
            2.2733528912067413e-01 -6.8260419368743896e-01</leafValues></_></weakClassifiers></_>
    <!-- stage 12 -->
    <_>
      <maxWeakCount>7</maxWeakCount>
      <stageThreshold>-6.8611687421798706e-01</stageThreshold>
      <weakClassifiers>
        <_>
          <internalNodes>
            0 -1 134 7.5049307197332382e-03</internalNodes>
          <leafValues>
            -3.5028249025344849e-01 5.7030224800109863e-01</leafValues></_>
        <_>
          <internalNodes>
            0 -1 129 -2.8061300516128540e-02</internalNodes>
          <leafValues>
            -8.5378420352935791e-01 1.8760946393013000e-01</leafValues></_>
        <_>
          <internalNodes>
            0 -1 4 1.7512740194797516e-01</internalNodes>
          <leafValues>
            1.9507892429828644e-01 -8.8407826423645020e-01</leafValues></_>
        <_>
          <internalNodes>
            0 -1 0 3.7492957198992372e-04</internalNodes>
          <leafValues>
            9.0634711086750031e-02 -8.2676482200622559e-01</leafValues></_>
        <_>
          <internalNodes>
            0 -1 31 2.7553770691156387e-02</internalNodes>
          <leafValues>
            1.6446349024772644e-01 -8.0712050199508667e-01</leafValues></_>
        <_>
          <internalNodes>
            0 -1 117 2.3379330741590820e-05</internalNodes>
          <leafValues>
            -4.0603357553482056e-01 3.9357069134712219e-01</leafValues></_>
        <_>
          <internalNodes>
            0 -1 119 -4.8210034146904945e-03</internalNodes>
          <leafValues>
            6.4800620079040527e-01 -2.7479869127273560e-01</leafValues></_></weakClassifiers></_>
    <!-- stage 13 -->
    <_>
      <maxWeakCount>8</maxWeakCount>
      <stageThreshold>-9.7908395528793335e-01</stageThreshold>
      <weakClassifiers>
        <_>
          <internalNodes>
            0 -1 13 -1.3772672414779663e-01</internalNodes>
          <leafValues>
            6.6273933649063110e-01 -3.4065103530883789e-01</leafValues></_>
        <_>
          <internalNodes>
            0 -1 2 4.6264184638857841e-03</internalNodes>
          <leafValues>
            2.1450299024581909e-01 -8.3087760210037231e-01</leafValues></_>
        <_>
          <internalNodes>
            0 -1 22 3.5895995097234845e-04</internalNodes>
          <leafValues>
            1.3209429383277893e-01 -8.7861710786819458e-01</leafValues></_>
        <_>
          <internalNodes>
            0 -1 115 -4.5430868340190500e-05</internalNodes>
          <leafValues>
            3.4722518920898438e-01 -4.0650406479835510e-01</leafValues></_>
        <_>
          <internalNodes>
            0 -1 47 1.0139109566807747e-02</internalNodes>
          <leafValues>
            -9.1559827327728271e-01 1.9046084582805634e-01</leafValues></_>
        <_>
          <internalNodes>
            0 -1 67 1.1765919625759125e-02</internalNodes>
          <leafValues>
            -3.6152508854866028e-01 4.6861827373504639e-01</leafValues></_>
        <_>
          <internalNodes>
            0 -1 82 -4.5483689755201340e-03</internalNodes>
          <leafValues>
            6.9787329435348511e-01 -2.6754713058471680e-01</leafValues></_>
        <_>
          <internalNodes>
            0 -1 45 -2.3865249007940292e-02</internalNodes>
          <leafValues>
            -8.9364403486251831e-01 2.0346908271312714e-01</leafValues></_></weakClassifiers></_>
    <!-- stage 14 -->
    <_>
      <maxWeakCount>8</maxWeakCount>
      <stageThreshold>-9.5237988233566284e-01</stageThreshold>
      <weakClassifiers>
        <_>
          <internalNodes>
            0 -1 63 -5.6700687855482101e-03</internalNodes>
          <leafValues>
            5.3798639774322510e-01 -3.6581268906593323e-01</leafValues></_>
        <_>
          <internalNodes>
            0 -1 120 -4.2965332977473736e-03</internalNodes>
          <leafValues>
            5.5171084403991699e-01 -3.0011364817619324e-01</leafValues></_>
        <_>
          <internalNodes>
            0 -1 27 1.6714350786060095e-03</internalNodes>
          <leafValues>
            1.9164489209651947e-01 -8.5823118686676025e-01</leafValues></_>
        <_>
          <internalNodes>
            0 -1 37 -5.1524961600080132e-04</internalNodes>
          <leafValues>
            -9.2455351352691650e-01 1.6449652612209320e-01</leafValues></_>
        <_>
          <internalNodes>
            0 -1 39 1.5175315551459789e-02</internalNodes>
          <leafValues>
            -4.1249439120292664e-01 3.6521860957145691e-01</leafValues></_>
        <_>
          <internalNodes>
            0 -1 71 -3.9983773604035378e-03</internalNodes>
          <leafValues>
            2.3850223422050476e-01 -6.2375688552856445e-01</leafValues></_>
        <_>
          <internalNodes>
            0 -1 130 -2.5322029614471830e-05</internalNodes>
          <leafValues>
            3.3673968911170959e-01 -4.8288556933403015e-01</leafValues></_>
        <_>
          <internalNodes>
            0 -1 28 4.4336816063150764e-04</internalNodes>
          <leafValues>
            2.4453355371952057e-01 -6.5121597051620483e-01</leafValues></_></weakClassifiers></_>
    <!-- stage 15 -->
    <_>
      <maxWeakCount>10</maxWeakCount>
      <stageThreshold>-9.3013113737106323e-01</stageThreshold>
      <weakClassifiers>
        <_>
          <internalNodes>
            0 -1 24 -8.2745142281055450e-03</internalNodes>
          <leafValues>
            5.1235955953598022e-01 -4.1081079840660095e-01</leafValues></_>
        <_>
          <internalNodes>
            0 -1 14 -2.0268820226192474e-02</internalNodes>
          <leafValues>
            -7.9206150770187378e-01 1.9694352149963379e-01</leafValues></_>
        <_>
          <internalNodes>
            0 -1 26 -5.3104780614376068e-02</internalNodes>
          <leafValues>
            6.7812722921371460e-01 -2.1289606392383575e-01</leafValues></_>
        <_>
          <internalNodes>
            0 -1 118 -4.1346176294609904e-04</internalNodes>
          <leafValues>
            4.2061808705329895e-01 -3.7753477692604065e-01</leafValues></_>
        <_>
          <internalNodes>
            0 -1 29 3.4712113440036774e-02</internalNodes>
          <leafValues>
            -2.4065570533275604e-01 8.2283419370651245e-01</leafValues></_>
        <_>
          <internalNodes>
            0 -1 124 -6.6894590854644775e-03</internalNodes>
          <leafValues>
            3.4981393814086914e-01 -4.5949819684028625e-01</leafValues></_>
        <_>
          <internalNodes>
            0 -1 91 6.8665131926536560e-02</internalNodes>
          <leafValues>
            1.7896668612957001e-01 -8.5923796892166138e-01</leafValues></_>
        <_>
          <internalNodes>
            0 -1 61 1.0508581064641476e-02</internalNodes>
          <leafValues>
            -2.3474012315273285e-01 7.2584444284439087e-01</leafValues></_>
        <_>
          <internalNodes>
            0 -1 81 2.1987186744809151e-02</internalNodes>
          <leafValues>
            -2.2591578960418701e-01 7.6211017370223999e-01</leafValues></_>
        <_>
          <internalNodes>
            0 -1 42 1.4774778392165899e-03</internalNodes>
          <leafValues>
            2.8674978017807007e-01 -7.4360066652297974e-01</leafValues></_></weakClassifiers></_>
    <!-- stage 16 -->
    <_>
      <maxWeakCount>11</maxWeakCount>
      <stageThreshold>-1.2571073770523071e+00</stageThreshold>
      <weakClassifiers>
        <_>
          <internalNodes>
            0 -1 99 -7.6886832714080811e-02</internalNodes>
          <leafValues>
            4.3991529941558838e-01 -3.9365229010581970e-01</leafValues></_>
        <_>
          <internalNodes>
            0 -1 34 -5.6026145815849304e-02</internalNodes>
          <leafValues>
            -7.9435724020004272e-01 1.7576664686203003e-01</leafValues></_>
        <_>
          <internalNodes>
            0 -1 77 4.4933252036571503e-02</internalNodes>
          <leafValues>
            1.9044098258018494e-01 -7.5084942579269409e-01</leafValues></_>
        <_>
          <internalNodes>
            0 -1 68 9.5101110637187958e-03</internalNodes>
          <leafValues>
            -3.0597445368766785e-01 4.8946681618690491e-01</leafValues></_>
        <_>
          <internalNodes>
            0 -1 109 -9.3929527793079615e-04</internalNodes>
          <leafValues>
            4.6145835518836975e-01 -2.8290981054306030e-01</leafValues></_>
        <_>
          <internalNodes>
            0 -1 15 2.5557230692356825e-03</internalNodes>
          <leafValues>
            2.0780953764915466e-01 -6.4738017320632935e-01</leafValues></_>
        <_>
          <internalNodes>
            0 -1 75 2.1740664669778198e-04</internalNodes>
          <leafValues>
            -2.7063196897506714e-01 5.0629311800003052e-01</leafValues></_>
        <_>
          <internalNodes>
            0 -1 1 3.7090666592121124e-04</internalNodes>
          <leafValues>
            1.3299435377120972e-01 -8.6633247137069702e-01</leafValues></_>
        <_>
          <internalNodes>
            0 -1 110 -4.4917815102962777e-05</internalNodes>
          <leafValues>
            3.3262312412261963e-01 -4.0761792659759521e-01</leafValues></_>
        <_>
          <internalNodes>
            0 -1 52 3.3621580805629492e-03</internalNodes>
          <leafValues>
            -3.6066663265228271e-01 3.8746288418769836e-01</leafValues></_>
        <_>
          <internalNodes>
            0 -1 30 4.7774475067853928e-02</internalNodes>
          <leafValues>
            -2.7208888530731201e-01 6.7565983533859253e-01</leafValues></_></weakClassifiers></_>
    <!-- stage 17 -->
    <_>
      <maxWeakCount>10</maxWeakCount>
      <stageThreshold>-1.0869877338409424e+00</stageThreshold>
      <weakClassifiers>
        <_>
          <internalNodes>
            0 -1 38 -7.6581104658544064e-03</internalNodes>
          <leafValues>
            4.0407785773277283e-01 -4.7339847683906555e-01</leafValues></_>
        <_>
          <internalNodes>
            0 -1 69 -1.2308294884860516e-02</internalNodes>
          <leafValues>
            8.6193412542343140e-01 -1.8476407229900360e-01</leafValues></_>
        <_>
          <internalNodes>
            0 -1 6 -1.4330833218991756e-03</internalNodes>
          <leafValues>
            -7.2776693105697632e-01 2.3219680786132812e-01</leafValues></_>
        <_>
          <internalNodes>
            0 -1 95 -3.6198496818542480e-03</internalNodes>
          <leafValues>
            6.5012770891189575e-01 -2.3817819356918335e-01</leafValues></_>
        <_>
          <internalNodes>
            0 -1 21 8.6473906412720680e-04</internalNodes>
          <leafValues>
            3.0053880810737610e-01 -7.1929150819778442e-01</leafValues></_>
        <_>
          <internalNodes>
            0 -1 108 4.8477353993803263e-04</internalNodes>
          <leafValues>
            -3.9962267875671387e-01 3.9780125021934509e-01</leafValues></_>
        <_>
          <internalNodes>
            0 -1 48 -1.3174933195114136e-01</internalNodes>
          <leafValues>
            6.6865354776382446e-01 -2.7878707647323608e-01</leafValues></_>
        <_>
          <internalNodes>
            0 -1 94 3.2947619911283255e-03</internalNodes>
          <leafValues>
            -3.4633374214172363e-01 4.4547292590141296e-01</leafValues></_>
        <_>
          <internalNodes>
            0 -1 44 4.2381053790450096e-03</internalNodes>
          <leafValues>
            2.1425259113311768e-01 -6.6247725486755371e-01</leafValues></_>
        <_>
          <internalNodes>
            0 -1 58 -2.1508838981389999e-02</internalNodes>
          <leafValues>
            -7.5334864854812622e-01 1.7203152179718018e-01</leafValues></_></weakClassifiers></_>
    <!-- stage 18 -->
    <_>
      <maxWeakCount>9</maxWeakCount>
      <stageThreshold>-9.8199671506881714e-01</stageThreshold>
      <weakClassifiers>
        <_>
          <internalNodes>
            0 -1 133 7.6270662248134613e-03</internalNodes>
          <leafValues>
            -4.4593203067779541e-01 4.2079690098762512e-01</leafValues></_>
        <_>
          <internalNodes>
            0 -1 73 9.2958114692009985e-05</internalNodes>
          <leafValues>
            -3.3081361651420593e-01 4.6266031265258789e-01</leafValues></_>
        <_>
          <internalNodes>
            0 -1 78 6.9374563172459602e-03</internalNodes>
          <leafValues>
            -2.2355543076992035e-01 6.3491606712341309e-01</leafValues></_>
        <_>
          <internalNodes>
            0 -1 40 1.7251574900001287e-04</internalNodes>
          <leafValues>
            -4.1009393334388733e-01 3.5873436927795410e-01</leafValues></_>
        <_>
          <internalNodes>
            0 -1 103 -5.1153428852558136e-02</internalNodes>
          <leafValues>
            6.6998469829559326e-01 -2.0102526247501373e-01</leafValues></_>
        <_>
          <internalNodes>
            0 -1 35 2.9645400121808052e-02</internalNodes>
          <leafValues>
            -2.8754675388336182e-01 5.6363457441329956e-01</leafValues></_>
        <_>
          <internalNodes>
            0 -1 33 -3.8408368825912476e-02</internalNodes>
          <leafValues>
            7.6826739311218262e-01 -1.8822406232357025e-01</leafValues></_>
        <_>
          <internalNodes>
            0 -1 8 -1.6916064778342843e-03</internalNodes>
          <leafValues>
            -7.8104156255722046e-01 2.2851373255252838e-01</leafValues></_>
        <_>
          <internalNodes>
            0 -1 10 8.6140975356101990e-02</internalNodes>
          <leafValues>
            1.5817758440971375e-01 -8.4863913059234619e-01</leafValues></_></weakClassifiers></_>
    <!-- stage 19 -->
    <_>
      <maxWeakCount>10</maxWeakCount>
      <stageThreshold>-9.2411673069000244e-01</stageThreshold>
      <weakClassifiers>
        <_>
          <internalNodes>
            0 -1 54 -1.0580071806907654e-01</internalNodes>
          <leafValues>
            4.7715735435485840e-01 -4.6305418014526367e-01</leafValues></_>
        <_>
          <internalNodes>
            0 -1 55 1.0004605865105987e-03</internalNodes>
          <leafValues>
            -9.5254671573638916e-01 1.5543335676193237e-01</leafValues></_>
        <_>
          <internalNodes>
            0 -1 136 -1.8270992441102862e-03</internalNodes>
          <leafValues>
            -7.3368835449218750e-01 1.4654330909252167e-01</leafValues></_>
        <_>
          <internalNodes>
            0 -1 79 -2.9325720388442278e-03</internalNodes>
          <leafValues>
            3.2336390018463135e-01 -4.1103476285934448e-01</leafValues></_>
        <_>
          <internalNodes>
            0 -1 132 -2.2794838514528237e-05</internalNodes>
          <leafValues>
            3.8400408625602722e-01 -3.6697405576705933e-01</leafValues></_>
        <_>
          <internalNodes>
            0 -1 62 -6.4105801284313202e-03</internalNodes>
          <leafValues>
            4.8335099220275879e-01 -2.9569345712661743e-01</leafValues></_>
        <_>
          <internalNodes>
            0 -1 36 5.0818379968404770e-02</internalNodes>
          <leafValues>
            -2.2238583862781525e-01 7.2277867794036865e-01</leafValues></_>
        <_>
          <internalNodes>
            0 -1 111 1.4309437014162540e-02</internalNodes>
          <leafValues>
            -3.0311882495880127e-01 5.0472635030746460e-01</leafValues></_>
        <_>
          <internalNodes>
            0 -1 107 2.9747179723926820e-05</internalNodes>
          <leafValues>
            -7.7406513690948486e-01 2.1390463411808014e-01</leafValues></_>
        <_>
          <internalNodes>
            0 -1 113 6.4001483842730522e-03</internalNodes>
          <leafValues>
            -3.1794846057891846e-01 4.7050541639328003e-01</leafValues></_></weakClassifiers></_></stages>
  <features>
    <_>
      <rects>
        <_>
          0 0 3 1 -1.</_>
        <_>
          1 0 1 1 3.</_></rects>
      <tilted>0</tilted></_>
    <_>
      <rects>
        <_>
          0 0 2 2 -1.</_>
        <_>
          0 0 1 1 2.</_>
        <_>
          1 1 1 1 2.</_></rects>
      <tilted>0</tilted></_>
    <_>
      <rects>
        <_>
          0 0 1 12 -1.</_>
        <_>
          0 4 1 4 3.</_></rects>
      <tilted>0</tilted></_>
    <_>
      <rects>
        <_>
          0 0 4 3 -1.</_>
        <_>
          2 0 2 3 2.</_></rects>
      <tilted>0</tilted></_>
    <_>
      <rects>
        <_>
          0 0 18 20 -1.</_>
        <_>
          0 0 9 10 2.</_>
        <_>
          9 10 9 10 2.</_></rects>
      <tilted>0</tilted></_>
    <_>
      <rects>
        <_>
          0 1 5 3 -1.</_>
        <_>
          0 2 5 1 3.</_></rects>
      <tilted>0</tilted></_>
    <_>
      <rects>
        <_>
          0 2 1 6 -1.</_>
        <_>
          0 4 1 2 3.</_></rects>
      <tilted>0</tilted></_>
    <_>
      <rects>
        <_>
          0 3 1 12 -1.</_>
        <_>
          0 9 1 6 2.</_></rects>
      <tilted>0</tilted></_>
    <_>
      <rects>
        <_>
          0 4 1 6 -1.</_>
        <_>
          0 7 1 3 2.</_></rects>
      <tilted>0</tilted></_>
    <_>
      <rects>
        <_>
          0 4 14 8 -1.</_>
        <_>
          0 8 14 4 2.</_></rects>
      <tilted>0</tilted></_>
    <_>
      <rects>
        <_>
          0 4 16 6 -1.</_>
        <_>
          0 7 16 3 2.</_></rects>
      <tilted>0</tilted></_>
    <_>
      <rects>
        <_>
          0 5 4 10 -1.</_>
        <_>
          2 5 2 10 2.</_></rects>
      <tilted>0</tilted></_>
    <_>
      <rects>
        <_>
          0 5 9 12 -1.</_>
        <_>
          3 5 3 12 3.</_></rects>
      <tilted>0</tilted></_>
    <_>
      <rects>
        <_>
          0 6 9 10 -1.</_>
        <_>
          3 6 3 10 3.</_></rects>
      <tilted>0</tilted></_>
    <_>
      <rects>
        <_>
          0 8 18 2 -1.</_>
        <_>
          6 8 6 2 3.</_></rects>
      <tilted>0</tilted></_>
    <_>
      <rects>
        <_>
          0 9 1 9 -1.</_>
        <_>
          0 12 1 3 3.</_></rects>
      <tilted>0</tilted></_>
    <_>
      <rects>
        <_>
          0 10 1 6 -1.</_>
        <_>
          0 12 1 2 3.</_></rects>
      <tilted>0</tilted></_>
    <_>
      <rects>
        <_>
          0 11 2 2 -1.</_>
        <_>
          0 11 1 1 2.</_>
        <_>
          1 12 1 1 2.</_></rects>
      <tilted>0</tilted></_>
    <_>
      <rects>
        <_>
          0 11 1 9 -1.</_>
        <_>
          0 14 1 3 3.</_></rects>
      <tilted>0</tilted></_>
    <_>
      <rects>
        <_>
          0 14 1 6 -1.</_>
        <_>
          0 16 1 2 3.</_></rects>
      <tilted>0</tilted></_>
    <_>
      <rects>
        <_>
          0 16 1 4 -1.</_>
        <_>
          0 18 1 2 2.</_></rects>
      <tilted>0</tilted></_>
    <_>
      <rects>
        <_>
          0 17 3 3 -1.</_>
        <_>
          0 18 3 1 3.</_></rects>
      <tilted>0</tilted></_>
    <_>
      <rects>
        <_>
          1 0 3 1 -1.</_>
        <_>
          2 0 1 1 3.</_></rects>
      <tilted>0</tilted></_>
    <_>
      <rects>
        <_>
          1 0 9 20 -1.</_>
        <_>
          1 10 9 10 2.</_></rects>
      <tilted>0</tilted></_>
    <_>
      <rects>
        <_>
          1 7 2 6 -1.</_>
        <_>
          2 7 1 6 2.</_></rects>
      <tilted>0</tilted></_>
    <_>
      <rects>
        <_>
          1 8 2 6 -1.</_>
        <_>
          2 8 1 6 2.</_></rects>
      <tilted>0</tilted></_>
    <_>
      <rects>
        <_>
          1 14 12 4 -1.</_>
        <_>
          1 14 6 2 2.</_>
        <_>
          7 16 6 2 2.</_></rects>
      <tilted>0</tilted></_>
    <_>
      <rects>
        <_>
          2 0 6 1 -1.</_>
        <_>
          4 0 2 1 3.</_></rects>
      <tilted>0</tilted></_>
    <_>
      <rects>
        <_>
          2 2 2 3 -1.</_>
        <_>
          2 3 2 1 3.</_></rects>
      <tilted>0</tilted></_>
    <_>
      <rects>
        <_>
          2 3 18 1 -1.</_>
        <_>
          8 3 6 1 3.</_></rects>
      <tilted>0</tilted></_>
    <_>
      <rects>
        <_>
          2 4 18 2 -1.</_>
        <_>
          8 4 6 2 3.</_></rects>
      <tilted>0</tilted></_>
    <_>
      <rects>
        <_>
          2 5 18 2 -1.</_>
        <_>
          11 5 9 2 2.</_></rects>
      <tilted>0</tilted></_>
    <_>
      <rects>
        <_>
          2 9 2 3 -1.</_>
        <_>
          3 9 1 3 2.</_></rects>
      <tilted>0</tilted></_>
    <_>
      <rects>
        <_>
          2 13 8 4 -1.</_>
        <_>
          2 13 4 2 2.</_>
        <_>
          6 15 4 2 2.</_></rects>
      <tilted>0</tilted></_>
    <_>
      <rects>
        <_>
          2 14 18 4 -1.</_>
        <_>
          11 14 9 4 2.</_></rects>
      <tilted>0</tilted></_>
    <_>
      <rects>
        <_>
          2 16 18 1 -1.</_>
        <_>
          8 16 6 1 3.</_></rects>
      <tilted>0</tilted></_>
    <_>
      <rects>
        <_>
          2 17 18 2 -1.</_>
        <_>
          8 17 6 2 3.</_></rects>
      <tilted>0</tilted></_>
    <_>
      <rects>
        <_>
          3 0 2 1 -1.</_>
        <_>
          4 0 1 1 2.</_></rects>
      <tilted>0</tilted></_>
    <_>
      <rects>
        <_>
          3 0 3 8 -1.</_>
        <_>
          3 4 3 4 2.</_></rects>
      <tilted>0</tilted></_>
    <_>
      <rects>
        <_>
          3 1 6 8 -1.</_>
        <_>
          3 1 3 4 2.</_>
        <_>
          6 5 3 4 2.</_></rects>
      <tilted>0</tilted></_>
    <_>
      <rects>
        <_>
          3 8 2 2 -1.</_>
        <_>
          3 8 1 1 2.</_>
        <_>
          4 9 1 1 2.</_></rects>
      <tilted>0</tilted></_>
    <_>
      <rects>
        <_>
          3 18 10 2 -1.</_>
        <_>
          3 18 5 1 2.</_>
        <_>
          8 19 5 1 2.</_></rects>
      <tilted>0</tilted></_>
    <_>
      <rects>
        <_>
          3 19 4 1 -1.</_>
        <_>
          5 19 2 1 2.</_></rects>
      <tilted>0</tilted></_>
    <_>
      <rects>
        <_>
          4 0 4 16 -1.</_>
        <_>
          6 0 2 16 2.</_></rects>
      <tilted>0</tilted></_>
    <_>
      <rects>
        <_>
          4 0 9 1 -1.</_>
        <_>
          7 0 3 1 3.</_></rects>
      <tilted>0</tilted></_>
    <_>
      <rects>
        <_>
          4 3 8 16 -1.</_>
        <_>
          4 3 4 8 2.</_>
        <_>
          8 11 4 8 2.</_></rects>
      <tilted>0</tilted></_>
    <_>
      <rects>
        <_>
          4 5 10 8 -1.</_>
        <_>
          4 9 10 4 2.</_></rects>
      <tilted>0</tilted></_>
    <_>
      <rects>
        <_>
          4 6 9 6 -1.</_>
        <_>
          4 9 9 3 2.</_></rects>
      <tilted>0</tilted></_>
    <_>
      <rects>
        <_>
          4 7 14 10 -1.</_>
        <_>
          11 7 7 10 2.</_></rects>
      <tilted>0</tilted></_>
    <_>
      <rects>
        <_>
          4 9 2 1 -1.</_>
        <_>
          5 9 1 1 2.</_></rects>
      <tilted>0</tilted></_>
    <_>
      <rects>
        <_>
          4 13 2 1 -1.</_>
        <_>
          5 13 1 1 2.</_></rects>
      <tilted>0</tilted></_>
    <_>
      <rects>
        <_>
          4 14 4 4 -1.</_>
        <_>
          4 14 2 2 2.</_>
        <_>
          6 16 2 2 2.</_></rects>
      <tilted>0</tilted></_>
    <_>
      <rects>
        <_>
          4 18 8 2 -1.</_>
        <_>
          4 19 8 1 2.</_></rects>
      <tilted>0</tilted></_>
    <_>
      <rects>
        <_>
          5 0 2 16 -1.</_>
        <_>
          6 0 1 16 2.</_></rects>
      <tilted>0</tilted></_>
    <_>
      <rects>
        <_>
          5 0 10 9 -1.</_>
        <_>
          5 3 10 3 3.</_></rects>
      <tilted>0</tilted></_>
    <_>
      <rects>
        <_>
          5 6 4 6 -1.</_>
        <_>
          5 9 4 3 2.</_></rects>
      <tilted>0</tilted></_>
    <_>
      <rects>
        <_>
          6 0 10 9 -1.</_>
        <_>
          6 3 10 3 3.</_></rects>
      <tilted>0</tilted></_>
    <_>
      <rects>
        <_>
          6 2 10 18 -1.</_>
        <_>
          6 8 10 6 3.</_></rects>
      <tilted>0</tilted></_>
    <_>
      <rects>
        <_>
          6 3 4 12 -1.</_>
        <_>
          6 7 4 4 3.</_></rects>
      <tilted>0</tilted></_>
    <_>
      <rects>
        <_>
          6 4 10 15 -1.</_>
        <_>
          6 9 10 5 3.</_></rects>
      <tilted>0</tilted></_>
    <_>
      <rects>
        <_>
          6 6 2 6 -1.</_>
        <_>
          6 9 2 3 2.</_></rects>
      <tilted>0</tilted></_>
    <_>
      <rects>
        <_>
          6 12 5 2 -1.</_>
        <_>
          6 13 5 1 2.</_></rects>
      <tilted>0</tilted></_>
    <_>
      <rects>
        <_>
          6 13 1 6 -1.</_>
        <_>
          6 15 1 2 3.</_></rects>
      <tilted>0</tilted></_>
    <_>
      <rects>
        <_>
          6 14 3 2 -1.</_>
        <_>
          6 15 3 1 2.</_></rects>
      <tilted>0</tilted></_>
    <_>
      <rects>
        <_>
          6 18 9 2 -1.</_>
        <_>
          6 19 9 1 2.</_></rects>
      <tilted>0</tilted></_>
    <_>
      <rects>
        <_>
          7 1 3 6 -1.</_>
        <_>
          7 3 3 2 3.</_></rects>
      <tilted>0</tilted></_>
    <_>
      <rects>
        <_>
          7 1 11 2 -1.</_>
        <_>
          7 2 11 1 2.</_></rects>
      <tilted>0</tilted></_>
    <_>
      <rects>
        <_>
          7 3 7 6 -1.</_>
        <_>
          7 5 7 2 3.</_></rects>
      <tilted>0</tilted></_>
    <_>
      <rects>
        <_>
          7 5 8 2 -1.</_>
        <_>
          7 6 8 1 2.</_></rects>
      <tilted>0</tilted></_>
    <_>
      <rects>
        <_>
          7 7 2 4 -1.</_>
        <_>
          8 7 1 4 2.</_></rects>
      <tilted>0</tilted></_>
    <_>
      <rects>
        <_>
          7 7 6 5 -1.</_>
        <_>
          9 7 2 5 3.</_></rects>
      <tilted>0</tilted></_>
    <_>
      <rects>
        <_>
          7 8 6 5 -1.</_>
        <_>
          9 8 2 5 3.</_></rects>
      <tilted>0</tilted></_>
    <_>
      <rects>
        <_>
          7 9 2 1 -1.</_>
        <_>
          8 9 1 1 2.</_></rects>
      <tilted>0</tilted></_>
    <_>
      <rects>
        <_>
          7 10 1 2 -1.</_>
        <_>
          7 11 1 1 2.</_></rects>
      <tilted>0</tilted></_>
    <_>
      <rects>
        <_>
          7 10 2 2 -1.</_>
        <_>
          8 10 1 2 2.</_></rects>
      <tilted>0</tilted></_>
    <_>
      <rects>
        <_>
          7 13 1 2 -1.</_>
        <_>
          7 14 1 1 2.</_></rects>
      <tilted>0</tilted></_>
    <_>
      <rects>
        <_>
          8 0 6 3 -1.</_>
        <_>
          8 1 6 1 3.</_></rects>
      <tilted>0</tilted></_>
    <_>
      <rects>
        <_>
          8 1 5 15 -1.</_>
        <_>
          8 6 5 5 3.</_></rects>
      <tilted>0</tilted></_>
    <_>
      <rects>
        <_>
          8 3 1 6 -1.</_>
        <_>
          8 5 1 2 3.</_></rects>
      <tilted>0</tilted></_>
    <_>
      <rects>
        <_>
          8 5 6 3 -1.</_>
        <_>
          10 5 2 3 3.</_></rects>
      <tilted>0</tilted></_>
    <_>
      <rects>
        <_>
          8 8 10 3 -1.</_>
        <_>
          8 9 10 1 3.</_></rects>
      <tilted>0</tilted></_>
    <_>
      <rects>
        <_>
          8 9 2 6 -1.</_>
        <_>
          8 11 2 2 3.</_></rects>
      <tilted>0</tilted></_>
    <_>
      <rects>
        <_>
          8 10 2 3 -1.</_>
        <_>
          8 11 2 1 3.</_></rects>
      <tilted>0</tilted></_>
    <_>
      <rects>
        <_>
          8 11 6 6 -1.</_>
        <_>
          8 13 6 2 3.</_></rects>
      <tilted>0</tilted></_>
    <_>
      <rects>
        <_>
          8 12 3 2 -1.</_>
        <_>
          8 13 3 1 2.</_></rects>
      <tilted>0</tilted></_>
    <_>
      <rects>
        <_>
          8 12 3 3 -1.</_>
        <_>
          8 13 3 1 3.</_></rects>
      <tilted>0</tilted></_>
    <_>
      <rects>
        <_>
          8 12 5 6 -1.</_>
        <_>
          8 14 5 2 3.</_></rects>
      <tilted>0</tilted></_>
    <_>
      <rects>
        <_>
          8 12 6 6 -1.</_>
        <_>
          8 14 6 2 3.</_></rects>
      <tilted>0</tilted></_>
    <_>
      <rects>
        <_>
          8 14 6 6 -1.</_>
        <_>
          8 16 6 2 3.</_></rects>
      <tilted>0</tilted></_>
    <_>
      <rects>
        <_>
          8 17 1 2 -1.</_>
        <_>
          8 18 1 1 2.</_></rects>
      <tilted>0</tilted></_>
    <_>
      <rects>
        <_>
          9 5 2 1 -1.</_>
        <_>
          10 5 1 1 2.</_></rects>
      <tilted>0</tilted></_>
    <_>
      <rects>
        <_>
          9 6 8 14 -1.</_>
        <_>
          9 13 8 7 2.</_></rects>
      <tilted>0</tilted></_>
    <_>
      <rects>
        <_>
          9 7 9 3 -1.</_>
        <_>
          12 7 3 3 3.</_></rects>
      <tilted>0</tilted></_>
    <_>
      <rects>
        <_>
          9 9 4 4 -1.</_>
        <_>
          9 9 2 2 2.</_>
        <_>
          11 11 2 2 2.</_></rects>
      <tilted>0</tilted></_>
    <_>
      <rects>
        <_>
          9 10 4 2 -1.</_>
        <_>
          11 10 2 2 2.</_></rects>
      <tilted>0</tilted></_>
    <_>
      <rects>
        <_>
          9 11 1 3 -1.</_>
        <_>
          9 12 1 1 3.</_></rects>
      <tilted>0</tilted></_>
    <_>
      <rects>
        <_>
          10 2 1 2 -1.</_>
        <_>
          10 3 1 1 2.</_></rects>
      <tilted>0</tilted></_>
    <_>
      <rects>
        <_>
          10 4 3 16 -1.</_>
        <_>
          10 12 3 8 2.</_></rects>
      <tilted>0</tilted></_>
    <_>
      <rects>
        <_>
          10 6 1 2 -1.</_>
        <_>
          10 7 1 1 2.</_></rects>
      <tilted>0</tilted></_>
    <_>
      <rects>
        <_>
          10 6 8 10 -1.</_>
        <_>
          14 6 4 10 2.</_></rects>
      <tilted>0</tilted></_>
    <_>
      <rects>
        <_>
          10 6 7 6 -1.</_>
        <_>
          10 9 7 3 2.</_></rects>
      <tilted>0</tilted></_>
    <_>
      <rects>
        <_>
          10 7 2 2 -1.</_>
        <_>
          10 7 1 1 2.</_>
        <_>
          11 8 1 1 2.</_></rects>
      <tilted>0</tilted></_>
    <_>
      <rects>
        <_>
          10 9 2 3 -1.</_>
        <_>
          10 10 2 1 3.</_></rects>
      <tilted>0</tilted></_>
    <_>
      <rects>
        <_>
          10 14 4 6 -1.</_>
        <_>
          10 16 4 2 3.</_></rects>
      <tilted>0</tilted></_>
    <_>
      <rects>
        <_>
          10 18 1 2 -1.</_>
        <_>
          10 19 1 1 2.</_></rects>
      <tilted>0</tilted></_>
    <_>
      <rects>
        <_>
          11 7 2 2 -1.</_>
        <_>
          11 7 1 1 2.</_>
        <_>
          12 8 1 1 2.</_></rects>
      <tilted>0</tilted></_>
    <_>
      <rects>
        <_>
          12 1 2 6 -1.</_>
        <_>
          12 3 2 2 3.</_></rects>
      <tilted>0</tilted></_>
    <_>
      <rects>
        <_>
          12 5 4 6 -1.</_>
        <_>
          12 8 4 3 2.</_></rects>
      <tilted>0</tilted></_>
    <_>
      <rects>
        <_>
          12 8 2 1 -1.</_>
        <_>
          13 8 1 1 2.</_></rects>
      <tilted>0</tilted></_>
    <_>
      <rects>
        <_>
          12 10 1 2 -1.</_>
        <_>
          12 11 1 1 2.</_></rects>
      <tilted>0</tilted></_>
    <_>
      <rects>
        <_>
          12 11 3 1 -1.</_>
        <_>
          13 11 1 1 3.</_></rects>
      <tilted>0</tilted></_>
    <_>
      <rects>
        <_>
          12 14 4 6 -1.</_>
        <_>
          12 14 2 3 2.</_>
        <_>
          14 17 2 3 2.</_></rects>
      <tilted>0</tilted></_>
    <_>
      <rects>
        <_>
          12 14 6 4 -1.</_>
        <_>
          12 14 3 2 2.</_>
        <_>
          15 16 3 2 2.</_></rects>
      <tilted>0</tilted></_>
    <_>
      <rects>
        <_>
          13 1 4 12 -1.</_>
        <_>
          13 1 2 6 2.</_>
        <_>
          15 7 2 6 2.</_></rects>
      <tilted>0</tilted></_>
    <_>
      <rects>
        <_>
          13 2 7 18 -1.</_>
        <_>
          13 11 7 9 2.</_></rects>
      <tilted>0</tilted></_>
    <_>
      <rects>
        <_>
          13 4 2 2 -1.</_>
        <_>
          13 4 1 1 2.</_>
        <_>
          14 5 1 1 2.</_></rects>
      <tilted>0</tilted></_>
    <_>
      <rects>
        <_>
          13 8 6 1 -1.</_>
        <_>
          16 8 3 1 2.</_></rects>
      <tilted>0</tilted></_>
    <_>
      <rects>
        <_>
          13 9 2 2 -1.</_>
        <_>
          14 9 1 2 2.</_></rects>
      <tilted>0</tilted></_>
    <_>
      <rects>
        <_>
          13 11 1 3 -1.</_>
        <_>
          13 12 1 1 3.</_></rects>
      <tilted>0</tilted></_>
    <_>
      <rects>
        <_>
          13 12 2 3 -1.</_>
        <_>
          13 13 2 1 3.</_></rects>
      <tilted>0</tilted></_>
    <_>
      <rects>
        <_>
          13 14 2 2 -1.</_>
        <_>
          13 15 2 1 2.</_></rects>
      <tilted>0</tilted></_>
    <_>
      <rects>
        <_>
          13 14 4 4 -1.</_>
        <_>
          13 14 2 2 2.</_>
        <_>
          15 16 2 2 2.</_></rects>
      <tilted>0</tilted></_>
    <_>
      <rects>
        <_>
          14 0 6 1 -1.</_>
        <_>
          16 0 2 1 3.</_></rects>
      <tilted>0</tilted></_>
    <_>
      <rects>
        <_>
          14 0 6 1 -1.</_>
        <_>
          17 0 3 1 2.</_></rects>
      <tilted>0</tilted></_>
    <_>
      <rects>
        <_>
          14 6 6 4 -1.</_>
        <_>
          14 6 3 2 2.</_>
        <_>
          17 8 3 2 2.</_></rects>
      <tilted>0</tilted></_>
    <_>
      <rects>
        <_>
          14 8 6 7 -1.</_>
        <_>
          16 8 2 7 3.</_></rects>
      <tilted>0</tilted></_>
    <_>
      <rects>
        <_>
          14 11 1 3 -1.</_>
        <_>
          14 12 1 1 3.</_></rects>
      <tilted>0</tilted></_>
    <_>
      <rects>
        <_>
          15 8 1 2 -1.</_>
        <_>
          15 9 1 1 2.</_></rects>
      <tilted>0</tilted></_>
    <_>
      <rects>
        <_>
          16 0 4 1 -1.</_>
        <_>
          18 0 2 1 2.</_></rects>
      <tilted>0</tilted></_>
    <_>
      <rects>
        <_>
          16 2 2 18 -1.</_>
        <_>
          16 11 2 9 2.</_></rects>
      <tilted>0</tilted></_>
    <_>
      <rects>
        <_>
          16 6 1 3 -1.</_>
        <_>
          16 7 1 1 3.</_></rects>
      <tilted>0</tilted></_>
    <_>
      <rects>
        <_>
          16 7 2 2 -1.</_>
        <_>
          16 7 1 1 2.</_>
        <_>
          17 8 1 1 2.</_></rects>
      <tilted>0</tilted></_>
    <_>
      <rects>
        <_>
          17 11 1 3 -1.</_>
        <_>
          17 12 1 1 3.</_></rects>
      <tilted>0</tilted></_>
    <_>
      <rects>
        <_>
          18 1 2 16 -1.</_>
        <_>
          19 1 1 16 2.</_></rects>
      <tilted>0</tilted></_>
    <_>
      <rects>
        <_>
          18 8 2 5 -1.</_>
        <_>
          19 8 1 5 2.</_></rects>
      <tilted>0</tilted></_>
    <_>
      <rects>
        <_>
          18 12 2 1 -1.</_>
        <_>
          19 12 1 1 2.</_></rects>
      <tilted>0</tilted></_>
    <_>
      <rects>
        <_>
          18 16 2 3 -1.</_>
        <_>
          19 16 1 3 2.</_></rects>
      <tilted>0</tilted></_></features></cascade>
</opencv_storage>
