<?xml version="1.0"?>
<opencv_storage>
<cascade>
  <stageType>BOOST</stageType>
  <featureType>HAAR</featureType>
  <height>20</height>
  <width>20</width>
  <stageParams>
    <boostType>GAB</boostType>
    <minHitRate>9.9500000476837158e-01</minHitRate>
    <maxFalseAlarm>5.0000000000000000e-01</maxFalseAlarm>
    <weightTrimRate>9.4999999999999996e-01</weightTrimRate>
    <maxDepth>1</maxDepth>
    <maxWeakCount>100</maxWeakCount></stageParams>
  <featureParams>
    <maxCatCount>0</maxCatCount>
    <featSize>1</featSize>
    <mode>BASIC</mode></featureParams>
  <stageNum>10</stageNum>
  <stages>
    <!-- stage 0 -->
    <_>
      <maxWeakCount>7</maxWeakCount>
      <stageThreshold>-1.0056021213531494e+00</stageThreshold>
      <weakClassifiers>
        <_>
          <internalNodes>
            0 -1 6 -8.5782399401068687e-03</internalNodes>
          <leafValues>
            6.8273717164993286e-01 -5.4085600376129150e-01</leafValues></_>
        <_>
          <internalNodes>
            0 -1 84 3.0322736711241305e-04</internalNodes>
          <leafValues>
            3.9161095023155212e-01 -8.1858515739440918e-01</leafValues></_>
        <_>
          <internalNodes>
            0 -1 64 -3.1967121176421642e-03</internalNodes>
          <leafValues>
            3.4924530982971191e-01 -6.3716882467269897e-01</leafValues></_>
        <_>
          <internalNodes>
            0 -1 44 -1.5838749706745148e-02</internalNodes>
          <leafValues>
            -8.1166380643844604e-01 2.2877764701843262e-01</leafValues></_>
        <_>
          <internalNodes>
            0 -1 28 2.3820266505936161e-05</internalNodes>
          <leafValues>
            2.7651733160018921e-01 -7.0404821634292603e-01</leafValues></_>
        <_>
          <internalNodes>
            0 -1 56 -1.3419231399893761e-02</internalNodes>
          <leafValues>
            -8.8347858190536499e-01 1.7881225049495697e-01</leafValues></_>
        <_>
          <internalNodes>
            0 -1 73 2.1399644901975989e-04</internalNodes>
          <leafValues>
            2.4145968258380890e-01 -6.7951345443725586e-01</leafValues></_></weakClassifiers></_>
    <!-- stage 1 -->
    <_>
      <maxWeakCount>8</maxWeakCount>
      <stageThreshold>-8.8555794954299927e-01</stageThreshold>
      <weakClassifiers>
        <_>
          <internalNodes>
            0 -1 27 2.1374491916503757e-04</internalNodes>
          <leafValues>
            5.5803573131561279e-01 -7.6086956262588501e-01</leafValues></_>
        <_>
          <internalNodes>
            0 -1 27 -3.0656097806058824e-04</internalNodes>
          <leafValues>
            -8.3545321226119995e-01 4.6074396371841431e-01</leafValues></_>
        <_>
          <internalNodes>
            0 -1 59 1.0993781499564648e-02</internalNodes>
          <leafValues>
            -6.0605794191360474e-01 3.0158439278602600e-01</leafValues></_>
        <_>
          <internalNodes>
            0 -1 81 2.0873316680081189e-04</internalNodes>
          <leafValues>
            2.2287243604660034e-01 -7.7747458219528198e-01</leafValues></_>
        <_>
          <internalNodes>
            0 -1 71 -6.7223113728687167e-04</internalNodes>
          <leafValues>
            -8.1855660676956177e-01 2.0135311782360077e-01</leafValues></_>
        <_>
          <internalNodes>
            0 -1 53 -4.2684664949774742e-03</internalNodes>
          <leafValues>
            2.3367369174957275e-01 -6.9198095798492432e-01</leafValues></_>
        <_>
          <internalNodes>
            0 -1 45 -6.8051248788833618e-02</internalNodes>
          <leafValues>
            1.9236914813518524e-01 -7.4166345596313477e-01</leafValues></_>
        <_>
          <internalNodes>
            0 -1 20 1.6695064550731331e-04</internalNodes>
          <leafValues>
            1.9709450006484985e-01 -6.5417116880416870e-01</leafValues></_></weakClassifiers></_>
    <!-- stage 2 -->
    <_>
      <maxWeakCount>6</maxWeakCount>
      <stageThreshold>-1.0817383527755737e+00</stageThreshold>
      <weakClassifiers>
        <_>
          <internalNodes>
            0 -1 82 3.0977063579484820e-04</internalNodes>
          <leafValues>
            5.2971798181533813e-01 -8.1265825033187866e-01</leafValues></_>
        <_>
          <internalNodes>
            0 -1 82 -4.9558829050511122e-04</internalNodes>
          <leafValues>
            -8.2584977149963379e-01 3.5708275437355042e-01</leafValues></_>
        <_>
          <internalNodes>
            0 -1 36 8.1315578427165747e-05</internalNodes>
          <leafValues>
            2.3357358574867249e-01 -7.6659101247787476e-01</leafValues></_>
        <_>
          <internalNodes>
            0 -1 40 5.2386033348739147e-04</internalNodes>
          <leafValues>
            -7.3667663335800171e-01 2.3116751015186310e-01</leafValues></_>
        <_>
          <internalNodes>
            0 -1 17 1.8066837219521403e-04</internalNodes>
          <leafValues>
            1.9055235385894775e-01 -7.6381146907806396e-01</leafValues></_>
        <_>
          <internalNodes>
            0 -1 19 -7.3623121716082096e-04</internalNodes>
          <leafValues>
            -7.9858940839767456e-01 2.9854002594947815e-01</leafValues></_></weakClassifiers></_>
    <!-- stage 3 -->
    <_>
      <maxWeakCount>10</maxWeakCount>
      <stageThreshold>-1.2017818689346313e+00</stageThreshold>
      <weakClassifiers>
        <_>
          <internalNodes>
            0 -1 10 -2.3107402957975864e-03</internalNodes>
          <leafValues>
            5.7089549303054810e-01 -5.8273380994796753e-01</leafValues></_>
        <_>
          <internalNodes>
            0 -1 18 -2.5122868464677595e-05</internalNodes>
          <leafValues>
            3.0712923407554626e-01 -6.5637463331222534e-01</leafValues></_>
        <_>
          <internalNodes>
            0 -1 22 -6.1758980154991150e-04</internalNodes>
          <leafValues>
            -6.9051313400268555e-01 3.7955111265182495e-01</leafValues></_>
        <_>
          <internalNodes>
            0 -1 27 1.6773794777691364e-04</internalNodes>
          <leafValues>
            1.2768541276454926e-01 -8.4237003326416016e-01</leafValues></_>
        <_>
          <internalNodes>
            0 -1 50 1.5224320814013481e-03</internalNodes>
          <leafValues>
            -7.2126173973083496e-01 2.2143831849098206e-01</leafValues></_>
        <_>
          <internalNodes>
            0 -1 82 1.4496204676106572e-04</internalNodes>
          <leafValues>
            1.6494263708591461e-01 -7.3058438301086426e-01</leafValues></_>
        <_>
          <internalNodes>
            0 -1 82 -6.7749607842415571e-04</internalNodes>
          <leafValues>
            -8.5177552700042725e-01 1.7331463098526001e-01</leafValues></_>
        <_>
          <internalNodes>
            0 -1 42 2.8533553704619408e-03</internalNodes>
          <leafValues>
            -7.0721793174743652e-01 1.8623907864093781e-01</leafValues></_>
        <_>
          <internalNodes>
            0 -1 77 2.4562311591580510e-04</internalNodes>
          <leafValues>
            1.5573872625827789e-01 -6.9622361660003662e-01</leafValues></_>
        <_>
          <internalNodes>
            0 -1 55 -1.0122152045369148e-02</internalNodes>
          <leafValues>
            2.2749045491218567e-01 -4.9893006682395935e-01</leafValues></_></weakClassifiers></_>
    <!-- stage 4 -->
    <_>
      <maxWeakCount>12</maxWeakCount>
      <stageThreshold>-1.1139990091323853e+00</stageThreshold>
      <weakClassifiers>
        <_>
          <internalNodes>
            0 -1 7 -2.7613637968897820e-02</internalNodes>
          <leafValues>
            -7.0223325490951538e-01 5.1501959562301636e-01</leafValues></_>
        <_>
          <internalNodes>
            0 -1 28 -5.5381111451424658e-05</internalNodes>
          <leafValues>
            2.7618187665939331e-01 -7.0278078317642212e-01</leafValues></_>
        <_>
          <internalNodes>
            0 -1 28 -1.2373483041301370e-03</internalNodes>
          <leafValues>
            -6.5589141845703125e-01 3.2365876436233521e-01</leafValues></_>
        <_>
          <internalNodes>
            0 -1 25 -2.3482158780097961e-02</internalNodes>
          <leafValues>
            6.1035746335983276e-01 -3.2052129507064819e-01</leafValues></_>
        <_>
          <internalNodes>
            0 -1 86 1.9351768423803151e-04</internalNodes>
          <leafValues>
            2.1562835574150085e-01 -7.1716302633285522e-01</leafValues></_>
        <_>
          <internalNodes>
            0 -1 35 1.9890603143721819e-03</internalNodes>
          <leafValues>
            -5.8727324008941650e-01 2.6057511568069458e-01</leafValues></_>
        <_>
          <internalNodes>
            0 -1 31 1.1130890808999538e-02</internalNodes>
          <leafValues>
            -2.6576474308967590e-01 6.5134376287460327e-01</leafValues></_>
        <_>
          <internalNodes>
            0 -1 78 2.1392648341134191e-04</internalNodes>
          <leafValues>
            2.6256361603736877e-01 -6.4603471755981445e-01</leafValues></_>
        <_>
          <internalNodes>
            0 -1 78 -7.2728598024696112e-04</internalNodes>
          <leafValues>
            -6.9298291206359863e-01 1.8337322771549225e-01</leafValues></_>
        <_>
          <internalNodes>
            0 -1 80 -6.6007480199914426e-05</internalNodes>
          <leafValues>
            2.4879765510559082e-01 -5.0557857751846313e-01</leafValues></_>
        <_>
          <internalNodes>
            0 -1 2 6.2288917601108551e-02</internalNodes>
          <leafValues>
            -2.5527650117874146e-01 6.5653389692306519e-01</leafValues></_>
        <_>
          <internalNodes>
            0 -1 3 -2.9032288119196892e-02</internalNodes>
          <leafValues>
            3.5938572883605957e-01 -4.0277141332626343e-01</leafValues></_></weakClassifiers></_>
    <!-- stage 5 -->
    <_>
      <maxWeakCount>14</maxWeakCount>
      <stageThreshold>-9.8033845424652100e-01</stageThreshold>
      <weakClassifiers>
        <_>
          <internalNodes>
            0 -1 37 -7.6587886724155396e-05</internalNodes>
          <leafValues>
            5.8731758594512939e-01 -3.7447404861450195e-01</leafValues></_>
        <_>
          <internalNodes>
            0 -1 51 6.3224551267921925e-03</internalNodes>
          <leafValues>
            -5.4893726110458374e-01 3.1016215682029724e-01</leafValues></_>
        <_>
          <internalNodes>
            0 -1 76 -8.4661791333928704e-05</internalNodes>
          <leafValues>
            2.7343389391899109e-01 -5.5671668052673340e-01</leafValues></_>
        <_>
          <internalNodes>
            0 -1 72 -5.2342622075229883e-04</internalNodes>
          <leafValues>
            -7.9541021585464478e-01 1.5356490015983582e-01</leafValues></_>
        <_>
          <internalNodes>
            0 -1 72 1.8059887224808335e-04</internalNodes>
          <leafValues>
            1.8909947574138641e-01 -7.0031499862670898e-01</leafValues></_>
        <_>
          <internalNodes>
            0 -1 89 -2.7786100283265114e-02</internalNodes>
          <leafValues>
            6.3032066822052002e-01 -2.4024331569671631e-01</leafValues></_>
        <_>
          <internalNodes>
            0 -1 1 -2.7957573533058167e-02</internalNodes>
          <leafValues>
            6.9450169801712036e-01 -2.5327327847480774e-01</leafValues></_>
        <_>
          <internalNodes>
            0 -1 0 2.4450980126857758e-02</internalNodes>
          <leafValues>
            -1.1790274828672409e-01 6.8083226680755615e-01</leafValues></_>
        <_>
          <internalNodes>
            0 -1 90 3.7033720873296261e-03</internalNodes>
          <leafValues>
            -2.0114247500896454e-01 5.6790286302566528e-01</leafValues></_>
        <_>
          <internalNodes>
            0 -1 26 -4.6120160259306431e-03</internalNodes>
          <leafValues>
            2.1006964147090912e-01 -5.6702542304992676e-01</leafValues></_>
        <_>
          <internalNodes>
            0 -1 17 1.4932830526959151e-04</internalNodes>
          <leafValues>
            1.6682159900665283e-01 -6.1736357212066650e-01</leafValues></_>
        <_>
          <internalNodes>
            0 -1 17 -3.0554569093510509e-04</internalNodes>
          <leafValues>
            -5.2672803401947021e-01 2.0958609879016876e-01</leafValues></_>
        <_>
          <internalNodes>
            0 -1 60 -5.0032111175823957e-05</internalNodes>
          <leafValues>
            2.3320798575878143e-01 -4.2246067523956299e-01</leafValues></_>
        <_>
          <internalNodes>
            0 -1 68 -7.0194993168115616e-04</internalNodes>
          <leafValues>
            -6.8057334423065186e-01 1.4350156486034393e-01</leafValues></_></weakClassifiers></_>
    <!-- stage 6 -->
    <_>
      <maxWeakCount>13</maxWeakCount>
      <stageThreshold>-1.0594496726989746e+00</stageThreshold>
      <weakClassifiers>
        <_>
          <internalNodes>
            0 -1 91 -5.7769088016357273e-05</internalNodes>
          <leafValues>
            6.6278421878814697e-01 -3.2887402176856995e-01</leafValues></_>
        <_>
          <internalNodes>
            0 -1 48 -7.1611925959587097e-02</internalNodes>
          <leafValues>
            -9.3470478057861328e-01 2.4368582665920258e-01</leafValues></_>
        <_>
          <internalNodes>
            0 -1 34 -1.7260566353797913e-01</internalNodes>
          <leafValues>
            1.9213910400867462e-01 -8.3044975996017456e-01</leafValues></_>
        <_>
          <internalNodes>
            0 -1 29 1.8610361439641565e-04</internalNodes>
          <leafValues>
            8.6591660976409912e-02 -8.7220060825347900e-01</leafValues></_>
        <_>
          <internalNodes>
            0 -1 11 8.4622600115835667e-04</internalNodes>
          <leafValues>
            -6.1330002546310425e-01 2.1231383085250854e-01</leafValues></_>
        <_>
          <internalNodes>
            0 -1 12 1.8831482157111168e-04</internalNodes>
          <leafValues>
            2.6161262392997742e-01 -6.1223262548446655e-01</leafValues></_>
        <_>
          <internalNodes>
            0 -1 83 -4.6377419494092464e-05</internalNodes>
          <leafValues>
            1.8159621953964233e-01 -5.4516285657882690e-01</leafValues></_>
        <_>
          <internalNodes>
            0 -1 83 -9.2850538203492761e-04</internalNodes>
          <leafValues>
            -5.1896643638610840e-01 2.4054925143718719e-01</leafValues></_>
        <_>
          <internalNodes>
            0 -1 57 6.1919363215565681e-03</internalNodes>
          <leafValues>
            -5.2587646245956421e-01 2.1491113305091858e-01</leafValues></_>
        <_>
          <internalNodes>
            0 -1 82 5.5685162078589201e-04</internalNodes>
          <leafValues>
            1.1687255650758743e-01 -9.2826527357101440e-01</leafValues></_>
        <_>
          <internalNodes>
            0 -1 63 -1.0159639641642570e-02</internalNodes>
          <leafValues>
            6.2148034572601318e-01 -2.0423115789890289e-01</leafValues></_>
        <_>
          <internalNodes>
            0 -1 39 7.8508462756872177e-03</internalNodes>
          <leafValues>
            -2.2868938744068146e-01 6.2704735994338989e-01</leafValues></_>
        <_>
          <internalNodes>
            0 -1 23 -3.6010527983307838e-03</internalNodes>
          <leafValues>
            3.9570394158363342e-01 -2.7603033185005188e-01</leafValues></_></weakClassifiers></_>
    <!-- stage 7 -->
    <_>
      <maxWeakCount>13</maxWeakCount>
      <stageThreshold>-9.2006015777587891e-01</stageThreshold>
      <weakClassifiers>
        <_>
          <internalNodes>
            0 -1 41 3.1353691592812538e-03</internalNodes>
          <leafValues>
            -5.2523362636566162e-01 5.4549652338027954e-01</leafValues></_>
        <_>
          <internalNodes>
            0 -1 18 -4.4916596380062401e-05</internalNodes>
          <leafValues>
            2.7170115709304810e-01 -6.6051548719406128e-01</leafValues></_>
        <_>
          <internalNodes>
            0 -1 85 -2.2560125216841698e-04</internalNodes>
          <leafValues>
            2.8917610645294189e-01 -4.9746596813201904e-01</leafValues></_>
        <_>
          <internalNodes>
            0 -1 70 -6.2760729342699051e-03</internalNodes>
          <leafValues>
            2.6937553286552429e-01 -4.7287571430206299e-01</leafValues></_>
        <_>
          <internalNodes>
            0 -1 27 -2.9426344553939998e-04</internalNodes>
          <leafValues>
            -7.1351075172424316e-01 1.7878408730030060e-01</leafValues></_>
        <_>
          <internalNodes>
            0 -1 66 -3.8218386471271515e-02</internalNodes>
          <leafValues>
            1.3229359686374664e-01 -7.9691004753112793e-01</leafValues></_>
        <_>
          <internalNodes>
            0 -1 67 4.2395523632876575e-04</internalNodes>
          <leafValues>
            -5.6739598512649536e-01 1.9871805608272552e-01</leafValues></_>
        <_>
          <internalNodes>
            0 -1 27 1.5280573279596865e-04</internalNodes>
          <leafValues>
            1.3552664220333099e-01 -8.0134725570678711e-01</leafValues></_>
        <_>
          <internalNodes>
            0 -1 15 7.3744632303714752e-02</internalNodes>
          <leafValues>
            8.9428238570690155e-02 -8.8913071155548096e-01</leafValues></_>
        <_>
          <internalNodes>
            0 -1 58 3.4893848933279514e-03</internalNodes>
          <leafValues>
            -5.3227478265762329e-01 2.2841687500476837e-01</leafValues></_>
        <_>
          <internalNodes>
            0 -1 79 2.1514385938644409e-02</internalNodes>
          <leafValues>
            -1.9328212738037109e-01 6.5380513668060303e-01</leafValues></_>
        <_>
          <internalNodes>
            0 -1 30 -4.2423449456691742e-02</internalNodes>
          <leafValues>
            7.3868882656097412e-01 -1.8192425370216370e-01</leafValues></_>
        <_>
          <internalNodes>
            0 -1 24 1.1895677074790001e-02</internalNodes>
          <leafValues>
            -2.0551988482475281e-01 5.6167387962341309e-01</leafValues></_></weakClassifiers></_>
    <!-- stage 8 -->
    <_>
      <maxWeakCount>13</maxWeakCount>
      <stageThreshold>-1.1919686794281006e+00</stageThreshold>
      <weakClassifiers>
        <_>
          <internalNodes>
            0 -1 38 -1.0590841993689537e-03</internalNodes>
          <leafValues>
            6.6847497224807739e-01 -2.0076848566532135e-01</leafValues></_>
        <_>
          <internalNodes>
            0 -1 87 -4.8494512157049030e-05</internalNodes>
          <leafValues>
            3.0911704897880554e-01 -5.1913052797317505e-01</leafValues></_>
        <_>
          <internalNodes>
            0 -1 62 5.4973373189568520e-03</internalNodes>
          <leafValues>
            -1.9359312951564789e-01 6.9925427436828613e-01</leafValues></_>
        <_>
          <internalNodes>
            0 -1 47 -5.0793699920177460e-03</internalNodes>
          <leafValues>
            5.8988863229751587e-01 -2.4687619507312775e-01</leafValues></_>
        <_>
          <internalNodes>
            0 -1 46 -7.5726178474724293e-03</internalNodes>
          <leafValues>
            5.3322404623031616e-01 -2.3873339593410492e-01</leafValues></_>
        <_>
          <internalNodes>
            0 -1 32 -7.7758673578500748e-03</internalNodes>
          <leafValues>
            7.0827573537826538e-01 -1.9975949823856354e-01</leafValues></_>
        <_>
          <internalNodes>
            0 -1 8 1.0189834982156754e-02</internalNodes>
          <leafValues>
            -1.7970667779445648e-01 6.8338078260421753e-01</leafValues></_>
        <_>
          <internalNodes>
            0 -1 4 -4.6139084734022617e-03</internalNodes>
          <leafValues>
            7.3411065340042114e-01 -1.1258783191442490e-01</leafValues></_>
        <_>
          <internalNodes>
            0 -1 5 5.2606835961341858e-03</internalNodes>
          <leafValues>
            -2.8188240528106689e-01 5.3155875205993652e-01</leafValues></_>
        <_>
          <internalNodes>
            0 -1 13 -7.3947194323409349e-05</internalNodes>
          <leafValues>
            2.9199761152267456e-01 -4.0816009044647217e-01</leafValues></_>
        <_>
          <internalNodes>
            0 -1 52 1.6139958053827286e-02</internalNodes>
          <leafValues>
            -2.0808230340480804e-01 6.7665481567382812e-01</leafValues></_>
        <_>
          <internalNodes>
            0 -1 16 9.6400566399097443e-03</internalNodes>
          <leafValues>
            -3.9304345846176147e-01 3.2223510742187500e-01</leafValues></_>
        <_>
          <internalNodes>
            0 -1 74 -4.6618246415164322e-05</internalNodes>
          <leafValues>
            2.1689404547214508e-01 -5.0220185518264771e-01</leafValues></_></weakClassifiers></_>
    <!-- stage 9 -->
    <_>
      <maxWeakCount>15</maxWeakCount>
      <stageThreshold>-9.4225692749023438e-01</stageThreshold>
      <weakClassifiers>
        <_>
          <internalNodes>
            0 -1 83 1.8621885101310909e-04</internalNodes>
          <leafValues>
            4.7439694404602051e-01 -6.5578633546829224e-01</leafValues></_>
        <_>
          <internalNodes>
            0 -1 65 -3.9195567369461060e-03</internalNodes>
          <leafValues>
            2.7942869067192078e-01 -4.6547067165374756e-01</leafValues></_>
        <_>
          <internalNodes>
            0 -1 21 -5.2521273028105497e-04</internalNodes>
          <leafValues>
            -7.7050048112869263e-01 1.5437735617160797e-01</leafValues></_>
        <_>
          <internalNodes>
            0 -1 21 5.7679432211443782e-04</internalNodes>
          <leafValues>
            1.8910244107246399e-01 -6.1953794956207275e-01</leafValues></_>
        <_>
          <internalNodes>
            0 -1 14 -3.2428633421659470e-03</internalNodes>
          <leafValues>
            1.8181051313877106e-01 -5.2744328975677490e-01</leafValues></_>
        <_>
          <internalNodes>
            0 -1 75 -6.2078825430944562e-04</internalNodes>
          <leafValues>
            -5.4575854539871216e-01 1.7772145569324493e-01</leafValues></_>
        <_>
          <internalNodes>
            0 -1 88 2.8597230091691017e-02</internalNodes>
          <leafValues>
            -1.5943372249603271e-01 6.8070000410079956e-01</leafValues></_>
        <_>
          <internalNodes>
            0 -1 69 -4.8677879385650158e-04</internalNodes>
          <leafValues>
            4.0244412422180176e-01 -3.2095369696617126e-01</leafValues></_>
        <_>
          <internalNodes>
            0 -1 54 2.0784344524145126e-03</internalNodes>
          <leafValues>
            -2.3225295543670654e-01 4.3346074223518372e-01</leafValues></_>
        <_>
          <internalNodes>
            0 -1 33 -2.5689911097288132e-02</internalNodes>
          <leafValues>
            5.5984485149383545e-01 -2.4579046666622162e-01</leafValues></_>
        <_>
          <internalNodes>
            0 -1 92 -1.0873915161937475e-03</internalNodes>
          <leafValues>
            4.4028121232986450e-01 -1.9368711113929749e-01</leafValues></_>
        <_>
          <internalNodes>
            0 -1 61 3.0921625439077616e-03</internalNodes>
          <leafValues>
            -2.2499667108058929e-01 5.2326828241348267e-01</leafValues></_>
        <_>
          <internalNodes>
            0 -1 43 -5.8202993124723434e-02</internalNodes>
          <leafValues>
            -8.4247940778732300e-01 1.4110501110553741e-01</leafValues></_>
        <_>
          <internalNodes>
            0 -1 49 -6.6725149750709534e-02</internalNodes>
          <leafValues>
            9.1132856905460358e-02 -8.5552108287811279e-01</leafValues></_>
        <_>
          <internalNodes>
            0 -1 9 -5.4717613238608465e-05</internalNodes>
          <leafValues>
            2.7608257532119751e-01 -3.3464616537094116e-01</leafValues></_></weakClassifiers></_></stages>
  <features>
    <_>
      <rects>
        <_>
          0 6 4 6 -1.</_>
        <_>
          2 6 2 6 2.</_></rects>
      <tilted>0</tilted></_>
    <_>
      <rects>
        <_>
          0 6 4 7 -1.</_>
        <_>
          2 6 2 7 2.</_></rects>
      <tilted>0</tilted></_>
    <_>
      <rects>
        <_>
          0 6 6 12 -1.</_>
        <_>
          3 6 3 12 2.</_></rects>
      <tilted>0</tilted></_>
    <_>
      <rects>
        <_>
          0 6 12 5 -1.</_>
        <_>
          6 6 6 5 2.</_></rects>
      <tilted>0</tilted></_>
    <_>
      <rects>
        <_>
          0 10 4 1 -1.</_>
        <_>
          2 10 2 1 2.</_></rects>
      <tilted>0</tilted></_>
    <_>
      <rects>
        <_>
          0 11 6 1 -1.</_>
        <_>
          3 11 3 1 2.</_></rects>
      <tilted>0</tilted></_>
    <_>
      <rects>
        <_>
          3 8 8 5 -1.</_>
        <_>
          7 8 4 5 2.</_></rects>
      <tilted>0</tilted></_>
    <_>
      <rects>
        <_>
          3 11 14 3 -1.</_>
        <_>
          10 11 7 3 2.</_></rects>
      <tilted>0</tilted></_>
    <_>
      <rects>
        <_>
          4 0 12 2 -1.</_>
        <_>
          4 1 12 1 2.</_></rects>
      <tilted>0</tilted></_>
    <_>
      <rects>
        <_>
          4 8 1 4 -1.</_>
        <_>
          4 10 1 2 2.</_></rects>
      <tilted>0</tilted></_>
    <_>
      <rects>
        <_>
          4 8 8 7 -1.</_>
        <_>
          8 8 4 7 2.</_></rects>
      <tilted>0</tilted></_>
    <_>
      <rects>
        <_>
          4 9 13 6 -1.</_>
        <_>
          4 12 13 3 2.</_></rects>
      <tilted>0</tilted></_>
    <_>
      <rects>
        <_>
          4 10 1 2 -1.</_>
        <_>
          4 11 1 1 2.</_></rects>
      <tilted>0</tilted></_>
    <_>
      <rects>
        <_>
          4 10 1 4 -1.</_>
        <_>
          4 12 1 2 2.</_></rects>
      <tilted>0</tilted></_>
    <_>
      <rects>
        <_>
          4 10 6 3 -1.</_>
        <_>
          7 10 3 3 2.</_></rects>
      <tilted>0</tilted></_>
    <_>
      <rects>
        <_>
          4 10 12 7 -1.</_>
        <_>
          10 10 6 7 2.</_></rects>
      <tilted>0</tilted></_>
    <_>
      <rects>
        <_>
          4 10 12 6 -1.</_>
        <_>
          4 13 12 3 2.</_></rects>
      <tilted>0</tilted></_>
    <_>
      <rects>
        <_>
          4 11 1 2 -1.</_>
        <_>
          4 12 1 1 2.</_></rects>
      <tilted>0</tilted></_>
    <_>
      <rects>
        <_>
          4 11 1 4 -1.</_>
        <_>
          4 13 1 2 2.</_></rects>
      <tilted>0</tilted></_>
    <_>
      <rects>
        <_>
          4 11 2 2 -1.</_>
        <_>
          4 12 2 1 2.</_></rects>
      <tilted>0</tilted></_>
    <_>
      <rects>
        <_>
          4 12 1 2 -1.</_>
        <_>
          4 13 1 1 2.</_></rects>
      <tilted>0</tilted></_>
    <_>
      <rects>
        <_>
          4 12 2 2 -1.</_>
        <_>
          5 12 1 2 2.</_></rects>
      <tilted>0</tilted></_>
    <_>
      <rects>
        <_>
          4 12 2 2 -1.</_>
        <_>
          4 13 2 1 2.</_></rects>
      <tilted>0</tilted></_>
    <_>
      <rects>
        <_>
          4 12 6 1 -1.</_>
        <_>
          7 12 3 1 2.</_></rects>
      <tilted>0</tilted></_>
    <_>
      <rects>
        <_>
          4 16 7 4 -1.</_>
        <_>
          4 18 7 2 2.</_></rects>
      <tilted>0</tilted></_>
    <_>
      <rects>
        <_>
          4 16 9 4 -1.</_>
        <_>
          4 18 9 2 2.</_></rects>
      <tilted>0</tilted></_>
    <_>
      <rects>
        <_>
          5 6 6 9 -1.</_>
        <_>
          8 6 3 9 2.</_></rects>
      <tilted>0</tilted></_>
    <_>
      <rects>
        <_>
          5 12 1 2 -1.</_>
        <_>
          5 13 1 1 2.</_></rects>
      <tilted>0</tilted></_>
    <_>
      <rects>
        <_>
          5 12 1 4 -1.</_>
        <_>
          5 14 1 2 2.</_></rects>
      <tilted>0</tilted></_>
    <_>
      <rects>
        <_>
          5 13 1 2 -1.</_>
        <_>
          5 14 1 1 2.</_></rects>
      <tilted>0</tilted></_>
    <_>
      <rects>
        <_>
          5 16 9 4 -1.</_>
        <_>
          5 18 9 2 2.</_></rects>
      <tilted>0</tilted></_>
    <_>
      <rects>
        <_>
          5 18 9 2 -1.</_>
        <_>
          5 19 9 1 2.</_></rects>
      <tilted>0</tilted></_>
    <_>
      <rects>
        <_>
          6 0 7 2 -1.</_>
        <_>
          6 1 7 1 2.</_></rects>
      <tilted>0</tilted></_>
    <_>
      <rects>
        <_>
          6 0 7 4 -1.</_>
        <_>
          6 2 7 2 2.</_></rects>
      <tilted>0</tilted></_>
    <_>
      <rects>
        <_>
          6 9 9 9 -1.</_>
        <_>
          6 12 9 3 2.</_></rects>
      <tilted>0</tilted></_>
    <_>
      <rects>
        <_>
          6 10 10 4 -1.</_>
        <_>
          6 12 10 2 2.</_></rects>
      <tilted>0</tilted></_>
    <_>
      <rects>
        <_>
          6 14 1 2 -1.</_>
        <_>
          6 15 1 1 2.</_></rects>
      <tilted>0</tilted></_>
    <_>
      <rects>
        <_>
          6 14 1 4 -1.</_>
        <_>
          6 16 1 2 2.</_></rects>
      <tilted>0</tilted></_>
    <_>
      <rects>
        <_>
          6 15 2 4 -1.</_>
        <_>
          6 17 2 2 2.</_></rects>
      <tilted>0</tilted></_>
    <_>
      <rects>
        <_>
          7 1 9 2 -1.</_>
        <_>
          7 2 9 1 2.</_></rects>
      <tilted>0</tilted></_>
    <_>
      <rects>
        <_>
          7 8 5 10 -1.</_>
        <_>
          7 13 5 5 2.</_></rects>
      <tilted>0</tilted></_>
    <_>
      <rects>
        <_>
          7 8 6 10 -1.</_>
        <_>
          7 13 6 5 2.</_></rects>
      <tilted>0</tilted></_>
    <_>
      <rects>
        <_>
          7 8 8 8 -1.</_>
        <_>
          7 12 8 4 2.</_></rects>
      <tilted>0</tilted></_>
    <_>
      <rects>
        <_>
          7 9 6 1 -1.</_>
        <_>
          9 9 2 1 2.</_></rects>
      <tilted>0</tilted></_>
    <_>
      <rects>
        <_>
          7 9 9 8 -1.</_>
        <_>
          7 13 9 4 2.</_></rects>
      <tilted>0</tilted></_>
    <_>
      <rects>
        <_>
          7 12 9 3 -1.</_>
        <_>
          7 13 9 1 2.</_></rects>
      <tilted>0</tilted></_>
    <_>
      <rects>
        <_>
          7 18 10 2 -1.</_>
        <_>
          7 19 10 1 2.</_></rects>
      <tilted>0</tilted></_>
    <_>
      <rects>
        <_>
          8 3 4 2 -1.</_>
        <_>
          8 4 4 1 2.</_></rects>
      <tilted>0</tilted></_>
    <_>
      <rects>
        <_>
          8 4 1 6 -1.</_>
        <_>
          8 6 1 2 2.</_></rects>
      <tilted>0</tilted></_>
    <_>
      <rects>
        <_>
          8 7 3 12 -1.</_>
        <_>
          8 11 3 4 2.</_></rects>
      <tilted>0</tilted></_>
    <_>
      <rects>
        <_>
          8 9 8 4 -1.</_>
        <_>
          12 9 4 4 2.</_></rects>
      <tilted>0</tilted></_>
    <_>
      <rects>
        <_>
          8 9 4 10 -1.</_>
        <_>
          8 14 4 5 2.</_></rects>
      <tilted>0</tilted></_>
    <_>
      <rects>
        <_>
          8 16 6 4 -1.</_>
        <_>
          8 18 6 2 2.</_></rects>
      <tilted>0</tilted></_>
    <_>
      <rects>
        <_>
          9 1 3 8 -1.</_>
        <_>
          9 5 3 4 2.</_></rects>
      <tilted>0</tilted></_>
    <_>
      <rects>
        <_>
          9 1 5 2 -1.</_>
        <_>
          9 2 5 1 2.</_></rects>
      <tilted>0</tilted></_>
    <_>
      <rects>
        <_>
          9 1 5 8 -1.</_>
        <_>
          9 5 5 4 2.</_></rects>
      <tilted>0</tilted></_>
    <_>
      <rects>
        <_>
          9 5 6 10 -1.</_>
        <_>
          12 5 3 10 2.</_></rects>
      <tilted>0</tilted></_>
    <_>
      <rects>
        <_>
          9 5 8 5 -1.</_>
        <_>
          13 5 4 5 2.</_></rects>
      <tilted>0</tilted></_>
    <_>
      <rects>
        <_>
          9 9 6 7 -1.</_>
        <_>
          12 9 3 7 2.</_></rects>
      <tilted>0</tilted></_>
    <_>
      <rects>
        <_>
          9 9 8 4 -1.</_>
        <_>
          13 9 4 4 2.</_></rects>
      <tilted>0</tilted></_>
    <_>
      <rects>
        <_>
          9 16 1 2 -1.</_>
        <_>
          9 17 1 1 2.</_></rects>
      <tilted>0</tilted></_>
    <_>
      <rects>
        <_>
          9 18 3 2 -1.</_>
        <_>
          9 19 3 1 2.</_></rects>
      <tilted>0</tilted></_>
    <_>
      <rects>
        <_>
          9 18 4 2 -1.</_>
        <_>
          9 19 4 1 2.</_></rects>
      <tilted>0</tilted></_>
    <_>
      <rects>
        <_>
          10 0 2 4 -1.</_>
        <_>
          10 2 2 2 2.</_></rects>
      <tilted>0</tilted></_>
    <_>
      <rects>
        <_>
          10 1 3 8 -1.</_>
        <_>
          10 5 3 4 2.</_></rects>
      <tilted>0</tilted></_>
    <_>
      <rects>
        <_>
          10 2 2 6 -1.</_>
        <_>
          10 5 2 3 2.</_></rects>
      <tilted>0</tilted></_>
    <_>
      <rects>
        <_>
          10 3 3 6 -1.</_>
        <_>
          10 5 3 2 2.</_></rects>
      <tilted>0</tilted></_>
    <_>
      <rects>
        <_>
          10 6 8 4 -1.</_>
        <_>
          14 6 4 4 2.</_></rects>
      <tilted>0</tilted></_>
    <_>
      <rects>
        <_>
          10 16 2 1 -1.</_>
        <_>
          11 16 1 1 2.</_></rects>
      <tilted>0</tilted></_>
    <_>
      <rects>
        <_>
          10 17 1 2 -1.</_>
        <_>
          10 18 1 1 2.</_></rects>
      <tilted>0</tilted></_>
    <_>
      <rects>
        <_>
          11 1 2 8 -1.</_>
        <_>
          11 5 2 4 2.</_></rects>
      <tilted>0</tilted></_>
    <_>
      <rects>
        <_>
          13 12 1 2 -1.</_>
        <_>
          13 13 1 1 2.</_></rects>
      <tilted>0</tilted></_>
    <_>
      <rects>
        <_>
          13 13 1 2 -1.</_>
        <_>
          13 14 1 1 2.</_></rects>
      <tilted>0</tilted></_>
    <_>
      <rects>
        <_>
          13 13 2 2 -1.</_>
        <_>
          14 13 1 2 2.</_></rects>
      <tilted>0</tilted></_>
    <_>
      <rects>
        <_>
          13 13 1 4 -1.</_>
        <_>
          13 15 1 2 2.</_></rects>
      <tilted>0</tilted></_>
    <_>
      <rects>
        <_>
          13 13 2 2 -1.</_>
        <_>
          13 14 2 1 2.</_></rects>
      <tilted>0</tilted></_>
    <_>
      <rects>
        <_>
          13 13 2 4 -1.</_>
        <_>
          13 15 2 2 2.</_></rects>
      <tilted>0</tilted></_>
    <_>
      <rects>
        <_>
          13 14 2 1 -1.</_>
        <_>
          14 14 1 1 2.</_></rects>
      <tilted>0</tilted></_>
    <_>
      <rects>
        <_>
          13 14 1 2 -1.</_>
        <_>
          13 15 1 1 2.</_></rects>
      <tilted>0</tilted></_>
    <_>
      <rects>
        <_>
          14 9 6 4 -1.</_>
        <_>
          17 9 3 4 2.</_></rects>
      <tilted>0</tilted></_>
    <_>
      <rects>
        <_>
          14 11 1 4 -1.</_>
        <_>
          14 13 1 2 2.</_></rects>
      <tilted>0</tilted></_>
    <_>
      <rects>
        <_>
          14 12 2 1 -1.</_>
        <_>
          15 12 1 1 2.</_></rects>
      <tilted>0</tilted></_>
    <_>
      <rects>
        <_>
          14 12 1 2 -1.</_>
        <_>
          14 13 1 1 2.</_></rects>
      <tilted>0</tilted></_>
    <_>
      <rects>
        <_>
          14 12 2 2 -1.</_>
        <_>
          15 12 1 2 2.</_></rects>
      <tilted>0</tilted></_>
    <_>
      <rects>
        <_>
          14 12 1 4 -1.</_>
        <_>
          14 14 1 2 2.</_></rects>
      <tilted>0</tilted></_>
    <_>
      <rects>
        <_>
          14 12 4 1 -1.</_>
        <_>
          16 12 2 1 2.</_></rects>
      <tilted>0</tilted></_>
    <_>
      <rects>
        <_>
          15 11 1 2 -1.</_>
        <_>
          15 12 1 1 2.</_></rects>
      <tilted>0</tilted></_>
    <_>
      <rects>
        <_>
          15 11 1 4 -1.</_>
        <_>
          15 13 1 2 2.</_></rects>
      <tilted>0</tilted></_>
    <_>
      <rects>
        <_>
          16 6 4 7 -1.</_>
        <_>
          18 6 2 7 2.</_></rects>
      <tilted>0</tilted></_>
    <_>
      <rects>
        <_>
          16 8 4 9 -1.</_>
        <_>
          18 8 2 9 2.</_></rects>
      <tilted>0</tilted></_>
    <_>
      <rects>
        <_>
          16 10 4 1 -1.</_>
        <_>
          18 10 2 1 2.</_></rects>
      <tilted>0</tilted></_>
    <_>
      <rects>
        <_>
          16 11 2 1 -1.</_>
        <_>
          17 11 1 1 2.</_></rects>
      <tilted>0</tilted></_>
    <_>
      <rects>
        <_>
          17 11 2 2 -1.</_>
        <_>
          18 11 1 2 2.</_></rects>
      <tilted>0</tilted></_></features></cascade>
</opencv_storage>
