<?xml version="1.0"?>
<opencv_storage>
<cascade>
  <stageType>BOOST</stageType>
  <featureType>HAAR</featureType>
  <height>20</height>
  <width>20</width>
  <stageParams>
    <boostType>GAB</boostType>
    <minHitRate>9.9500000476837158e-01</minHitRate>
    <maxFalseAlarm>5.0000000000000000e-01</maxFalseAlarm>
    <weightTrimRate>9.4999999999999996e-01</weightTrimRate>
    <maxDepth>1</maxDepth>
    <maxWeakCount>100</maxWeakCount></stageParams>
  <featureParams>
    <maxCatCount>0</maxCatCount>
    <featSize>1</featSize>
    <mode>BASIC</mode></featureParams>
  <stageNum>10</stageNum>
  <stages>
    <!-- stage 0 -->
    <_>
      <maxWeakCount>21</maxWeakCount>
      <stageThreshold>-1.0250718593597412e+00</stageThreshold>
      <weakClassifiers>
        <_>
          <internalNodes>
            0 -1 218 2.6014024115283974e-05</internalNodes>
          <leafValues>
            -2.4714829027652740e-01 5.7299840450286865e-01</leafValues></_>
        <_>
          <internalNodes>
            0 -1 107 1.0407194495201111e-03</internalNodes>
          <leafValues>
            -4.0190434455871582e-01 3.1090167164802551e-01</leafValues></_>
        <_>
          <internalNodes>
            0 -1 60 -2.3338966071605682e-02</internalNodes>
          <leafValues>
            5.9202247858047485e-01 -1.9023731350898743e-01</leafValues></_>
        <_>
          <internalNodes>
            0 -1 106 8.4673343226313591e-03</internalNodes>
          <leafValues>
            1.0749428719282150e-01 -7.8746914863586426e-01</leafValues></_>
        <_>
          <internalNodes>
            0 -1 131 -8.0622565001249313e-03</internalNodes>
          <leafValues>
            4.1565641760826111e-01 -2.3823186755180359e-01</leafValues></_>
        <_>
          <internalNodes>
            0 -1 106 -9.2333313077688217e-03</internalNodes>
          <leafValues>
            -8.1007617712020874e-01 1.1580799520015717e-01</leafValues></_>
        <_>
          <internalNodes>
            0 -1 135 -2.5175504386425018e-02</internalNodes>
          <leafValues>
            -8.0528521537780762e-01 1.1830927431583405e-01</leafValues></_>
        <_>
          <internalNodes>
            0 -1 176 -3.9275195449590683e-03</internalNodes>
          <leafValues>
            7.8828401863574982e-02 -9.2373174428939819e-01</leafValues></_>
        <_>
          <internalNodes>
            0 -1 234 9.2319387476891279e-04</internalNodes>
          <leafValues>
            -3.9302849769592285e-01 1.8054375052452087e-01</leafValues></_>
        <_>
          <internalNodes>
            0 -1 123 3.9137311279773712e-02</internalNodes>
          <leafValues>
            1.5117166936397552e-01 -5.3775948286056519e-01</leafValues></_>
        <_>
          <internalNodes>
            0 -1 183 -1.5134610235691071e-02</internalNodes>
          <leafValues>
            5.5655407905578613e-01 -1.4780622720718384e-01</leafValues></_>
        <_>
          <internalNodes>
            0 -1 151 3.8121421821415424e-03</internalNodes>
          <leafValues>
            -1.1874066293239594e-01 5.6192821264266968e-01</leafValues></_>
        <_>
          <internalNodes>
            0 -1 125 1.4820382930338383e-03</internalNodes>
          <leafValues>
            -1.4803442358970642e-01 5.4685997962951660e-01</leafValues></_>
        <_>
          <internalNodes>
            0 -1 104 4.3483031913638115e-03</internalNodes>
          <leafValues>
            1.0858111083507538e-01 -5.8329033851623535e-01</leafValues></_>
        <_>
          <internalNodes>
            0 -1 271 3.0964312609285116e-03</internalNodes>
          <leafValues>
            -1.4944322407245636e-01 4.3308794498443604e-01</leafValues></_>
        <_>
          <internalNodes>
            0 -1 173 -3.1476020812988281e-03</internalNodes>
          <leafValues>
            -6.8560087680816650e-01 1.0323633253574371e-01</leafValues></_>
        <_>
          <internalNodes>
            0 -1 272 9.0000219643115997e-04</internalNodes>
          <leafValues>
            -1.8431185185909271e-01 4.0257954597473145e-01</leafValues></_>
        <_>
          <internalNodes>
            0 -1 259 1.2680413201451302e-03</internalNodes>
          <leafValues>
            -1.4212472736835480e-01 4.1458523273468018e-01</leafValues></_>
        <_>
          <internalNodes>
            0 -1 54 -5.8308080770075321e-04</internalNodes>
          <leafValues>
            2.4329204857349396e-01 -2.3925465345382690e-01</leafValues></_>
        <_>
          <internalNodes>
            0 -1 97 -9.2774890363216400e-03</internalNodes>
          <leafValues>
            -6.2535065412521362e-01 1.1032647639513016e-01</leafValues></_>
        <_>
          <internalNodes>
            0 -1 255 1.0446119122207165e-03</internalNodes>
          <leafValues>
            -1.9531033933162689e-01 3.1269165873527527e-01</leafValues></_></weakClassifiers></_>
    <!-- stage 1 -->
    <_>
      <maxWeakCount>23</maxWeakCount>
      <stageThreshold>-9.1656070947647095e-01</stageThreshold>
      <weakClassifiers>
        <_>
          <internalNodes>
            0 -1 80 4.1819037869572639e-03</internalNodes>
          <leafValues>
            5.1902300119400024e-01 -3.5901924967765808e-01</leafValues></_>
        <_>
          <internalNodes>
            0 -1 219 -1.5527750365436077e-03</internalNodes>
          <leafValues>
            -6.8934935331344604e-01 1.7474977672100067e-01</leafValues></_>
        <_>
          <internalNodes>
            0 -1 109 -5.7636741548776627e-02</internalNodes>
          <leafValues>
            5.7230728864669800e-01 -1.7336639761924744e-01</leafValues></_>
        <_>
          <internalNodes>
            0 -1 140 -4.1614370420575142e-03</internalNodes>
          <leafValues>
            -6.7126989364624023e-01 1.3169296085834503e-01</leafValues></_>
        <_>
          <internalNodes>
            0 -1 175 4.5326706022024155e-03</internalNodes>
          <leafValues>
            1.2684494256973267e-01 -5.7485067844390869e-01</leafValues></_>
        <_>
          <internalNodes>
            0 -1 206 6.6759951412677765e-02</internalNodes>
          <leafValues>
            -1.2416677176952362e-01 6.0872501134872437e-01</leafValues></_>
        <_>
          <internalNodes>
            0 -1 31 2.9559820890426636e-02</internalNodes>
          <leafValues>
            -1.0337876528501511e-01 6.4427703619003296e-01</leafValues></_>
        <_>
          <internalNodes>
            0 -1 99 -9.0840719640254974e-03</internalNodes>
          <leafValues>
            -7.2231501340866089e-01 6.9618552923202515e-02</leafValues></_>
        <_>
          <internalNodes>
            0 -1 82 -1.1749209370464087e-03</internalNodes>
          <leafValues>
            2.2830444574356079e-01 -2.7330580353736877e-01</leafValues></_>
        <_>
          <internalNodes>
            0 -1 174 -2.3431710433214903e-03</internalNodes>
          <leafValues>
            -6.5305256843566895e-01 1.0324430465698242e-01</leafValues></_>
        <_>
          <internalNodes>
            0 -1 132 -8.6544770747423172e-03</internalNodes>
          <leafValues>
            5.9285309165716171e-02 -8.8066095113754272e-01</leafValues></_>
        <_>
          <internalNodes>
            0 -1 63 -2.4895468726754189e-02</internalNodes>
          <leafValues>
            3.9586529135704041e-01 -1.7898124456405640e-01</leafValues></_>
        <_>
          <internalNodes>
            0 -1 250 -2.1925598382949829e-02</internalNodes>
          <leafValues>
            5.3519368171691895e-01 -1.0287895798683167e-01</leafValues></_>
        <_>
          <internalNodes>
            0 -1 133 7.1925059892237186e-03</internalNodes>
          <leafValues>
            8.6329400539398193e-02 -7.3763352632522583e-01</leafValues></_>
        <_>
          <internalNodes>
            0 -1 216 -1.3141506351530552e-03</internalNodes>
          <leafValues>
            -4.8211565613746643e-01 1.0385787487030029e-01</leafValues></_>
        <_>
          <internalNodes>
            0 -1 41 -8.6183566600084305e-03</internalNodes>
          <leafValues>
            3.6087346076965332e-01 -1.5256169438362122e-01</leafValues></_>
        <_>
          <internalNodes>
            0 -1 144 2.8082132339477539e-03</internalNodes>
          <leafValues>
            -2.1279850602149963e-01 2.4826377630233765e-01</leafValues></_>
        <_>
          <internalNodes>
            0 -1 262 -4.0312958881258965e-03</internalNodes>
          <leafValues>
            4.1550111770629883e-01 -1.2640553712844849e-01</leafValues></_>
        <_>
          <internalNodes>
            0 -1 10 -4.5567061752080917e-03</internalNodes>
          <leafValues>
            3.4389191865921021e-01 -1.3793683052062988e-01</leafValues></_>
        <_>
          <internalNodes>
            0 -1 253 -1.8555135466158390e-03</internalNodes>
          <leafValues>
            4.4849190115928650e-01 -1.1277022212743759e-01</leafValues></_>
        <_>
          <internalNodes>
            0 -1 233 2.7898112311959267e-03</internalNodes>
          <leafValues>
            9.9877186119556427e-02 -5.1008504629135132e-01</leafValues></_>
        <_>
          <internalNodes>
            0 -1 264 6.3347034156322479e-03</internalNodes>
          <leafValues>
            -1.2635296583175659e-01 3.7705543637275696e-01</leafValues></_>
        <_>
          <internalNodes>
            0 -1 173 4.4676782563328743e-03</internalNodes>
          <leafValues>
            5.9207860380411148e-02 -8.0766963958740234e-01</leafValues></_></weakClassifiers></_>
    <!-- stage 2 -->
    <_>
      <maxWeakCount>22</maxWeakCount>
      <stageThreshold>-8.3902657032012939e-01</stageThreshold>
      <weakClassifiers>
        <_>
          <internalNodes>
            0 -1 235 -9.5631030853837729e-04</internalNodes>
          <leafValues>
            -5.2577316761016846e-01 4.3711084127426147e-01</leafValues></_>
        <_>
          <internalNodes>
            0 -1 205 1.1334782466292381e-02</internalNodes>
          <leafValues>
            1.4786635339260101e-01 -7.1483498811721802e-01</leafValues></_>
        <_>
          <internalNodes>
            0 -1 141 9.9433073773980141e-04</internalNodes>
          <leafValues>
            -4.3220233917236328e-01 1.8199513852596283e-01</leafValues></_>
        <_>
          <internalNodes>
            0 -1 102 -2.0971684716641903e-03</internalNodes>
          <leafValues>
            -5.2434867620468140e-01 1.6402918100357056e-01</leafValues></_>
        <_>
          <internalNodes>
            0 -1 138 2.4817152880132198e-03</internalNodes>
          <leafValues>
            8.2723140716552734e-02 -6.2292385101318359e-01</leafValues></_>
        <_>
          <internalNodes>
            0 -1 208 -1.1945322621613741e-03</internalNodes>
          <leafValues>
            -5.2599310874938965e-01 1.2187395244836807e-01</leafValues></_>
        <_>
          <internalNodes>
            0 -1 115 -2.4769388139247894e-02</internalNodes>
          <leafValues>
            5.0450015068054199e-01 -1.5059089660644531e-01</leafValues></_>
        <_>
          <internalNodes>
            0 -1 13 -3.1323272734880447e-02</internalNodes>
          <leafValues>
            4.5968073606491089e-01 -1.8076731264591217e-01</leafValues></_>
        <_>
          <internalNodes>
            0 -1 137 -8.6451508104801178e-03</internalNodes>
          <leafValues>
            1.1970866471529007e-01 -8.7963181734085083e-01</leafValues></_>
        <_>
          <internalNodes>
            0 -1 282 5.7808682322502136e-03</internalNodes>
          <leafValues>
            -1.8060672283172607e-01 5.2928942441940308e-01</leafValues></_>
        <_>
          <internalNodes>
            0 -1 245 -3.7538370816037059e-04</internalNodes>
          <leafValues>
            -3.3645871281623840e-01 2.0234777033329010e-01</leafValues></_>
        <_>
          <internalNodes>
            0 -1 6 -1.1031094193458557e-01</internalNodes>
          <leafValues>
            -1.1827975511550903e-01 5.3464049100875854e-01</leafValues></_>
        <_>
          <internalNodes>
            0 -1 42 -9.9211800843477249e-03</internalNodes>
          <leafValues>
            4.5411694049835205e-01 -1.3612627983093262e-01</leafValues></_>
        <_>
          <internalNodes>
            0 -1 130 -1.6482576727867126e-02</internalNodes>
          <leafValues>
            -8.0812805891036987e-01 8.5628226399421692e-02</leafValues></_>
        <_>
          <internalNodes>
            0 -1 197 -4.6804612502455711e-03</internalNodes>
          <leafValues>
            5.1301223039627075e-01 -1.1508060991764069e-01</leafValues></_>
        <_>
          <internalNodes>
            0 -1 209 3.6891959607601166e-03</internalNodes>
          <leafValues>
            8.2467578351497650e-02 -5.9843659400939941e-01</leafValues></_>
        <_>
          <internalNodes>
            0 -1 73 6.7870607599616051e-03</internalNodes>
          <leafValues>
            9.1239809989929199e-02 -5.1760727167129517e-01</leafValues></_>
        <_>
          <internalNodes>
            0 -1 93 -5.0427438691258430e-04</internalNodes>
          <leafValues>
            2.2231195867061615e-01 -2.1267546713352203e-01</leafValues></_>
        <_>
          <internalNodes>
            0 -1 56 -1.1043543927371502e-03</internalNodes>
          <leafValues>
            3.0925196409225464e-01 -1.5532501041889191e-01</leafValues></_>
        <_>
          <internalNodes>
            0 -1 199 3.1434603035449982e-02</internalNodes>
          <leafValues>
            6.4130470156669617e-02 -6.9806224107742310e-01</leafValues></_>
        <_>
          <internalNodes>
            0 -1 23 -1.5861224383115768e-02</internalNodes>
          <leafValues>
            -5.3106170892715454e-01 7.8068546950817108e-02</leafValues></_>
        <_>
          <internalNodes>
            0 -1 285 -8.2712189760059118e-04</internalNodes>
          <leafValues>
            -3.7206426262855530e-01 1.2835185229778290e-01</leafValues></_></weakClassifiers></_>
    <!-- stage 3 -->
    <_>
      <maxWeakCount>28</maxWeakCount>
      <stageThreshold>-9.0889173746109009e-01</stageThreshold>
      <weakClassifiers>
        <_>
          <internalNodes>
            0 -1 195 -1.0591599345207214e-01</internalNodes>
          <leafValues>
            -4.1682243347167969e-01 5.1870667934417725e-01</leafValues></_>
        <_>
          <internalNodes>
            0 -1 78 -7.1961747016757727e-04</internalNodes>
          <leafValues>
            2.7007609605789185e-01 -3.5286298394203186e-01</leafValues></_>
        <_>
          <internalNodes>
            0 -1 24 2.9748301953077316e-02</internalNodes>
          <leafValues>
            -1.5013554692268372e-01 5.0520122051239014e-01</leafValues></_>
        <_>
          <internalNodes>
            0 -1 220 2.4188133829738945e-04</internalNodes>
          <leafValues>
            -4.7396838665008545e-01 1.6033400595188141e-01</leafValues></_>
        <_>
          <internalNodes>
            0 -1 100 -4.3374868109822273e-03</internalNodes>
          <leafValues>
            9.2352852225303650e-02 -7.6269930601119995e-01</leafValues></_>
        <_>
          <internalNodes>
            0 -1 279 6.2327831983566284e-03</internalNodes>
          <leafValues>
            -1.2319040298461914e-01 4.3522742390632629e-01</leafValues></_>
        <_>
          <internalNodes>
            0 -1 179 -5.6407524971291423e-04</internalNodes>
          <leafValues>
            -4.3250516057014465e-01 1.2264996767044067e-01</leafValues></_>
        <_>
          <internalNodes>
            0 -1 168 8.2560768350958824e-03</internalNodes>
          <leafValues>
            9.0449221432209015e-02 -5.0919884443283081e-01</leafValues></_>
        <_>
          <internalNodes>
            0 -1 277 -5.7372683659195900e-03</internalNodes>
          <leafValues>
            3.3921325206756592e-01 -1.6397199034690857e-01</leafValues></_>
        <_>
          <internalNodes>
            0 -1 106 -4.8085073940455914e-03</internalNodes>
          <leafValues>
            -4.8960340023040771e-01 1.2831722199916840e-01</leafValues></_>
        <_>
          <internalNodes>
            0 -1 136 2.6105896104127169e-03</internalNodes>
          <leafValues>
            6.4064383506774902e-02 -6.6914743185043335e-01</leafValues></_>
        <_>
          <internalNodes>
            0 -1 66 -3.3899515401571989e-03</internalNodes>
          <leafValues>
            3.1190171837806702e-01 -1.6978263854980469e-01</leafValues></_>
        <_>
          <internalNodes>
            0 -1 2 -1.0694158822298050e-01</internalNodes>
          <leafValues>
            4.1580677032470703e-01 -1.2029023468494415e-01</leafValues></_>
        <_>
          <internalNodes>
            0 -1 265 -3.0271185096353292e-03</internalNodes>
          <leafValues>
            4.0031978487968445e-01 -1.2293948233127594e-01</leafValues></_>
        <_>
          <internalNodes>
            0 -1 267 2.5584548711776733e-03</internalNodes>
          <leafValues>
            -1.4266087114810944e-01 3.5361042618751526e-01</leafValues></_>
        <_>
          <internalNodes>
            0 -1 204 1.7174713313579559e-02</internalNodes>
          <leafValues>
            7.0794314146041870e-02 -7.6624339818954468e-01</leafValues></_>
        <_>
          <internalNodes>
            0 -1 143 -4.0772338397800922e-03</internalNodes>
          <leafValues>
            4.1166413575410843e-02 -8.8009327650070190e-01</leafValues></_>
        <_>
          <internalNodes>
            0 -1 15 -2.4593882262706757e-02</internalNodes>
          <leafValues>
            -1.0797541588544846e-01 5.4482215642929077e-01</leafValues></_>
        <_>
          <internalNodes>
            0 -1 180 2.0799003541469574e-03</internalNodes>
          <leafValues>
            -3.0000069737434387e-01 2.2426059842109680e-01</leafValues></_>
        <_>
          <internalNodes>
            0 -1 212 -1.2035910040140152e-03</internalNodes>
          <leafValues>
            -3.7255716323852539e-01 1.3910047709941864e-01</leafValues></_>
        <_>
          <internalNodes>
            0 -1 75 -5.9114050120115280e-02</internalNodes>
          <leafValues>
            4.9201926589012146e-01 -1.0287325084209442e-01</leafValues></_>
        <_>
          <internalNodes>
            0 -1 148 4.0370365604758263e-03</internalNodes>
          <leafValues>
            -1.3831372559070587e-01 3.3913257718086243e-01</leafValues></_>
        <_>
          <internalNodes>
            0 -1 196 -3.9844978600740433e-03</internalNodes>
          <leafValues>
            5.3553920984268188e-01 -8.1485360860824585e-02</leafValues></_>
        <_>
          <internalNodes>
            0 -1 200 3.4598268102854490e-03</internalNodes>
          <leafValues>
            -1.0798615962266922e-01 4.8495411872863770e-01</leafValues></_>
        <_>
          <internalNodes>
            0 -1 71 1.0273169726133347e-02</internalNodes>
          <leafValues>
            7.8217737376689911e-02 -7.2917163372039795e-01</leafValues></_>
        <_>
          <internalNodes>
            0 -1 53 -7.7164019457995892e-03</internalNodes>
          <leafValues>
            -5.5509394407272339e-01 6.5409943461418152e-02</leafValues></_>
        <_>
          <internalNodes>
            0 -1 201 -1.9293404184281826e-03</internalNodes>
          <leafValues>
            2.4701212346553802e-01 -1.9826582074165344e-01</leafValues></_>
        <_>
          <internalNodes>
            0 -1 87 -1.7066389322280884e-02</internalNodes>
          <leafValues>
            -3.3004158735275269e-01 1.4078687131404877e-01</leafValues></_></weakClassifiers></_>
    <!-- stage 4 -->
    <_>
      <maxWeakCount>35</maxWeakCount>
      <stageThreshold>-8.4208422899246216e-01</stageThreshold>
      <weakClassifiers>
        <_>
          <internalNodes>
            0 -1 112 1.5958908479660749e-03</internalNodes>
          <leafValues>
            4.5923537015914917e-01 -1.8336483836174011e-01</leafValues></_>
        <_>
          <internalNodes>
            0 -1 241 -8.9251380413770676e-03</internalNodes>
          <leafValues>
            5.2736067771911621e-01 -8.5272803902626038e-02</leafValues></_>
        <_>
          <internalNodes>
            0 -1 113 -7.1449493989348412e-03</internalNodes>
          <leafValues>
            -5.8642053604125977e-01 9.3456342816352844e-02</leafValues></_>
        <_>
          <internalNodes>
            0 -1 52 -1.0974502656608820e-03</internalNodes>
          <leafValues>
            1.8520392477512360e-01 -2.5884857773780823e-01</leafValues></_>
        <_>
          <internalNodes>
            0 -1 24 2.2639717906713486e-02</internalNodes>
          <leafValues>
            -1.9125039875507355e-01 3.2863706350326538e-01</leafValues></_>
        <_>
          <internalNodes>
            0 -1 171 1.1358682531863451e-03</internalNodes>
          <leafValues>
            1.3868828117847443e-01 -4.4049808382987976e-01</leafValues></_>
        <_>
          <internalNodes>
            0 -1 248 7.3168682865798473e-03</internalNodes>
          <leafValues>
            -1.5841116011142731e-01 3.7712940573692322e-01</leafValues></_>
        <_>
          <internalNodes>
            0 -1 190 -2.3242700845003128e-03</internalNodes>
          <leafValues>
            5.1568591594696045e-01 -6.4731679856777191e-02</leafValues></_>
        <_>
          <internalNodes>
            0 -1 216 1.9951744470745325e-03</internalNodes>
          <leafValues>
            8.9220836758613586e-02 -4.5338547229766846e-01</leafValues></_>
        <_>
          <internalNodes>
            0 -1 85 1.0042565409094095e-03</internalNodes>
          <leafValues>
            -3.0525267124176025e-01 1.7412279546260834e-01</leafValues></_>
        <_>
          <internalNodes>
            0 -1 35 -4.1520688682794571e-03</internalNodes>
          <leafValues>
            4.3020391464233398e-01 -1.1371699720621109e-01</leafValues></_>
        <_>
          <internalNodes>
            0 -1 81 -4.5626503415405750e-03</internalNodes>
          <leafValues>
            -5.0624942779541016e-01 1.0592093318700790e-01</leafValues></_>
        <_>
          <internalNodes>
            0 -1 185 -6.7740865051746368e-03</internalNodes>
          <leafValues>
            5.2542859315872192e-01 -8.9322991669178009e-02</leafValues></_>
        <_>
          <internalNodes>
            0 -1 43 6.4052157104015350e-03</internalNodes>
          <leafValues>
            -1.2084439396858215e-01 4.2961418628692627e-01</leafValues></_>
        <_>
          <internalNodes>
            0 -1 177 -1.0369961149990559e-02</internalNodes>
          <leafValues>
            7.5010925531387329e-02 -6.7513662576675415e-01</leafValues></_>
        <_>
          <internalNodes>
            0 -1 162 1.6427963972091675e-02</internalNodes>
          <leafValues>
            5.3217403590679169e-02 -7.4259519577026367e-01</leafValues></_>
        <_>
          <internalNodes>
            0 -1 30 -9.3613505363464355e-02</internalNodes>
          <leafValues>
            3.0707851052284241e-01 -1.4959670603275299e-01</leafValues></_>
        <_>
          <internalNodes>
            0 -1 37 -6.7406967282295227e-02</internalNodes>
          <leafValues>
            3.7771409749984741e-01 -1.1865771561861038e-01</leafValues></_>
        <_>
          <internalNodes>
            0 -1 33 -3.0291450675576925e-03</internalNodes>
          <leafValues>
            3.6478883028030396e-01 -1.1123382300138474e-01</leafValues></_>
        <_>
          <internalNodes>
            0 -1 77 1.6997955972328782e-03</internalNodes>
          <leafValues>
            1.0735496133565903e-01 -4.2497846484184265e-01</leafValues></_>
        <_>
          <internalNodes>
            0 -1 150 3.8239285349845886e-03</internalNodes>
          <leafValues>
            -1.0037051886320114e-01 4.3332672119140625e-01</leafValues></_>
        <_>
          <internalNodes>
            0 -1 127 -4.5512244105339050e-03</internalNodes>
          <leafValues>
            4.8943820595741272e-01 -8.4600009024143219e-02</leafValues></_>
        <_>
          <internalNodes>
            0 -1 219 4.3268548324704170e-03</internalNodes>
          <leafValues>
            8.1406593322753906e-02 -5.7119268178939819e-01</leafValues></_>
        <_>
          <internalNodes>
            0 -1 118 -5.9311990626156330e-03</internalNodes>
          <leafValues>
            -4.1678017377853394e-01 8.7486840784549713e-02</leafValues></_>
        <_>
          <internalNodes>
            0 -1 124 5.3496258333325386e-03</internalNodes>
          <leafValues>
            7.9992830753326416e-02 -5.2195376157760620e-01</leafValues></_>
        <_>
          <internalNodes>
            0 -1 142 8.2541233859956264e-04</internalNodes>
          <leafValues>
            8.8943727314472198e-02 -4.2741924524307251e-01</leafValues></_>
        <_>
          <internalNodes>
            0 -1 254 2.5057015009224415e-03</internalNodes>
          <leafValues>
            -1.4027175307273865e-01 3.0334883928298950e-01</leafValues></_>
        <_>
          <internalNodes>
            0 -1 200 2.2743956651538610e-03</internalNodes>
          <leafValues>
            -1.0250075906515121e-01 3.6737027764320374e-01</leafValues></_>
        <_>
          <internalNodes>
            0 -1 208 -1.1938132811337709e-03</internalNodes>
          <leafValues>
            -4.9042874574661255e-01 8.0779276788234711e-02</leafValues></_>
        <_>
          <internalNodes>
            0 -1 0 -3.1836435664445162e-04</internalNodes>
          <leafValues>
            -2.8762003779411316e-01 1.3740043342113495e-01</leafValues></_>
        <_>
          <internalNodes>
            0 -1 0 4.1521061211824417e-04</internalNodes>
          <leafValues>
            1.5023484826087952e-01 -3.6212497949600220e-01</leafValues></_>
        <_>
          <internalNodes>
            0 -1 240 1.8364405259490013e-03</internalNodes>
          <leafValues>
            -1.4300751686096191e-01 2.9795205593109131e-01</leafValues></_>
        <_>
          <internalNodes>
            0 -1 19 -6.0165775939822197e-03</internalNodes>
          <leafValues>
            4.4889625906944275e-01 -8.7308354675769806e-02</leafValues></_>
        <_>
          <internalNodes>
            0 -1 247 -8.3660118980333209e-04</internalNodes>
          <leafValues>
            2.8735423088073730e-01 -1.3359485566616058e-01</leafValues></_>
        <_>
          <internalNodes>
            0 -1 98 8.8032502681016922e-03</internalNodes>
          <leafValues>
            7.0650085806846619e-02 -5.4885959625244141e-01</leafValues></_></weakClassifiers></_>
    <!-- stage 5 -->
    <_>
      <maxWeakCount>29</maxWeakCount>
      <stageThreshold>-7.3661983013153076e-01</stageThreshold>
      <weakClassifiers>
        <_>
          <internalNodes>
            0 -1 234 1.7149491468444467e-03</internalNodes>
          <leafValues>
            2.8169013559818268e-02 5.1113718748092651e-01</leafValues></_>
        <_>
          <internalNodes>
            0 -1 26 -5.2733987569808960e-01</internalNodes>
          <leafValues>
            -1.1937862634658813e-01 5.2870166301727295e-01</leafValues></_>
        <_>
          <internalNodes>
            0 -1 54 -1.0485427919775248e-03</internalNodes>
          <leafValues>
            2.8283748030662537e-01 -2.8422307968139648e-01</leafValues></_>
        <_>
          <internalNodes>
            0 -1 5 7.6296338811516762e-03</internalNodes>
          <leafValues>
            -1.9422359764575958e-01 3.9060470461845398e-01</leafValues></_>
        <_>
          <internalNodes>
            0 -1 27 -3.8486574776470661e-03</internalNodes>
          <leafValues>
            3.2228162884712219e-01 -2.0359659194946289e-01</leafValues></_>
        <_>
          <internalNodes>
            0 -1 246 1.4404379762709141e-03</internalNodes>
          <leafValues>
            -1.8075706064701080e-01 3.0928999185562134e-01</leafValues></_>
        <_>
          <internalNodes>
            0 -1 158 -2.4430146440863609e-03</internalNodes>
          <leafValues>
            4.4841423630714417e-01 -9.4202622771263123e-02</leafValues></_>
        <_>
          <internalNodes>
            0 -1 202 -1.8549496307969093e-03</internalNodes>
          <leafValues>
            3.3611273765563965e-01 -1.5922090411186218e-01</leafValues></_>
        <_>
          <internalNodes>
            0 -1 74 -1.2932140380144119e-02</internalNodes>
          <leafValues>
            -6.1597591638565063e-01 1.1167720705270767e-01</leafValues></_>
        <_>
          <internalNodes>
            0 -1 232 1.2402971042320132e-03</internalNodes>
          <leafValues>
            -3.2387456297874451e-01 1.4140117168426514e-01</leafValues></_>
        <_>
          <internalNodes>
            0 -1 83 6.6322376951575279e-03</internalNodes>
          <leafValues>
            1.3918545842170715e-01 -4.5240360498428345e-01</leafValues></_>
        <_>
          <internalNodes>
            0 -1 169 -1.9048701971769333e-02</internalNodes>
          <leafValues>
            4.0239375829696655e-01 -1.3524496555328369e-01</leafValues></_>
        <_>
          <internalNodes>
            0 -1 38 -2.8692174702882767e-02</internalNodes>
          <leafValues>
            -3.2189035415649414e-01 1.4940041303634644e-01</leafValues></_>
        <_>
          <internalNodes>
            0 -1 48 -3.1887013465166092e-03</internalNodes>
          <leafValues>
            3.7473884224891663e-01 -1.5307268500328064e-01</leafValues></_>
        <_>
          <internalNodes>
            0 -1 45 -2.3982366546988487e-03</internalNodes>
          <leafValues>
            3.7530052661895752e-01 -1.2341305613517761e-01</leafValues></_>
        <_>
          <internalNodes>
            0 -1 94 -6.4124334603548050e-03</internalNodes>
          <leafValues>
            -6.4575338363647461e-01 6.6920436918735504e-02</leafValues></_>
        <_>
          <internalNodes>
            0 -1 260 1.8071678932756186e-03</internalNodes>
          <leafValues>
            -1.1887174099683762e-01 3.7267363071441650e-01</leafValues></_>
        <_>
          <internalNodes>
            0 -1 108 1.8292112275958061e-02</internalNodes>
          <leafValues>
            9.8075389862060547e-02 -5.0088334083557129e-01</leafValues></_>
        <_>
          <internalNodes>
            0 -1 230 -1.5004245797172189e-03</internalNodes>
          <leafValues>
            1.9291362166404724e-01 -2.4771815538406372e-01</leafValues></_>
        <_>
          <internalNodes>
            0 -1 57 2.6997432578355074e-03</internalNodes>
          <leafValues>
            -1.1555900424718857e-01 3.9892089366912842e-01</leafValues></_>
        <_>
          <internalNodes>
            0 -1 160 4.1266619227826595e-03</internalNodes>
          <leafValues>
            9.5967397093772888e-02 -5.2420854568481445e-01</leafValues></_>
        <_>
          <internalNodes>
            0 -1 210 1.1208200885448605e-04</internalNodes>
          <leafValues>
            -3.5590088367462158e-01 1.2215926498174667e-01</leafValues></_>
        <_>
          <internalNodes>
            0 -1 44 2.7169934473931789e-03</internalNodes>
          <leafValues>
            -1.6161146759986877e-01 3.0309027433395386e-01</leafValues></_>
        <_>
          <internalNodes>
            0 -1 49 -6.5299880225211382e-04</internalNodes>
          <leafValues>
            1.9321602582931519e-01 -2.7348402142524719e-01</leafValues></_>
        <_>
          <internalNodes>
            0 -1 214 2.1295165643095970e-02</internalNodes>
          <leafValues>
            -7.5294569134712219e-02 5.9626048803329468e-01</leafValues></_>
        <_>
          <internalNodes>
            0 -1 256 1.2383625144138932e-03</internalNodes>
          <leafValues>
            -1.0038738697767258e-01 3.5825556516647339e-01</leafValues></_>
        <_>
          <internalNodes>
            0 -1 275 1.1983651202172041e-03</internalNodes>
          <leafValues>
            1.1550221592187881e-01 -3.8445961475372314e-01</leafValues></_>
        <_>
          <internalNodes>
            0 -1 95 3.0512420926243067e-03</internalNodes>
          <leafValues>
            9.5042228698730469e-02 -3.8056159019470215e-01</leafValues></_>
        <_>
          <internalNodes>
            0 -1 263 6.1713526956737041e-03</internalNodes>
          <leafValues>
            -1.2226113677024841e-01 3.2816931605339050e-01</leafValues></_></weakClassifiers></_>
    <!-- stage 6 -->
    <_>
      <maxWeakCount>41</maxWeakCount>
      <stageThreshold>-8.1057286262512207e-01</stageThreshold>
      <weakClassifiers>
        <_>
          <internalNodes>
            0 -1 105 1.6968980198726058e-03</internalNodes>
          <leafValues>
            1.9812304526567459e-02 5.0603103637695312e-01</leafValues></_>
        <_>
          <internalNodes>
            0 -1 286 -7.1479855105280876e-03</internalNodes>
          <leafValues>
            6.0341709852218628e-01 -8.1150956451892853e-02</leafValues></_>
        <_>
          <internalNodes>
            0 -1 58 -6.4358469098806381e-03</internalNodes>
          <leafValues>
            3.8467720150947571e-01 -1.7187184095382690e-01</leafValues></_>
        <_>
          <internalNodes>
            0 -1 22 3.0935481190681458e-03</internalNodes>
          <leafValues>
            -8.5488915443420410e-02 4.9623134732246399e-01</leafValues></_>
        <_>
          <internalNodes>
            0 -1 21 -2.7863106224685907e-03</internalNodes>
          <leafValues>
            4.2273819446563721e-01 -1.4887292683124542e-01</leafValues></_>
        <_>
          <internalNodes>
            0 -1 157 2.2492557764053345e-03</internalNodes>
          <leafValues>
            -8.9272588491439819e-02 5.2341938018798828e-01</leafValues></_>
        <_>
          <internalNodes>
            0 -1 151 -2.4287435226142406e-03</internalNodes>
          <leafValues>
            4.3258246779441833e-01 -1.1405319720506668e-01</leafValues></_>
        <_>
          <internalNodes>
            0 -1 152 -3.9559598080813885e-03</internalNodes>
          <leafValues>
            4.7681510448455811e-01 -1.0475137829780579e-01</leafValues></_>
        <_>
          <internalNodes>
            0 -1 245 2.0094868887099437e-05</internalNodes>
          <leafValues>
            -3.0173167586326599e-01 1.4226874709129333e-01</leafValues></_>
        <_>
          <internalNodes>
            0 -1 210 6.7717665806412697e-03</internalNodes>
          <leafValues>
            9.0990260243415833e-02 -5.3145891427993774e-01</leafValues></_>
        <_>
          <internalNodes>
            0 -1 217 -1.2070936150848866e-02</internalNodes>
          <leafValues>
            8.5871487855911255e-02 -4.6495833992958069e-01</leafValues></_>
        <_>
          <internalNodes>
            0 -1 88 1.0842276969924569e-03</internalNodes>
          <leafValues>
            -1.1615549027919769e-01 3.3051079511642456e-01</leafValues></_>
        <_>
          <internalNodes>
            0 -1 189 4.0064365603029728e-03</internalNodes>
          <leafValues>
            1.5080007910728455e-01 -2.6121073961257935e-01</leafValues></_>
        <_>
          <internalNodes>
            0 -1 211 7.2702090255916119e-04</internalNodes>
          <leafValues>
            -2.9509791731834412e-01 1.3952210545539856e-01</leafValues></_>
        <_>
          <internalNodes>
            0 -1 266 -1.8403939902782440e-03</internalNodes>
          <leafValues>
            4.1034641861915588e-01 -1.0156074911355972e-01</leafValues></_>
        <_>
          <internalNodes>
            0 -1 129 -7.3484769091010094e-03</internalNodes>
          <leafValues>
            -5.1288634538650513e-01 8.8302858173847198e-02</leafValues></_>
        <_>
          <internalNodes>
            0 -1 128 -3.5877749323844910e-03</internalNodes>
          <leafValues>
            -5.2208358049392700e-01 6.7062638700008392e-02</leafValues></_>
        <_>
          <internalNodes>
            0 -1 18 -6.5791839733719826e-03</internalNodes>
          <leafValues>
            3.3868104219436646e-01 -1.0797260701656342e-01</leafValues></_>
        <_>
          <internalNodes>
            0 -1 276 -3.5499860532581806e-03</internalNodes>
          <leafValues>
            3.2416388392448425e-01 -1.1048334836959839e-01</leafValues></_>
        <_>
          <internalNodes>
            0 -1 84 1.1023237369954586e-02</internalNodes>
          <leafValues>
            5.9606358408927917e-02 -6.3609230518341064e-01</leafValues></_>
        <_>
          <internalNodes>
            0 -1 76 1.8530099187046289e-03</internalNodes>
          <leafValues>
            -1.6256970167160034e-01 2.7380174398422241e-01</leafValues></_>
        <_>
          <internalNodes>
            0 -1 228 -2.8866927605122328e-03</internalNodes>
          <leafValues>
            4.0441173315048218e-01 -9.5815554261207581e-02</leafValues></_>
        <_>
          <internalNodes>
            0 -1 117 1.3766133785247803e-01</internalNodes>
          <leafValues>
            -1.0864772647619247e-01 3.5163491964340210e-01</leafValues></_>
        <_>
          <internalNodes>
            0 -1 182 -5.0786659121513367e-02</internalNodes>
          <leafValues>
            -6.5023146569728851e-02 5.9847414493560791e-01</leafValues></_>
        <_>
          <internalNodes>
            0 -1 143 -4.1153114289045334e-03</internalNodes>
          <leafValues>
            5.2576836198568344e-02 -8.4028661251068115e-01</leafValues></_>
        <_>
          <internalNodes>
            0 -1 50 -1.4251056127250195e-03</internalNodes>
          <leafValues>
            3.2573449611663818e-01 -1.1701361835002899e-01</leafValues></_>
        <_>
          <internalNodes>
            0 -1 101 9.0438988991081715e-04</internalNodes>
          <leafValues>
            1.0603611171245575e-01 -4.1036468744277954e-01</leafValues></_>
        <_>
          <internalNodes>
            0 -1 79 -8.8508669286966324e-03</internalNodes>
          <leafValues>
            -5.3762602806091309e-01 6.4788393676280975e-02</leafValues></_>
        <_>
          <internalNodes>
            0 -1 65 2.2714091464877129e-03</internalNodes>
          <leafValues>
            -1.3114826381206512e-01 2.8328731656074524e-01</leafValues></_>
        <_>
          <internalNodes>
            0 -1 11 -1.7661072779446840e-03</internalNodes>
          <leafValues>
            4.1369584202766418e-01 -8.1178970634937286e-02</leafValues></_>
        <_>
          <internalNodes>
            0 -1 161 2.9579892288893461e-03</internalNodes>
          <leafValues>
            8.2843989133834839e-02 -4.5528620481491089e-01</leafValues></_>
        <_>
          <internalNodes>
            0 -1 223 5.1065469160676003e-03</internalNodes>
          <leafValues>
            -9.8451383411884308e-02 4.2409637570381165e-01</leafValues></_>
        <_>
          <internalNodes>
            0 -1 28 2.8517376631498337e-03</internalNodes>
          <leafValues>
            -1.6264252364635468e-01 2.3473067581653595e-01</leafValues></_>
        <_>
          <internalNodes>
            0 -1 68 -2.5367990136146545e-02</internalNodes>
          <leafValues>
            -5.8229708671569824e-01 6.5057352185249329e-02</leafValues></_>
        <_>
          <internalNodes>
            0 -1 243 2.9798930045217276e-03</internalNodes>
          <leafValues>
            -1.0829374194145203e-01 3.4577953815460205e-01</leafValues></_>
        <_>
          <internalNodes>
            0 -1 153 -1.5018124133348465e-02</internalNodes>
          <leafValues>
            -6.3939100503921509e-01 6.6035941243171692e-02</leafValues></_>
        <_>
          <internalNodes>
            0 -1 222 2.3169512860476971e-03</internalNodes>
          <leafValues>
            -1.0682083666324615e-01 3.3790448307991028e-01</leafValues></_>
        <_>
          <internalNodes>
            0 -1 284 -5.4235220886766911e-04</internalNodes>
          <leafValues>
            -3.0815428495407104e-01 1.1843106150627136e-01</leafValues></_>
        <_>
          <internalNodes>
            0 -1 284 4.4559314846992493e-04</internalNodes>
          <leafValues>
            1.2543208897113800e-01 -2.9196143150329590e-01</leafValues></_>
        <_>
          <internalNodes>
            0 -1 12 5.0763068720698357e-03</internalNodes>
          <leafValues>
            -8.2034185528755188e-02 4.4282311201095581e-01</leafValues></_>
        <_>
          <internalNodes>
            0 -1 221 1.2758600059896708e-03</internalNodes>
          <leafValues>
            -9.5173709094524384e-02 3.3809483051300049e-01</leafValues></_></weakClassifiers></_>
    <!-- stage 7 -->
    <_>
      <maxWeakCount>47</maxWeakCount>
      <stageThreshold>-8.5915958881378174e-01</stageThreshold>
      <weakClassifiers>
        <_>
          <internalNodes>
            0 -1 146 2.3122043348848820e-03</internalNodes>
          <leafValues>
            4.4088177382946014e-02 5.0293773412704468e-01</leafValues></_>
        <_>
          <internalNodes>
            0 -1 147 -1.3363931328058243e-02</internalNodes>
          <leafValues>
            4.1797795891761780e-01 -9.3905493617057800e-02</leafValues></_>
        <_>
          <internalNodes>
            0 -1 138 2.0165578462183475e-03</internalNodes>
          <leafValues>
            4.8990104347467422e-02 -5.4697853326797485e-01</leafValues></_>
        <_>
          <internalNodes>
            0 -1 170 -7.3251122375950217e-04</internalNodes>
          <leafValues>
            -4.0408077836036682e-01 1.0055520385503769e-01</leafValues></_>
        <_>
          <internalNodes>
            0 -1 220 1.1481184046715498e-03</internalNodes>
          <leafValues>
            -2.6978737115859985e-01 1.6620759665966034e-01</leafValues></_>
        <_>
          <internalNodes>
            0 -1 67 2.2614637855440378e-03</internalNodes>
          <leafValues>
            -1.0028881579637527e-01 4.5878759026527405e-01</leafValues></_>
        <_>
          <internalNodes>
            0 -1 119 -4.9333246424794197e-03</internalNodes>
          <leafValues>
            5.6997686624526978e-01 -8.6910158395767212e-02</leafValues></_>
        <_>
          <internalNodes>
            0 -1 151 -5.0433110445737839e-03</internalNodes>
          <leafValues>
            5.8330756425857544e-01 -5.7956531643867493e-02</leafValues></_>
        <_>
          <internalNodes>
            0 -1 143 -4.5134690590202808e-03</internalNodes>
          <leafValues>
            5.2993360906839371e-02 -7.7736973762512207e-01</leafValues></_>
        <_>
          <internalNodes>
            0 -1 236 3.6246259696781635e-03</internalNodes>
          <leafValues>
            6.1945080757141113e-02 -6.1027008295059204e-01</leafValues></_>
        <_>
          <internalNodes>
            0 -1 64 -4.6263178810477257e-03</internalNodes>
          <leafValues>
            2.5805771350860596e-01 -1.5171524882316589e-01</leafValues></_>
        <_>
          <internalNodes>
            0 -1 29 7.2216214612126350e-03</internalNodes>
          <leafValues>
            -1.0673235356807709e-01 3.5601124167442322e-01</leafValues></_>
        <_>
          <internalNodes>
            0 -1 165 -5.8670225553214550e-03</internalNodes>
          <leafValues>
            -6.0984724760055542e-01 5.9053584933280945e-02</leafValues></_>
        <_>
          <internalNodes>
            0 -1 159 -2.7233848813921213e-03</internalNodes>
          <leafValues>
            3.5290831327438354e-01 -1.0981590300798416e-01</leafValues></_>
        <_>
          <internalNodes>
            0 -1 198 1.7970176413655281e-03</internalNodes>
          <leafValues>
            1.0501518100500107e-01 -3.8111212849617004e-01</leafValues></_>
        <_>
          <internalNodes>
            0 -1 3 -7.1058440953493118e-03</internalNodes>
          <leafValues>
            2.3466289043426514e-01 -1.5737228095531464e-01</leafValues></_>
        <_>
          <internalNodes>
            0 -1 126 3.4793515224009752e-03</internalNodes>
          <leafValues>
            -8.8420324027538300e-02 4.2603287100791931e-01</leafValues></_>
        <_>
          <internalNodes>
            0 -1 139 9.9058579653501511e-03</internalNodes>
          <leafValues>
            6.7303702235221863e-02 -4.9975359439849854e-01</leafValues></_>
        <_>
          <internalNodes>
            0 -1 111 1.2552487896755338e-04</internalNodes>
          <leafValues>
            -2.4935469031333923e-01 1.4002461731433868e-01</leafValues></_>
        <_>
          <internalNodes>
            0 -1 51 -3.0941846780478954e-03</internalNodes>
          <leafValues>
            3.9477038383483887e-01 -1.1069760471582413e-01</leafValues></_>
        <_>
          <internalNodes>
            0 -1 55 -5.8124229311943054e-02</internalNodes>
          <leafValues>
            3.5160109400749207e-01 -1.0022427141666412e-01</leafValues></_>
        <_>
          <internalNodes>
            0 -1 208 1.9273324869573116e-03</internalNodes>
          <leafValues>
            8.0326870083808899e-02 -4.6768933534622192e-01</leafValues></_>
        <_>
          <internalNodes>
            0 -1 14 7.2524040937423706e-02</internalNodes>
          <leafValues>
            -8.9567184448242188e-02 4.3790113925933838e-01</leafValues></_>
        <_>
          <internalNodes>
            0 -1 69 -5.2812062203884125e-03</internalNodes>
          <leafValues>
            -4.5557078719139099e-01 8.1306628882884979e-02</leafValues></_>
        <_>
          <internalNodes>
            0 -1 215 -6.7442841827869415e-04</internalNodes>
          <leafValues>
            -4.3238022923469543e-01 7.6192632317543030e-02</leafValues></_>
        <_>
          <internalNodes>
            0 -1 269 -1.5182823408395052e-03</internalNodes>
          <leafValues>
            3.3492809534072876e-01 -1.0854069888591766e-01</leafValues></_>
        <_>
          <internalNodes>
            0 -1 200 -3.7822290323674679e-03</internalNodes>
          <leafValues>
            4.3380504846572876e-01 -7.1867108345031738e-02</leafValues></_>
        <_>
          <internalNodes>
            0 -1 91 5.4866406135261059e-03</internalNodes>
          <leafValues>
            5.9605196118354797e-02 -5.9907662868499756e-01</leafValues></_>
        <_>
          <internalNodes>
            0 -1 273 -1.8432463984936476e-03</internalNodes>
          <leafValues>
            -3.6169803142547607e-01 8.5821233689785004e-02</leafValues></_>
        <_>
          <internalNodes>
            0 -1 36 -5.2883001044392586e-03</internalNodes>
          <leafValues>
            4.5909965038299561e-01 -8.0197349190711975e-02</leafValues></_>
        <_>
          <internalNodes>
            0 -1 149 -2.5175981223583221e-02</internalNodes>
          <leafValues>
            -5.3241097927093506e-01 6.3531428575515747e-02</leafValues></_>
        <_>
          <internalNodes>
            0 -1 227 -9.3935703625902534e-04</internalNodes>
          <leafValues>
            2.5640529394149780e-01 -1.3750986754894257e-01</leafValues></_>
        <_>
          <internalNodes>
            0 -1 278 -5.9949606657028198e-03</internalNodes>
          <leafValues>
            4.3565386533737183e-01 -7.8154273331165314e-02</leafValues></_>
        <_>
          <internalNodes>
            0 -1 17 -7.7229767339304090e-04</internalNodes>
          <leafValues>
            -2.8099876642227173e-01 1.1647782474756241e-01</leafValues></_>
        <_>
          <internalNodes>
            0 -1 16 -4.3775583617389202e-04</internalNodes>
          <leafValues>
            -2.4397945404052734e-01 1.3394245505332947e-01</leafValues></_>
        <_>
          <internalNodes>
            0 -1 242 -5.8596253395080566e-02</internalNodes>
          <leafValues>
            4.6143952012062073e-01 -7.5938522815704346e-02</leafValues></_>
        <_>
          <internalNodes>
            0 -1 47 7.6490966603159904e-03</internalNodes>
          <leafValues>
            -5.2030298858880997e-02 5.2339428663253784e-01</leafValues></_>
        <_>
          <internalNodes>
            0 -1 86 -1.5012838412076235e-03</internalNodes>
          <leafValues>
            2.2193332016468048e-01 -1.3259297609329224e-01</leafValues></_>
        <_>
          <internalNodes>
            0 -1 78 -1.1386532336473465e-02</internalNodes>
          <leafValues>
            -5.8257591724395752e-01 6.1505552381277084e-02</leafValues></_>
        <_>
          <internalNodes>
            0 -1 179 -1.5950598753988743e-03</internalNodes>
          <leafValues>
            -5.1392394304275513e-01 6.1348810791969299e-02</leafValues></_>
        <_>
          <internalNodes>
            0 -1 20 1.3743707910180092e-02</internalNodes>
          <leafValues>
            4.3908227235078812e-02 -6.1783981323242188e-01</leafValues></_>
        <_>
          <internalNodes>
            0 -1 25 6.3084401190280914e-03</internalNodes>
          <leafValues>
            -7.2939723730087280e-02 4.4148182868957520e-01</leafValues></_>
        <_>
          <internalNodes>
            0 -1 8 -2.3686517961323261e-03</internalNodes>
          <leafValues>
            1.9872185587882996e-01 -1.6856764256954193e-01</leafValues></_>
        <_>
          <internalNodes>
            0 -1 39 -5.9819961898028851e-03</internalNodes>
          <leafValues>
            2.4635659158229828e-01 -1.3375517725944519e-01</leafValues></_>
        <_>
          <internalNodes>
            0 -1 237 1.2376381084322929e-02</internalNodes>
          <leafValues>
            -1.2323039025068283e-01 2.8984680771827698e-01</leafValues></_>
        <_>
          <internalNodes>
            0 -1 226 1.3871849514544010e-03</internalNodes>
          <leafValues>
            -9.3474000692367554e-02 3.2302752137184143e-01</leafValues></_>
        <_>
          <internalNodes>
            0 -1 231 1.3946956023573875e-02</internalNodes>
          <leafValues>
            5.9761513024568558e-02 -6.0694330930709839e-01</leafValues></_></weakClassifiers></_>
    <!-- stage 8 -->
    <_>
      <maxWeakCount>37</maxWeakCount>
      <stageThreshold>-9.0820515155792236e-01</stageThreshold>
      <weakClassifiers>
        <_>
          <internalNodes>
            0 -1 213 8.8803796097636223e-04</internalNodes>
          <leafValues>
            -9.3023255467414856e-02 4.7912526130676270e-01</leafValues></_>
        <_>
          <internalNodes>
            0 -1 154 -2.4596103467047215e-03</internalNodes>
          <leafValues>
            5.3268766403198242e-01 -1.0086319595575333e-01</leafValues></_>
        <_>
          <internalNodes>
            0 -1 158 1.5634300652891397e-03</internalNodes>
          <leafValues>
            -1.8293105065822601e-01 4.5874303579330444e-01</leafValues></_>
        <_>
          <internalNodes>
            0 -1 164 -4.3472718971315771e-05</internalNodes>
          <leafValues>
            2.1025788784027100e-01 -2.9692500829696655e-01</leafValues></_>
        <_>
          <internalNodes>
            0 -1 192 2.2654347121715546e-03</internalNodes>
          <leafValues>
            -1.4237616956233978e-01 3.5977837443351746e-01</leafValues></_>
        <_>
          <internalNodes>
            0 -1 227 1.3432283885776997e-03</internalNodes>
          <leafValues>
            -1.4013291895389557e-01 4.0560501813888550e-01</leafValues></_>
        <_>
          <internalNodes>
            0 -1 225 -3.3996505662798882e-03</internalNodes>
          <leafValues>
            4.6818381547927856e-01 -1.3318537175655365e-01</leafValues></_>
        <_>
          <internalNodes>
            0 -1 110 -1.1733651626855135e-04</internalNodes>
          <leafValues>
            2.0419041812419891e-01 -2.4908687174320221e-01</leafValues></_>
        <_>
          <internalNodes>
            0 -1 203 -5.1882942207157612e-03</internalNodes>
          <leafValues>
            -6.5592098236083984e-01 6.8115033209323883e-02</leafValues></_>
        <_>
          <internalNodes>
            0 -1 172 -1.0541461408138275e-02</internalNodes>
          <leafValues>
            6.7191362380981445e-02 -6.1480075120925903e-01</leafValues></_>
        <_>
          <internalNodes>
            0 -1 186 -8.7767066434025764e-03</internalNodes>
          <leafValues>
            5.2385538816452026e-01 -9.1783694922924042e-02</leafValues></_>
        <_>
          <internalNodes>
            0 -1 258 3.2751441467553377e-03</internalNodes>
          <leafValues>
            -1.0341198742389679e-01 3.7466427683830261e-01</leafValues></_>
        <_>
          <internalNodes>
            0 -1 156 6.4239851199090481e-03</internalNodes>
          <leafValues>
            6.4354605972766876e-02 -8.0827867984771729e-01</leafValues></_>
        <_>
          <internalNodes>
            0 -1 280 -5.6585026904940605e-03</internalNodes>
          <leafValues>
            2.9832080006599426e-01 -1.3576388359069824e-01</leafValues></_>
        <_>
          <internalNodes>
            0 -1 239 -8.7941531091928482e-04</internalNodes>
          <leafValues>
            3.1857928633689880e-01 -1.2647475302219391e-01</leafValues></_>
        <_>
          <internalNodes>
            0 -1 99 -7.9097039997577667e-03</internalNodes>
          <leafValues>
            -5.0749415159225464e-01 8.0745093524456024e-02</leafValues></_>
        <_>
          <internalNodes>
            0 -1 163 -4.0922837797552347e-04</internalNodes>
          <leafValues>
            1.9908763468265533e-01 -2.1315880119800568e-01</leafValues></_>
        <_>
          <internalNodes>
            0 -1 173 2.4637533351778984e-03</internalNodes>
          <leafValues>
            8.6903318762779236e-02 -5.2851223945617676e-01</leafValues></_>
        <_>
          <internalNodes>
            0 -1 72 -1.1494469363242388e-03</internalNodes>
          <leafValues>
            2.7441972494125366e-01 -1.6689085960388184e-01</leafValues></_>
        <_>
          <internalNodes>
            0 -1 90 -3.4630526788532734e-03</internalNodes>
          <leafValues>
            3.6928781867027283e-01 -1.0431960970163345e-01</leafValues></_>
        <_>
          <internalNodes>
            0 -1 1 -3.4683956764638424e-03</internalNodes>
          <leafValues>
            2.6200139522552490e-01 -1.4111141860485077e-01</leafValues></_>
        <_>
          <internalNodes>
            0 -1 207 -2.9009383171796799e-02</internalNodes>
          <leafValues>
            2.9993614554405212e-01 -1.2246479839086533e-01</leafValues></_>
        <_>
          <internalNodes>
            0 -1 257 6.2490962445735931e-03</internalNodes>
          <leafValues>
            -1.2769213318824768e-01 3.7420260906219482e-01</leafValues></_>
        <_>
          <internalNodes>
            0 -1 261 3.6992747336626053e-03</internalNodes>
          <leafValues>
            -9.2675641179084778e-02 3.8866043090820312e-01</leafValues></_>
        <_>
          <internalNodes>
            0 -1 92 -1.7413172870874405e-02</internalNodes>
          <leafValues>
            -7.4446529150009155e-01 5.2779544144868851e-02</leafValues></_>
        <_>
          <internalNodes>
            0 -1 120 -2.5320604909211397e-03</internalNodes>
          <leafValues>
            3.3056509494781494e-01 -1.2512339651584625e-01</leafValues></_>
        <_>
          <internalNodes>
            0 -1 46 -6.5395571291446686e-03</internalNodes>
          <leafValues>
            -5.1330512762069702e-01 7.7501229941844940e-02</leafValues></_>
        <_>
          <internalNodes>
            0 -1 56 -5.6873518042266369e-04</internalNodes>
          <leafValues>
            2.1639166772365570e-01 -1.6900557279586792e-01</leafValues></_>
        <_>
          <internalNodes>
            0 -1 151 2.4824948050081730e-03</internalNodes>
          <leafValues>
            -1.0488744825124741e-01 3.4193927049636841e-01</leafValues></_>
        <_>
          <internalNodes>
            0 -1 155 3.1052054837346077e-03</internalNodes>
          <leafValues>
            7.5091429054737091e-02 -5.3897553682327271e-01</leafValues></_>
        <_>
          <internalNodes>
            0 -1 283 -3.2697197049856186e-02</internalNodes>
          <leafValues>
            -7.9505342245101929e-01 3.6530405282974243e-02</leafValues></_>
        <_>
          <internalNodes>
            0 -1 282 4.0323468856513500e-03</internalNodes>
          <leafValues>
            -9.8792925477027893e-02 3.7928622961044312e-01</leafValues></_>
        <_>
          <internalNodes>
            0 -1 102 3.0077407136559486e-03</internalNodes>
          <leafValues>
            5.8802928775548935e-02 -5.9251123666763306e-01</leafValues></_>
        <_>
          <internalNodes>
            0 -1 89 -1.8707849085330963e-03</internalNodes>
          <leafValues>
            2.8616723418235779e-01 -1.3589474558830261e-01</leafValues></_>
        <_>
          <internalNodes>
            0 -1 220 2.0522291015367955e-04</internalNodes>
          <leafValues>
            -2.6286736130714417e-01 1.2271529436111450e-01</leafValues></_>
        <_>
          <internalNodes>
            0 -1 61 2.1322173997759819e-03</internalNodes>
          <leafValues>
            -8.6016431450843811e-02 3.6043182015419006e-01</leafValues></_>
        <_>
          <internalNodes>
            0 -1 62 -2.0070080645382404e-03</internalNodes>
          <leafValues>
            2.9024422168731689e-01 -1.0975156724452972e-01</leafValues></_></weakClassifiers></_>
    <!-- stage 9 -->
    <_>
      <maxWeakCount>44</maxWeakCount>
      <stageThreshold>-8.7303715944290161e-01</stageThreshold>
      <weakClassifiers>
        <_>
          <internalNodes>
            0 -1 145 -2.9561086557805538e-04</internalNodes>
          <leafValues>
            -3.7151701748371124e-02 4.4985395669937134e-01</leafValues></_>
        <_>
          <internalNodes>
            0 -1 191 3.4022564068436623e-03</internalNodes>
          <leafValues>
            -8.5205972194671631e-02 5.0424259901046753e-01</leafValues></_>
        <_>
          <internalNodes>
            0 -1 191 -1.6986883711069822e-03</internalNodes>
          <leafValues>
            3.4328871965408325e-01 -1.4511576294898987e-01</leafValues></_>
        <_>
          <internalNodes>
            0 -1 126 3.3709767740219831e-03</internalNodes>
          <leafValues>
            -9.8592683672904968e-02 4.4949850440025330e-01</leafValues></_>
        <_>
          <internalNodes>
            0 -1 125 -1.2785636354237795e-03</internalNodes>
          <leafValues>
            4.1175445914268494e-01 -1.8785022199153900e-01</leafValues></_>
        <_>
          <internalNodes>
            0 -1 9 -1.3512873649597168e-01</internalNodes>
          <leafValues>
            4.4069850444793701e-01 -8.6547061800956726e-02</leafValues></_>
        <_>
          <internalNodes>
            0 -1 249 -2.7931104414165020e-03</internalNodes>
          <leafValues>
            5.2694982290267944e-01 -6.7806839942932129e-02</leafValues></_>
        <_>
          <internalNodes>
            0 -1 139 2.1106833592057228e-03</internalNodes>
          <leafValues>
            -2.3452444374561310e-01 1.5980356931686401e-01</leafValues></_>
        <_>
          <internalNodes>
            0 -1 4 -8.3573395013809204e-01</internalNodes>
          <leafValues>
            -7.3781293630599976e-01 5.5085081607103348e-02</leafValues></_>
        <_>
          <internalNodes>
            0 -1 103 -7.9930238425731659e-03</internalNodes>
          <leafValues>
            4.3792203068733215e-02 -8.7371265888214111e-01</leafValues></_>
        <_>
          <internalNodes>
            0 -1 268 1.3347142376005650e-03</internalNodes>
          <leafValues>
            -1.2998600304126740e-01 3.1536254286766052e-01</leafValues></_>
        <_>
          <internalNodes>
            0 -1 96 3.8380391197279096e-04</internalNodes>
          <leafValues>
            -1.6096173226833344e-01 2.4058578908443451e-01</leafValues></_>
        <_>
          <internalNodes>
            0 -1 70 1.2143597006797791e-02</internalNodes>
          <leafValues>
            5.3313296288251877e-02 -6.6688328981399536e-01</leafValues></_>
        <_>
          <internalNodes>
            0 -1 274 4.3200049549341202e-03</internalNodes>
          <leafValues>
            -1.0326997935771942e-01 3.7279203534126282e-01</leafValues></_>
        <_>
          <internalNodes>
            0 -1 229 -1.6899982001632452e-03</internalNodes>
          <leafValues>
            2.3347136378288269e-01 -1.6650636494159698e-01</leafValues></_>
        <_>
          <internalNodes>
            0 -1 40 -2.8052523732185364e-02</internalNodes>
          <leafValues>
            4.2431569099426270e-01 -9.4757683575153351e-02</leafValues></_>
        <_>
          <internalNodes>
            0 -1 122 -1.9874222576618195e-02</internalNodes>
          <leafValues>
            -7.8849107027053833e-01 5.9121083468198776e-02</leafValues></_>
        <_>
          <internalNodes>
            0 -1 125 9.3952578026801348e-04</internalNodes>
          <leafValues>
            -1.4000813663005829e-01 2.7200913429260254e-01</leafValues></_>
        <_>
          <internalNodes>
            0 -1 134 1.0853860527276993e-02</internalNodes>
          <leafValues>
            6.0647029429674149e-02 -6.4348804950714111e-01</leafValues></_>
        <_>
          <internalNodes>
            0 -1 180 1.5974882990121841e-03</internalNodes>
          <leafValues>
            -2.5042510032653809e-01 1.3130712509155273e-01</leafValues></_>
        <_>
          <internalNodes>
            0 -1 167 8.7131960317492485e-03</internalNodes>
          <leafValues>
            1.0323141515254974e-01 -3.4299156069755554e-01</leafValues></_>
        <_>
          <internalNodes>
            0 -1 252 1.0324997827410698e-02</internalNodes>
          <leafValues>
            -1.3840265572071075e-01 2.4894635379314423e-01</leafValues></_>
        <_>
          <internalNodes>
            0 -1 251 -1.3457161840051413e-03</internalNodes>
          <leafValues>
            3.4679931402206421e-01 -9.8535560071468353e-02</leafValues></_>
        <_>
          <internalNodes>
            0 -1 121 -3.1489415559917688e-03</internalNodes>
          <leafValues>
            -5.0929242372512817e-01 6.7897029221057892e-02</leafValues></_>
        <_>
          <internalNodes>
            0 -1 181 1.3444023206830025e-03</internalNodes>
          <leafValues>
            -1.0189644992351532e-01 3.5172933340072632e-01</leafValues></_>
        <_>
          <internalNodes>
            0 -1 59 -6.8900790065526962e-03</internalNodes>
          <leafValues>
            2.9758563637733459e-01 -1.2807163596153259e-01</leafValues></_>
        <_>
          <internalNodes>
            0 -1 158 4.6621677465736866e-03</internalNodes>
          <leafValues>
            -5.7419963181018829e-02 5.1674330234527588e-01</leafValues></_>
        <_>
          <internalNodes>
            0 -1 188 3.5476670600473881e-03</internalNodes>
          <leafValues>
            -9.0443238615989685e-02 3.6753690242767334e-01</leafValues></_>
        <_>
          <internalNodes>
            0 -1 244 1.2600384652614594e-02</internalNodes>
          <leafValues>
            5.8412350714206696e-02 -6.0732173919677734e-01</leafValues></_>
        <_>
          <internalNodes>
            0 -1 166 -4.1873287409543991e-03</internalNodes>
          <leafValues>
            -5.1762241125106812e-01 5.8434229344129562e-02</leafValues></_>
        <_>
          <internalNodes>
            0 -1 32 -2.9776187147945166e-03</internalNodes>
          <leafValues>
            3.6329370737075806e-01 -8.6246192455291748e-02</leafValues></_>
        <_>
          <internalNodes>
            0 -1 34 -8.2921178545802832e-04</internalNodes>
          <leafValues>
            2.7622881531715393e-01 -1.3047841191291809e-01</leafValues></_>
        <_>
          <internalNodes>
            0 -1 178 2.7007525786757469e-03</internalNodes>
          <leafValues>
            8.2597658038139343e-02 -4.4737306237220764e-01</leafValues></_>
        <_>
          <internalNodes>
            0 -1 187 -3.5105757415294647e-03</internalNodes>
          <leafValues>
            3.2269448041915894e-01 -1.0508981347084045e-01</leafValues></_>
        <_>
          <internalNodes>
            0 -1 281 3.9335051551461220e-03</internalNodes>
          <leafValues>
            -7.3100276291370392e-02 4.0864434838294983e-01</leafValues></_>
        <_>
          <internalNodes>
            0 -1 270 2.9774587601423264e-02</internalNodes>
          <leafValues>
            5.5363006889820099e-02 -6.4652764797210693e-01</leafValues></_>
        <_>
          <internalNodes>
            0 -1 7 -5.1365466788411140e-04</internalNodes>
          <leafValues>
            -2.9057955741882324e-01 1.0799656808376312e-01</leafValues></_>
        <_>
          <internalNodes>
            0 -1 184 -2.0069118589162827e-02</internalNodes>
          <leafValues>
            -7.6817041635513306e-01 3.7604134529829025e-02</leafValues></_>
        <_>
          <internalNodes>
            0 -1 224 -2.6276563294231892e-03</internalNodes>
          <leafValues>
            3.1791552901268005e-01 -1.0222459584474564e-01</leafValues></_>
        <_>
          <internalNodes>
            0 -1 194 -5.6425845250487328e-03</internalNodes>
          <leafValues>
            -4.5879316329956055e-01 6.6669106483459473e-02</leafValues></_>
        <_>
          <internalNodes>
            0 -1 238 7.8096752986311913e-04</internalNodes>
          <leafValues>
            -1.0912031680345535e-01 2.8958088159561157e-01</leafValues></_>
        <_>
          <internalNodes>
            0 -1 193 -1.0318504646420479e-03</internalNodes>
          <leafValues>
            1.6235734522342682e-01 -1.8865950405597687e-01</leafValues></_>
        <_>
          <internalNodes>
            0 -1 114 -6.4462120644748211e-04</internalNodes>
          <leafValues>
            2.2050963342189789e-01 -1.3838846981525421e-01</leafValues></_>
        <_>
          <internalNodes>
            0 -1 116 -1.7894187476485968e-03</internalNodes>
          <leafValues>
            2.3584248125553131e-01 -1.2938618659973145e-01</leafValues></_></weakClassifiers></_></stages>
  <features>
    <_>
      <rects>
        <_>
          0 0 2 1 -1.</_>
        <_>
          1 0 1 1 2.</_></rects>
      <tilted>0</tilted></_>
    <_>
      <rects>
        <_>
          0 0 12 2 -1.</_>
        <_>
          0 0 6 1 2.</_>
        <_>
          6 1 6 1 2.</_></rects>
      <tilted>0</tilted></_>
    <_>
      <rects>
        <_>
          0 1 10 16 -1.</_>
        <_>
          5 1 5 16 2.</_></rects>
      <tilted>0</tilted></_>
    <_>
      <rects>
        <_>
          0 5 12 2 -1.</_>
        <_>
          6 5 6 2 2.</_></rects>
      <tilted>0</tilted></_>
    <_>
      <rects>
        <_>
          0 12 12 8 -1.</_>
        <_>
          4 12 4 8 2.</_></rects>
      <tilted>0</tilted></_>
    <_>
      <rects>
        <_>
          0 12 12 1 -1.</_>
        <_>
          6 12 6 1 2.</_></rects>
      <tilted>0</tilted></_>
    <_>
      <rects>
        <_>
          0 12 18 3 -1.</_>
        <_>
          6 12 6 3 2.</_></rects>
      <tilted>0</tilted></_>
    <_>
      <rects>
        <_>
          1 0 2 1 -1.</_>
        <_>
          2 0 1 1 2.</_></rects>
      <tilted>0</tilted></_>
    <_>
      <rects>
        <_>
          1 1 10 4 -1.</_>
        <_>
          6 1 5 4 2.</_></rects>
      <tilted>0</tilted></_>
    <_>
      <rects>
        <_>
          1 2 16 10 -1.</_>
        <_>
          1 7 16 5 2.</_></rects>
      <tilted>0</tilted></_>
    <_>
      <rects>
        <_>
          1 7 4 2 -1.</_>
        <_>
          3 7 2 2 2.</_></rects>
      <tilted>0</tilted></_>
    <_>
      <rects>
        <_>
          1 10 2 1 -1.</_>
        <_>
          2 10 1 1 2.</_></rects>
      <tilted>0</tilted></_>
    <_>
      <rects>
        <_>
          1 10 2 3 -1.</_>
        <_>
          2 10 1 3 2.</_></rects>
      <tilted>0</tilted></_>
    <_>
      <rects>
        <_>
          1 11 8 4 -1.</_>
        <_>
          5 11 4 4 2.</_></rects>
      <tilted>0</tilted></_>
    <_>
      <rects>
        <_>
          1 11 13 6 -1.</_>
        <_>
          1 14 13 3 2.</_></rects>
      <tilted>0</tilted></_>
    <_>
      <rects>
        <_>
          1 15 3 4 -1.</_>
        <_>
          2 15 1 4 2.</_></rects>
      <tilted>0</tilted></_>
    <_>
      <rects>
        <_>
          1 17 1 2 -1.</_>
        <_>
          1 18 1 1 2.</_></rects>
      <tilted>0</tilted></_>
    <_>
      <rects>
        <_>
          1 17 2 2 -1.</_>
        <_>
          1 17 1 1 2.</_>
        <_>
          2 18 1 1 2.</_></rects>
      <tilted>0</tilted></_>
    <_>
      <rects>
        <_>
          2 5 2 10 -1.</_>
        <_>
          2 5 1 5 2.</_>
        <_>
          3 10 1 5 2.</_></rects>
      <tilted>0</tilted></_>
    <_>
      <rects>
        <_>
          2 6 2 6 -1.</_>
        <_>
          2 6 1 3 2.</_>
        <_>
          3 9 1 3 2.</_></rects>
      <tilted>0</tilted></_>
    <_>
      <rects>
        <_>
          2 7 12 2 -1.</_>
        <_>
          2 7 6 1 2.</_>
        <_>
          8 8 6 1 2.</_></rects>
      <tilted>0</tilted></_>
    <_>
      <rects>
        <_>
          2 8 2 2 -1.</_>
        <_>
          3 8 1 2 2.</_></rects>
      <tilted>0</tilted></_>
    <_>
      <rects>
        <_>
          2 9 2 2 -1.</_>
        <_>
          3 9 1 2 2.</_></rects>
      <tilted>0</tilted></_>
    <_>
      <rects>
        <_>
          2 11 16 1 -1.</_>
        <_>
          10 11 8 1 2.</_></rects>
      <tilted>0</tilted></_>
    <_>
      <rects>
        <_>
          2 12 10 3 -1.</_>
        <_>
          7 12 5 3 2.</_></rects>
      <tilted>0</tilted></_>
    <_>
      <rects>
        <_>
          3 2 2 4 -1.</_>
        <_>
          4 2 1 4 2.</_></rects>
      <tilted>0</tilted></_>
    <_>
      <rects>
        <_>
          3 6 15 13 -1.</_>
        <_>
          8 6 5 13 2.</_></rects>
      <tilted>0</tilted></_>
    <_>
      <rects>
        <_>
          3 11 4 3 -1.</_>
        <_>
          5 11 2 3 2.</_></rects>
      <tilted>0</tilted></_>
    <_>
      <rects>
        <_>
          3 18 10 2 -1.</_>
        <_>
          3 19 10 1 2.</_></rects>
      <tilted>0</tilted></_>
    <_>
      <rects>
        <_>
          4 0 11 2 -1.</_>
        <_>
          4 1 11 1 2.</_></rects>
      <tilted>0</tilted></_>
    <_>
      <rects>
        <_>
          4 0 11 12 -1.</_>
        <_>
          4 6 11 6 2.</_></rects>
      <tilted>0</tilted></_>
    <_>
      <rects>
        <_>
          4 7 4 12 -1.</_>
        <_>
          6 7 2 12 2.</_></rects>
      <tilted>0</tilted></_>
    <_>
      <rects>
        <_>
          4 8 2 2 -1.</_>
        <_>
          5 8 1 2 2.</_></rects>
      <tilted>0</tilted></_>
    <_>
      <rects>
        <_>
          4 9 2 3 -1.</_>
        <_>
          5 9 1 3 2.</_></rects>
      <tilted>0</tilted></_>
    <_>
      <rects>
        <_>
          4 10 2 2 -1.</_>
        <_>
          4 10 1 1 2.</_>
        <_>
          5 11 1 1 2.</_></rects>
      <tilted>0</tilted></_>
    <_>
      <rects>
        <_>
          4 10 2 4 -1.</_>
        <_>
          4 10 1 2 2.</_>
        <_>
          5 12 1 2 2.</_></rects>
      <tilted>0</tilted></_>
    <_>
      <rects>
        <_>
          4 11 2 4 -1.</_>
        <_>
          4 11 1 2 2.</_>
        <_>
          5 13 1 2 2.</_></rects>
      <tilted>0</tilted></_>
    <_>
      <rects>
        <_>
          4 11 10 8 -1.</_>
        <_>
          4 15 10 4 2.</_></rects>
      <tilted>0</tilted></_>
    <_>
      <rects>
        <_>
          4 12 6 1 -1.</_>
        <_>
          6 12 2 1 2.</_></rects>
      <tilted>0</tilted></_>
    <_>
      <rects>
        <_>
          4 12 5 4 -1.</_>
        <_>
          4 14 5 2 2.</_></rects>
      <tilted>0</tilted></_>
    <_>
      <rects>
        <_>
          4 12 11 4 -1.</_>
        <_>
          4 14 11 2 2.</_></rects>
      <tilted>0</tilted></_>
    <_>
      <rects>
        <_>
          4 13 6 4 -1.</_>
        <_>
          4 13 3 2 2.</_>
        <_>
          7 15 3 2 2.</_></rects>
      <tilted>0</tilted></_>
    <_>
      <rects>
        <_>
          5 0 10 2 -1.</_>
        <_>
          5 1 10 1 2.</_></rects>
      <tilted>0</tilted></_>
    <_>
      <rects>
        <_>
          5 1 10 2 -1.</_>
        <_>
          5 1 5 1 2.</_>
        <_>
          10 2 5 1 2.</_></rects>
      <tilted>0</tilted></_>
    <_>
      <rects>
        <_>
          5 6 2 6 -1.</_>
        <_>
          5 6 1 3 2.</_>
        <_>
          6 9 1 3 2.</_></rects>
      <tilted>0</tilted></_>
    <_>
      <rects>
        <_>
          5 7 2 4 -1.</_>
        <_>
          5 7 1 2 2.</_>
        <_>
          6 9 1 2 2.</_></rects>
      <tilted>0</tilted></_>
    <_>
      <rects>
        <_>
          5 7 8 2 -1.</_>
        <_>
          5 7 4 1 2.</_>
        <_>
          9 8 4 1 2.</_></rects>
      <tilted>0</tilted></_>
    <_>
      <rects>
        <_>
          5 8 2 4 -1.</_>
        <_>
          6 8 1 4 2.</_></rects>
      <tilted>0</tilted></_>
    <_>
      <rects>
        <_>
          5 9 2 6 -1.</_>
        <_>
          5 9 1 3 2.</_>
        <_>
          6 12 1 3 2.</_></rects>
      <tilted>0</tilted></_>
    <_>
      <rects>
        <_>
          5 10 4 2 -1.</_>
        <_>
          7 10 2 2 2.</_></rects>
      <tilted>0</tilted></_>
    <_>
      <rects>
        <_>
          5 11 2 2 -1.</_>
        <_>
          5 11 1 1 2.</_>
        <_>
          6 12 1 1 2.</_></rects>
      <tilted>0</tilted></_>
    <_>
      <rects>
        <_>
          5 11 2 4 -1.</_>
        <_>
          5 11 1 2 2.</_>
        <_>
          6 13 1 2 2.</_></rects>
      <tilted>0</tilted></_>
    <_>
      <rects>
        <_>
          5 11 4 2 -1.</_>
        <_>
          7 11 2 2 2.</_></rects>
      <tilted>0</tilted></_>
    <_>
      <rects>
        <_>
          5 11 8 1 -1.</_>
        <_>
          9 11 4 1 2.</_></rects>
      <tilted>0</tilted></_>
    <_>
      <rects>
        <_>
          5 12 4 1 -1.</_>
        <_>
          7 12 2 1 2.</_></rects>
      <tilted>0</tilted></_>
    <_>
      <rects>
        <_>
          5 12 10 6 -1.</_>
        <_>
          5 15 10 3 2.</_></rects>
      <tilted>0</tilted></_>
    <_>
      <rects>
        <_>
          5 13 2 2 -1.</_>
        <_>
          5 13 1 1 2.</_>
        <_>
          6 14 1 1 2.</_></rects>
      <tilted>0</tilted></_>
    <_>
      <rects>
        <_>
          5 13 2 2 -1.</_>
        <_>
          6 13 1 2 2.</_></rects>
      <tilted>0</tilted></_>
    <_>
      <rects>
        <_>
          5 13 4 4 -1.</_>
        <_>
          5 13 2 2 2.</_>
        <_>
          7 15 2 2 2.</_></rects>
      <tilted>0</tilted></_>
    <_>
      <rects>
        <_>
          5 13 6 4 -1.</_>
        <_>
          5 13 3 2 2.</_>
        <_>
          8 15 3 2 2.</_></rects>
      <tilted>0</tilted></_>
    <_>
      <rects>
        <_>
          5 13 10 4 -1.</_>
        <_>
          5 15 10 2 2.</_></rects>
      <tilted>0</tilted></_>
    <_>
      <rects>
        <_>
          5 14 2 1 -1.</_>
        <_>
          6 14 1 1 2.</_></rects>
      <tilted>0</tilted></_>
    <_>
      <rects>
        <_>
          5 14 2 2 -1.</_>
        <_>
          6 14 1 2 2.</_></rects>
      <tilted>0</tilted></_>
    <_>
      <rects>
        <_>
          6 0 2 14 -1.</_>
        <_>
          6 7 2 7 2.</_></rects>
      <tilted>0</tilted></_>
    <_>
      <rects>
        <_>
          6 0 8 2 -1.</_>
        <_>
          6 1 8 1 2.</_></rects>
      <tilted>0</tilted></_>
    <_>
      <rects>
        <_>
          6 4 2 4 -1.</_>
        <_>
          6 4 1 2 2.</_>
        <_>
          7 6 1 2 2.</_></rects>
      <tilted>0</tilted></_>
    <_>
      <rects>
        <_>
          6 6 2 6 -1.</_>
        <_>
          6 6 1 3 2.</_>
        <_>
          7 9 1 3 2.</_></rects>
      <tilted>0</tilted></_>
    <_>
      <rects>
        <_>
          6 7 2 1 -1.</_>
        <_>
          7 7 1 1 2.</_></rects>
      <tilted>0</tilted></_>
    <_>
      <rects>
        <_>
          6 7 12 4 -1.</_>
        <_>
          6 7 6 2 2.</_>
        <_>
          12 9 6 2 2.</_></rects>
      <tilted>0</tilted></_>
    <_>
      <rects>
        <_>
          6 8 4 2 -1.</_>
        <_>
          8 8 2 2 2.</_></rects>
      <tilted>0</tilted></_>
    <_>
      <rects>
        <_>
          6 8 4 3 -1.</_>
        <_>
          8 8 2 3 2.</_></rects>
      <tilted>0</tilted></_>
    <_>
      <rects>
        <_>
          6 8 8 2 -1.</_>
        <_>
          6 8 4 1 2.</_>
        <_>
          10 9 4 1 2.</_></rects>
      <tilted>0</tilted></_>
    <_>
      <rects>
        <_>
          6 9 2 2 -1.</_>
        <_>
          7 9 1 2 2.</_></rects>
      <tilted>0</tilted></_>
    <_>
      <rects>
        <_>
          6 9 4 3 -1.</_>
        <_>
          8 9 2 3 2.</_></rects>
      <tilted>0</tilted></_>
    <_>
      <rects>
        <_>
          6 9 4 4 -1.</_>
        <_>
          8 9 2 4 2.</_></rects>
      <tilted>0</tilted></_>
    <_>
      <rects>
        <_>
          6 10 8 8 -1.</_>
        <_>
          6 14 8 4 2.</_></rects>
      <tilted>0</tilted></_>
    <_>
      <rects>
        <_>
          6 11 2 4 -1.</_>
        <_>
          6 11 1 2 2.</_>
        <_>
          7 13 1 2 2.</_></rects>
      <tilted>0</tilted></_>
    <_>
      <rects>
        <_>
          6 11 4 1 -1.</_>
        <_>
          8 11 2 1 2.</_></rects>
      <tilted>0</tilted></_>
    <_>
      <rects>
        <_>
          6 11 4 3 -1.</_>
        <_>
          8 11 2 3 2.</_></rects>
      <tilted>0</tilted></_>
    <_>
      <rects>
        <_>
          6 11 6 2 -1.</_>
        <_>
          9 11 3 2 2.</_></rects>
      <tilted>0</tilted></_>
    <_>
      <rects>
        <_>
          6 11 6 3 -1.</_>
        <_>
          9 11 3 3 2.</_></rects>
      <tilted>0</tilted></_>
    <_>
      <rects>
        <_>
          6 11 8 1 -1.</_>
        <_>
          10 11 4 1 2.</_></rects>
      <tilted>0</tilted></_>
    <_>
      <rects>
        <_>
          6 12 4 2 -1.</_>
        <_>
          8 12 2 2 2.</_></rects>
      <tilted>0</tilted></_>
    <_>
      <rects>
        <_>
          6 12 8 2 -1.</_>
        <_>
          10 12 4 2 2.</_></rects>
      <tilted>0</tilted></_>
    <_>
      <rects>
        <_>
          6 12 6 2 -1.</_>
        <_>
          6 13 6 1 2.</_></rects>
      <tilted>0</tilted></_>
    <_>
      <rects>
        <_>
          6 12 7 2 -1.</_>
        <_>
          6 13 7 1 2.</_></rects>
      <tilted>0</tilted></_>
    <_>
      <rects>
        <_>
          6 13 4 1 -1.</_>
        <_>
          8 13 2 1 2.</_></rects>
      <tilted>0</tilted></_>
    <_>
      <rects>
        <_>
          6 14 3 1 -1.</_>
        <_>
          7 14 1 1 2.</_></rects>
      <tilted>0</tilted></_>
    <_>
      <rects>
        <_>
          6 14 2 2 -1.</_>
        <_>
          6 14 1 1 2.</_>
        <_>
          7 15 1 1 2.</_></rects>
      <tilted>0</tilted></_>
    <_>
      <rects>
        <_>
          7 5 2 3 -1.</_>
        <_>
          8 5 1 3 2.</_></rects>
      <tilted>0</tilted></_>
    <_>
      <rects>
        <_>
          7 5 2 6 -1.</_>
        <_>
          7 5 1 3 2.</_>
        <_>
          8 8 1 3 2.</_></rects>
      <tilted>0</tilted></_>
    <_>
      <rects>
        <_>
          7 6 4 2 -1.</_>
        <_>
          7 6 2 1 2.</_>
        <_>
          9 7 2 1 2.</_></rects>
      <tilted>0</tilted></_>
    <_>
      <rects>
        <_>
          7 6 4 6 -1.</_>
        <_>
          7 6 2 3 2.</_>
        <_>
          9 9 2 3 2.</_></rects>
      <tilted>0</tilted></_>
    <_>
      <rects>
        <_>
          7 7 1 4 -1.</_>
        <_>
          7 9 1 2 2.</_></rects>
      <tilted>0</tilted></_>
    <_>
      <rects>
        <_>
          7 7 3 2 -1.</_>
        <_>
          7 8 3 1 2.</_></rects>
      <tilted>0</tilted></_>
    <_>
      <rects>
        <_>
          7 8 4 1 -1.</_>
        <_>
          9 8 2 1 2.</_></rects>
      <tilted>0</tilted></_>
    <_>
      <rects>
        <_>
          7 9 2 1 -1.</_>
        <_>
          8 9 1 1 2.</_></rects>
      <tilted>0</tilted></_>
    <_>
      <rects>
        <_>
          7 9 4 4 -1.</_>
        <_>
          9 9 2 4 2.</_></rects>
      <tilted>0</tilted></_>
    <_>
      <rects>
        <_>
          7 10 2 4 -1.</_>
        <_>
          7 12 2 2 2.</_></rects>
      <tilted>0</tilted></_>
    <_>
      <rects>
        <_>
          7 10 4 4 -1.</_>
        <_>
          9 10 2 4 2.</_></rects>
      <tilted>0</tilted></_>
    <_>
      <rects>
        <_>
          7 11 3 1 -1.</_>
        <_>
          8 11 1 1 2.</_></rects>
      <tilted>0</tilted></_>
    <_>
      <rects>
        <_>
          7 11 2 2 -1.</_>
        <_>
          8 11 1 2 2.</_></rects>
      <tilted>0</tilted></_>
    <_>
      <rects>
        <_>
          7 11 4 1 -1.</_>
        <_>
          9 11 2 1 2.</_></rects>
      <tilted>0</tilted></_>
    <_>
      <rects>
        <_>
          7 11 6 1 -1.</_>
        <_>
          9 11 2 1 2.</_></rects>
      <tilted>0</tilted></_>
    <_>
      <rects>
        <_>
          7 11 4 2 -1.</_>
        <_>
          9 11 2 2 2.</_></rects>
      <tilted>0</tilted></_>
    <_>
      <rects>
        <_>
          7 11 2 4 -1.</_>
        <_>
          7 13 2 2 2.</_></rects>
      <tilted>0</tilted></_>
    <_>
      <rects>
        <_>
          7 11 6 2 -1.</_>
        <_>
          10 11 3 2 2.</_></rects>
      <tilted>0</tilted></_>
    <_>
      <rects>
        <_>
          7 11 3 4 -1.</_>
        <_>
          7 13 3 2 2.</_></rects>
      <tilted>0</tilted></_>
    <_>
      <rects>
        <_>
          7 11 4 4 -1.</_>
        <_>
          7 13 4 2 2.</_></rects>
      <tilted>0</tilted></_>
    <_>
      <rects>
        <_>
          7 11 8 8 -1.</_>
        <_>
          7 15 8 4 2.</_></rects>
      <tilted>0</tilted></_>
    <_>
      <rects>
        <_>
          7 12 2 2 -1.</_>
        <_>
          8 12 1 2 2.</_></rects>
      <tilted>0</tilted></_>
    <_>
      <rects>
        <_>
          7 12 2 2 -1.</_>
        <_>
          7 13 2 1 2.</_></rects>
      <tilted>0</tilted></_>
    <_>
      <rects>
        <_>
          7 12 4 2 -1.</_>
        <_>
          9 12 2 2 2.</_></rects>
      <tilted>0</tilted></_>
    <_>
      <rects>
        <_>
          7 12 6 2 -1.</_>
        <_>
          10 12 3 2 2.</_></rects>
      <tilted>0</tilted></_>
    <_>
      <rects>
        <_>
          7 14 1 2 -1.</_>
        <_>
          7 15 1 1 2.</_></rects>
      <tilted>0</tilted></_>
    <_>
      <rects>
        <_>
          7 14 7 4 -1.</_>
        <_>
          7 16 7 2 2.</_></rects>
      <tilted>0</tilted></_>
    <_>
      <rects>
        <_>
          7 15 1 4 -1.</_>
        <_>
          7 17 1 2 2.</_></rects>
      <tilted>0</tilted></_>
    <_>
      <rects>
        <_>
          8 1 12 15 -1.</_>
        <_>
          14 1 6 15 2.</_></rects>
      <tilted>0</tilted></_>
    <_>
      <rects>
        <_>
          8 5 2 4 -1.</_>
        <_>
          8 7 2 2 2.</_></rects>
      <tilted>0</tilted></_>
    <_>
      <rects>
        <_>
          8 6 2 2 -1.</_>
        <_>
          9 6 1 2 2.</_></rects>
      <tilted>0</tilted></_>
    <_>
      <rects>
        <_>
          8 6 2 4 -1.</_>
        <_>
          8 6 1 2 2.</_>
        <_>
          9 8 1 2 2.</_></rects>
      <tilted>0</tilted></_>
    <_>
      <rects>
        <_>
          8 6 2 2 -1.</_>
        <_>
          8 7 2 1 2.</_></rects>
      <tilted>0</tilted></_>
    <_>
      <rects>
        <_>
          8 6 4 8 -1.</_>
        <_>
          8 6 2 4 2.</_>
        <_>
          10 10 2 4 2.</_></rects>
      <tilted>0</tilted></_>
    <_>
      <rects>
        <_>
          8 6 3 12 -1.</_>
        <_>
          8 12 3 6 2.</_></rects>
      <tilted>0</tilted></_>
    <_>
      <rects>
        <_>
          8 6 4 2 -1.</_>
        <_>
          8 7 4 1 2.</_></rects>
      <tilted>0</tilted></_>
    <_>
      <rects>
        <_>
          8 7 2 1 -1.</_>
        <_>
          9 7 1 1 2.</_></rects>
      <tilted>0</tilted></_>
    <_>
      <rects>
        <_>
          8 7 2 2 -1.</_>
        <_>
          9 7 1 2 2.</_></rects>
      <tilted>0</tilted></_>
    <_>
      <rects>
        <_>
          8 7 2 4 -1.</_>
        <_>
          8 7 1 2 2.</_>
        <_>
          9 9 1 2 2.</_></rects>
      <tilted>0</tilted></_>
    <_>
      <rects>
        <_>
          8 7 4 1 -1.</_>
        <_>
          10 7 2 1 2.</_></rects>
      <tilted>0</tilted></_>
    <_>
      <rects>
        <_>
          8 7 4 4 -1.</_>
        <_>
          8 7 2 2 2.</_>
        <_>
          10 9 2 2 2.</_></rects>
      <tilted>0</tilted></_>
    <_>
      <rects>
        <_>
          8 8 4 6 -1.</_>
        <_>
          10 8 2 6 2.</_></rects>
      <tilted>0</tilted></_>
    <_>
      <rects>
        <_>
          8 8 5 4 -1.</_>
        <_>
          8 10 5 2 2.</_></rects>
      <tilted>0</tilted></_>
    <_>
      <rects>
        <_>
          8 10 2 3 -1.</_>
        <_>
          8 11 2 1 2.</_></rects>
      <tilted>0</tilted></_>
    <_>
      <rects>
        <_>
          8 10 4 2 -1.</_>
        <_>
          10 10 2 2 2.</_></rects>
      <tilted>0</tilted></_>
    <_>
      <rects>
        <_>
          8 10 4 5 -1.</_>
        <_>
          10 10 2 5 2.</_></rects>
      <tilted>0</tilted></_>
    <_>
      <rects>
        <_>
          8 11 3 1 -1.</_>
        <_>
          9 11 1 1 2.</_></rects>
      <tilted>0</tilted></_>
    <_>
      <rects>
        <_>
          8 11 2 2 -1.</_>
        <_>
          9 11 1 2 2.</_></rects>
      <tilted>0</tilted></_>
    <_>
      <rects>
        <_>
          8 11 3 2 -1.</_>
        <_>
          9 11 1 2 2.</_></rects>
      <tilted>0</tilted></_>
    <_>
      <rects>
        <_>
          8 11 4 1 -1.</_>
        <_>
          10 11 2 1 2.</_></rects>
      <tilted>0</tilted></_>
    <_>
      <rects>
        <_>
          8 11 2 4 -1.</_>
        <_>
          8 13 2 2 2.</_></rects>
      <tilted>0</tilted></_>
    <_>
      <rects>
        <_>
          8 11 6 2 -1.</_>
        <_>
          11 11 3 2 2.</_></rects>
      <tilted>0</tilted></_>
    <_>
      <rects>
        <_>
          8 11 3 4 -1.</_>
        <_>
          8 13 3 2 2.</_></rects>
      <tilted>0</tilted></_>
    <_>
      <rects>
        <_>
          8 12 2 1 -1.</_>
        <_>
          9 12 1 1 2.</_></rects>
      <tilted>0</tilted></_>
    <_>
      <rects>
        <_>
          8 12 3 1 -1.</_>
        <_>
          9 12 1 1 2.</_></rects>
      <tilted>0</tilted></_>
    <_>
      <rects>
        <_>
          8 12 2 4 -1.</_>
        <_>
          8 14 2 2 2.</_></rects>
      <tilted>0</tilted></_>
    <_>
      <rects>
        <_>
          8 12 6 2 -1.</_>
        <_>
          11 12 3 2 2.</_></rects>
      <tilted>0</tilted></_>
    <_>
      <rects>
        <_>
          8 12 3 4 -1.</_>
        <_>
          8 14 3 2 2.</_></rects>
      <tilted>0</tilted></_>
    <_>
      <rects>
        <_>
          8 13 12 1 -1.</_>
        <_>
          14 13 6 1 2.</_></rects>
      <tilted>0</tilted></_>
    <_>
      <rects>
        <_>
          8 18 5 2 -1.</_>
        <_>
          8 19 5 1 2.</_></rects>
      <tilted>0</tilted></_>
    <_>
      <rects>
        <_>
          9 0 4 10 -1.</_>
        <_>
          9 0 2 5 2.</_>
        <_>
          11 5 2 5 2.</_></rects>
      <tilted>0</tilted></_>
    <_>
      <rects>
        <_>
          9 5 2 4 -1.</_>
        <_>
          9 5 1 2 2.</_>
        <_>
          10 7 1 2 2.</_></rects>
      <tilted>0</tilted></_>
    <_>
      <rects>
        <_>
          9 6 2 2 -1.</_>
        <_>
          10 6 1 2 2.</_></rects>
      <tilted>0</tilted></_>
    <_>
      <rects>
        <_>
          9 6 2 4 -1.</_>
        <_>
          9 6 1 2 2.</_>
        <_>
          10 8 1 2 2.</_></rects>
      <tilted>0</tilted></_>
    <_>
      <rects>
        <_>
          9 6 3 4 -1.</_>
        <_>
          9 8 3 2 2.</_></rects>
      <tilted>0</tilted></_>
    <_>
      <rects>
        <_>
          9 7 2 2 -1.</_>
        <_>
          10 7 1 2 2.</_></rects>
      <tilted>0</tilted></_>
    <_>
      <rects>
        <_>
          9 7 2 2 -1.</_>
        <_>
          9 8 2 1 2.</_></rects>
      <tilted>0</tilted></_>
    <_>
      <rects>
        <_>
          9 7 4 2 -1.</_>
        <_>
          9 7 2 1 2.</_>
        <_>
          11 8 2 1 2.</_></rects>
      <tilted>0</tilted></_>
    <_>
      <rects>
        <_>
          9 8 2 1 -1.</_>
        <_>
          10 8 1 1 2.</_></rects>
      <tilted>0</tilted></_>
    <_>
      <rects>
        <_>
          9 8 2 2 -1.</_>
        <_>
          10 8 1 2 2.</_></rects>
      <tilted>0</tilted></_>
    <_>
      <rects>
        <_>
          9 8 2 4 -1.</_>
        <_>
          9 8 1 2 2.</_>
        <_>
          10 10 1 2 2.</_></rects>
      <tilted>0</tilted></_>
    <_>
      <rects>
        <_>
          9 8 4 1 -1.</_>
        <_>
          11 8 2 1 2.</_></rects>
      <tilted>0</tilted></_>
    <_>
      <rects>
        <_>
          9 8 4 2 -1.</_>
        <_>
          9 8 2 1 2.</_>
        <_>
          11 9 2 1 2.</_></rects>
      <tilted>0</tilted></_>
    <_>
      <rects>
        <_>
          9 8 4 5 -1.</_>
        <_>
          11 8 2 5 2.</_></rects>
      <tilted>0</tilted></_>
    <_>
      <rects>
        <_>
          9 9 1 2 -1.</_>
        <_>
          9 10 1 1 2.</_></rects>
      <tilted>0</tilted></_>
    <_>
      <rects>
        <_>
          9 10 1 2 -1.</_>
        <_>
          9 11 1 1 2.</_></rects>
      <tilted>0</tilted></_>
    <_>
      <rects>
        <_>
          9 10 4 2 -1.</_>
        <_>
          11 10 2 2 2.</_></rects>
      <tilted>0</tilted></_>
    <_>
      <rects>
        <_>
          9 10 4 3 -1.</_>
        <_>
          11 10 2 3 2.</_></rects>
      <tilted>0</tilted></_>
    <_>
      <rects>
        <_>
          9 10 2 6 -1.</_>
        <_>
          9 13 2 3 2.</_></rects>
      <tilted>0</tilted></_>
    <_>
      <rects>
        <_>
          9 10 4 4 -1.</_>
        <_>
          11 10 2 4 2.</_></rects>
      <tilted>0</tilted></_>
    <_>
      <rects>
        <_>
          9 10 8 6 -1.</_>
        <_>
          13 10 4 6 2.</_></rects>
      <tilted>0</tilted></_>
    <_>
      <rects>
        <_>
          9 11 2 1 -1.</_>
        <_>
          10 11 1 1 2.</_></rects>
      <tilted>0</tilted></_>
    <_>
      <rects>
        <_>
          9 11 2 2 -1.</_>
        <_>
          10 11 1 2 2.</_></rects>
      <tilted>0</tilted></_>
    <_>
      <rects>
        <_>
          9 11 3 2 -1.</_>
        <_>
          10 11 1 2 2.</_></rects>
      <tilted>0</tilted></_>
    <_>
      <rects>
        <_>
          9 11 2 3 -1.</_>
        <_>
          10 11 1 3 2.</_></rects>
      <tilted>0</tilted></_>
    <_>
      <rects>
        <_>
          9 11 2 2 -1.</_>
        <_>
          9 12 2 1 2.</_></rects>
      <tilted>0</tilted></_>
    <_>
      <rects>
        <_>
          9 11 4 2 -1.</_>
        <_>
          11 11 2 2 2.</_></rects>
      <tilted>0</tilted></_>
    <_>
      <rects>
        <_>
          9 12 3 1 -1.</_>
        <_>
          10 12 1 1 2.</_></rects>
      <tilted>0</tilted></_>
    <_>
      <rects>
        <_>
          9 12 3 2 -1.</_>
        <_>
          10 12 1 2 2.</_></rects>
      <tilted>0</tilted></_>
    <_>
      <rects>
        <_>
          9 12 4 1 -1.</_>
        <_>
          11 12 2 1 2.</_></rects>
      <tilted>0</tilted></_>
    <_>
      <rects>
        <_>
          9 12 3 2 -1.</_>
        <_>
          9 13 3 1 2.</_></rects>
      <tilted>0</tilted></_>
    <_>
      <rects>
        <_>
          9 12 3 4 -1.</_>
        <_>
          9 14 3 2 2.</_></rects>
      <tilted>0</tilted></_>
    <_>
      <rects>
        <_>
          9 14 1 2 -1.</_>
        <_>
          9 15 1 1 2.</_></rects>
      <tilted>0</tilted></_>
    <_>
      <rects>
        <_>
          9 16 9 4 -1.</_>
        <_>
          12 16 3 4 2.</_></rects>
      <tilted>0</tilted></_>
    <_>
      <rects>
        <_>
          10 0 6 4 -1.</_>
        <_>
          10 2 6 2 2.</_></rects>
      <tilted>0</tilted></_>
    <_>
      <rects>
        <_>
          10 1 4 3 -1.</_>
        <_>
          12 1 2 3 2.</_></rects>
      <tilted>0</tilted></_>
    <_>
      <rects>
        <_>
          10 1 3 2 -1.</_>
        <_>
          10 2 3 1 2.</_></rects>
      <tilted>0</tilted></_>
    <_>
      <rects>
        <_>
          10 1 4 2 -1.</_>
        <_>
          10 2 4 1 2.</_></rects>
      <tilted>0</tilted></_>
    <_>
      <rects>
        <_>
          10 2 3 2 -1.</_>
        <_>
          10 3 3 1 2.</_></rects>
      <tilted>0</tilted></_>
    <_>
      <rects>
        <_>
          10 5 2 4 -1.</_>
        <_>
          10 5 1 2 2.</_>
        <_>
          11 7 1 2 2.</_></rects>
      <tilted>0</tilted></_>
    <_>
      <rects>
        <_>
          10 5 1 14 -1.</_>
        <_>
          10 12 1 7 2.</_></rects>
      <tilted>0</tilted></_>
    <_>
      <rects>
        <_>
          10 6 2 1 -1.</_>
        <_>
          11 6 1 1 2.</_></rects>
      <tilted>0</tilted></_>
    <_>
      <rects>
        <_>
          10 6 2 2 -1.</_>
        <_>
          11 6 1 2 2.</_></rects>
      <tilted>0</tilted></_>
    <_>
      <rects>
        <_>
          10 6 2 4 -1.</_>
        <_>
          10 6 1 2 2.</_>
        <_>
          11 8 1 2 2.</_></rects>
      <tilted>0</tilted></_>
    <_>
      <rects>
        <_>
          10 6 1 6 -1.</_>
        <_>
          10 9 1 3 2.</_></rects>
      <tilted>0</tilted></_>
    <_>
      <rects>
        <_>
          10 6 4 1 -1.</_>
        <_>
          12 6 2 1 2.</_></rects>
      <tilted>0</tilted></_>
    <_>
      <rects>
        <_>
          10 6 3 6 -1.</_>
        <_>
          10 8 3 2 2.</_></rects>
      <tilted>0</tilted></_>
    <_>
      <rects>
        <_>
          10 7 2 2 -1.</_>
        <_>
          11 7 1 2 2.</_></rects>
      <tilted>0</tilted></_>
    <_>
      <rects>
        <_>
          10 7 2 4 -1.</_>
        <_>
          10 7 1 2 2.</_>
        <_>
          11 9 1 2 2.</_></rects>
      <tilted>0</tilted></_>
    <_>
      <rects>
        <_>
          10 7 2 2 -1.</_>
        <_>
          10 8 2 1 2.</_></rects>
      <tilted>0</tilted></_>
    <_>
      <rects>
        <_>
          10 7 2 10 -1.</_>
        <_>
          10 12 2 5 2.</_></rects>
      <tilted>0</tilted></_>
    <_>
      <rects>
        <_>
          10 8 2 2 -1.</_>
        <_>
          11 8 1 2 2.</_></rects>
      <tilted>0</tilted></_>
    <_>
      <rects>
        <_>
          10 8 1 4 -1.</_>
        <_>
          10 10 1 2 2.</_></rects>
      <tilted>0</tilted></_>
    <_>
      <rects>
        <_>
          10 8 2 3 -1.</_>
        <_>
          11 8 1 3 2.</_></rects>
      <tilted>0</tilted></_>
    <_>
      <rects>
        <_>
          10 9 4 1 -1.</_>
        <_>
          12 9 2 1 2.</_></rects>
      <tilted>0</tilted></_>
    <_>
      <rects>
        <_>
          10 9 2 6 -1.</_>
        <_>
          10 12 2 3 2.</_></rects>
      <tilted>0</tilted></_>
    <_>
      <rects>
        <_>
          10 10 4 3 -1.</_>
        <_>
          12 10 2 3 2.</_></rects>
      <tilted>0</tilted></_>
    <_>
      <rects>
        <_>
          10 10 10 5 -1.</_>
        <_>
          15 10 5 5 2.</_></rects>
      <tilted>0</tilted></_>
    <_>
      <rects>
        <_>
          10 10 6 8 -1.</_>
        <_>
          10 14 6 4 2.</_></rects>
      <tilted>0</tilted></_>
    <_>
      <rects>
        <_>
          10 11 2 2 -1.</_>
        <_>
          11 11 1 2 2.</_></rects>
      <tilted>0</tilted></_>
    <_>
      <rects>
        <_>
          10 11 2 3 -1.</_>
        <_>
          11 11 1 3 2.</_></rects>
      <tilted>0</tilted></_>
    <_>
      <rects>
        <_>
          10 11 4 2 -1.</_>
        <_>
          12 11 2 2 2.</_></rects>
      <tilted>0</tilted></_>
    <_>
      <rects>
        <_>
          10 11 2 4 -1.</_>
        <_>
          10 13 2 2 2.</_></rects>
      <tilted>0</tilted></_>
    <_>
      <rects>
        <_>
          10 11 3 2 -1.</_>
        <_>
          10 12 3 1 2.</_></rects>
      <tilted>0</tilted></_>
    <_>
      <rects>
        <_>
          10 11 3 4 -1.</_>
        <_>
          10 13 3 2 2.</_></rects>
      <tilted>0</tilted></_>
    <_>
      <rects>
        <_>
          10 11 6 6 -1.</_>
        <_>
          10 11 3 3 2.</_>
        <_>
          13 14 3 3 2.</_></rects>
      <tilted>0</tilted></_>
    <_>
      <rects>
        <_>
          10 12 2 1 -1.</_>
        <_>
          11 12 1 1 2.</_></rects>
      <tilted>0</tilted></_>
    <_>
      <rects>
        <_>
          10 12 2 2 -1.</_>
        <_>
          11 12 1 2 2.</_></rects>
      <tilted>0</tilted></_>
    <_>
      <rects>
        <_>
          10 12 3 2 -1.</_>
        <_>
          11 12 1 2 2.</_></rects>
      <tilted>0</tilted></_>
    <_>
      <rects>
        <_>
          10 12 4 1 -1.</_>
        <_>
          12 12 2 1 2.</_></rects>
      <tilted>0</tilted></_>
    <_>
      <rects>
        <_>
          10 12 2 2 -1.</_>
        <_>
          10 13 2 1 2.</_></rects>
      <tilted>0</tilted></_>
    <_>
      <rects>
        <_>
          10 12 4 2 -1.</_>
        <_>
          12 12 2 2 2.</_></rects>
      <tilted>0</tilted></_>
    <_>
      <rects>
        <_>
          11 1 2 2 -1.</_>
        <_>
          11 1 1 1 2.</_>
        <_>
          12 2 1 1 2.</_></rects>
      <tilted>0</tilted></_>
    <_>
      <rects>
        <_>
          11 1 2 2 -1.</_>
        <_>
          11 2 2 1 2.</_></rects>
      <tilted>0</tilted></_>
    <_>
      <rects>
        <_>
          11 4 2 6 -1.</_>
        <_>
          11 4 1 3 2.</_>
        <_>
          12 7 1 3 2.</_></rects>
      <tilted>0</tilted></_>
    <_>
      <rects>
        <_>
          11 5 2 2 -1.</_>
        <_>
          12 5 1 2 2.</_></rects>
      <tilted>0</tilted></_>
    <_>
      <rects>
        <_>
          11 6 2 2 -1.</_>
        <_>
          12 6 1 2 2.</_></rects>
      <tilted>0</tilted></_>
    <_>
      <rects>
        <_>
          11 7 2 1 -1.</_>
        <_>
          12 7 1 1 2.</_></rects>
      <tilted>0</tilted></_>
    <_>
      <rects>
        <_>
          11 8 2 1 -1.</_>
        <_>
          12 8 1 1 2.</_></rects>
      <tilted>0</tilted></_>
    <_>
      <rects>
        <_>
          11 8 2 2 -1.</_>
        <_>
          12 8 1 2 2.</_></rects>
      <tilted>0</tilted></_>
    <_>
      <rects>
        <_>
          11 8 1 4 -1.</_>
        <_>
          11 10 1 2 2.</_></rects>
      <tilted>0</tilted></_>
    <_>
      <rects>
        <_>
          11 8 2 4 -1.</_>
        <_>
          11 10 2 2 2.</_></rects>
      <tilted>0</tilted></_>
    <_>
      <rects>
        <_>
          11 9 4 3 -1.</_>
        <_>
